{"Layer1_weights":[[-5.172832012176514,-5.172832012176514,-5.172832012176514,-5.172832012176514,-5.172832012176514,-5.172832012176514,-5.172832012176514,-5.172832012176514,-5.172832012176514,-5.172832012176514,-5.172832012176514,-5.172832012176514,-5.172832012176514,-5.172832012176514,-5.172832012176514,-5.172832012176514,-5.172832012176514,-5.172832012176514,-5.172832012176514,-5.172832012176514,-5.172832012176514,-5.172832012176514,-5.172832012176514,-5.172832012176514,-5.172832012176514,-5.172832012176514,-5.172832012176514,-5.172832012176514,-5.172832012176514,-5.172832012176514,-5.172832012176514,-5.172832012176514,-5.172832012176514,-5.172832012176514,-5.172832012176514,-5.172832012176514,-5.172832012176514,-5.172832012176514,-5.172832012176514,-5.172832012176514,-5.172832012176514,-5.172832012176514,-5.172832012176514,-5.172832012176514,-5.172832012176514,-5.172832012176514,-5.172832012176514,-5.172832012176514,-5.172832012176514,-5.172832012176514,-5.172832012176514,-5.172832012176514,-5.172832012176514,-5.172832012176514,-5.172832012176514,-5.172832012176514,-5.172832012176514,-5.172832012176514,-5.172832012176514,-5.172832012176514,-5.172832012176514,-5.172832012176514,-5.172832012176514,-5.172832012176514],[0.05588943138718605,0.05588943138718605,0.05588943138718605,0.05588943138718605,0.05588943138718605,0.05588943138718605,0.05588943138718605,0.05588943138718605,0.05588943138718605,0.05588943138718605,0.05588943138718605,0.05588943138718605,0.05588943138718605,0.05588943138718605,0.05588943138718605,0.05588943138718605,0.05588943138718605,0.05588943138718605,0.05588943138718605,0.05588943138718605,0.05588943138718605,0.05588943138718605,0.05588943138718605,0.05588943138718605,0.05588943138718605,0.05588943138718605,0.05588943138718605,0.05588943138718605,0.05588943138718605,0.05588943138718605,0.05588943138718605,0.05588943138718605,0.05588943138718605,0.05588943138718605,0.05588943138718605,0.05588943138718605,0.05588943138718605,0.05588943138718605,0.05588943138718605,0.05588943138718605,0.05588943138718605,0.05588943138718605,0.05588943138718605,0.05588943138718605,0.05588943138718605,0.05588943138718605,0.05588943138718605,0.05588943138718605,0.05588943138718605,0.05588943138718605,0.05588943138718605,0.05588943138718605,0.05588943138718605,0.05588943138718605,0.05588943138718605,0.05588943138718605,0.05588943138718605,0.05588943138718605,0.05588943138718605,0.05588943138718605,0.05588943138718605,0.05588943138718605,0.05588943138718605,0.05588943138718605],[-0.14770109951496124,-0.14770109951496124,-0.14770109951496124,-0.14770109951496124,-0.14770109951496124,-0.14770109951496124,-0.14770109951496124,-0.14770109951496124,-0.14770109951496124,-0.14770109951496124,-0.14770109951496124,-0.14770109951496124,-0.14770109951496124,-0.14770109951496124,-0.14770109951496124,-0.14770109951496124,-0.14770109951496124,-0.14770109951496124,-0.14770109951496124,-0.14770109951496124,-0.14770109951496124,-0.14770109951496124,-0.14770109951496124,-0.14770109951496124,-0.14770109951496124,-0.14770109951496124,-0.14770109951496124,-0.14770109951496124,-0.14770109951496124,-0.14770109951496124,-0.14770109951496124,-0.14770109951496124,-0.14770109951496124,-0.14770109951496124,-0.14770109951496124,-0.14770109951496124,-0.14770109951496124,-0.14770109951496124,-0.14770109951496124,-0.14770109951496124,-0.14770109951496124,-0.14770109951496124,-0.14770109951496124,-0.14770109951496124,-0.14770109951496124,-0.14770109951496124,-0.14770109951496124,-0.14770109951496124,-0.14770109951496124,-0.14770109951496124,-0.14770109951496124,-0.14770109951496124,-0.14770109951496124,-0.14770109951496124,-0.14770109951496124,-0.14770109951496124,-0.14770109951496124,-0.14770109951496124,-0.14770109951496124,-0.14770109951496124,-0.14770109951496124,-0.14770109951496124,-0.14770109951496124,-0.14770109951496124],[0.17332904040813446,0.17332904040813446,0.17332904040813446,0.17332904040813446,0.17332904040813446,0.17332904040813446,0.17332904040813446,0.17332904040813446,0.17332904040813446,0.17332904040813446,0.17332904040813446,0.17332904040813446,0.17332904040813446,0.17332904040813446,0.17332904040813446,0.17332904040813446,0.17332904040813446,0.17332904040813446,0.17332904040813446,0.17332904040813446,0.17332904040813446,0.17332904040813446,0.17332904040813446,0.17332904040813446,0.17332904040813446,0.17332904040813446,0.17332904040813446,0.17332904040813446,0.17332904040813446,0.17332904040813446,0.17332904040813446,0.17332904040813446,0.17332904040813446,0.17332904040813446,0.17332904040813446,0.17332904040813446,0.17332904040813446,0.17332904040813446,0.17332904040813446,0.17332904040813446,0.17332904040813446,0.17332904040813446,0.17332904040813446,0.17332904040813446,0.17332904040813446,0.17332904040813446,0.17332904040813446,0.17332904040813446,0.17332904040813446,0.17332904040813446,0.17332904040813446,0.17332904040813446,0.17332904040813446,0.17332904040813446,0.17332904040813446,0.17332904040813446,0.17332904040813446,0.17332904040813446,0.17332904040813446,0.17332904040813446,0.17332904040813446,0.17332904040813446,0.17332904040813446,0.17332904040813446],[0.057457633316516876,0.057457633316516876,0.057457633316516876,0.057457633316516876,0.057457633316516876,0.057457633316516876,0.057457633316516876,0.057457633316516876,0.057457633316516876,0.057457633316516876,0.057457633316516876,0.057457633316516876,0.057457633316516876,0.057457633316516876,0.057457633316516876,0.057457633316516876,0.057457633316516876,0.057457633316516876,0.057457633316516876,0.057457633316516876,0.057457633316516876,0.057457633316516876,0.057457633316516876,0.057457633316516876,0.057457633316516876,0.057457633316516876,0.057457633316516876,0.057457633316516876,0.057457633316516876,0.057457633316516876,0.057457633316516876,0.057457633316516876,0.057457633316516876,0.057457633316516876,0.057457633316516876,0.057457633316516876,0.057457633316516876,0.057457633316516876,0.057457633316516876,0.057457633316516876,0.057457633316516876,0.057457633316516876,0.057457633316516876,0.057457633316516876,0.057457633316516876,0.057457633316516876,0.057457633316516876,0.057457633316516876,0.057457633316516876,0.057457633316516876,0.057457633316516876,0.057457633316516876,0.057457633316516876,0.057457633316516876,0.057457633316516876,0.057457633316516876,0.057457633316516876,0.057457633316516876,0.057457633316516876,0.057457633316516876,0.057457633316516876,0.057457633316516876,0.057457633316516876,0.057457633316516876],[-0.025167837738990784,-0.025167837738990784,-0.025167837738990784,-0.025167837738990784,-0.025167837738990784,-0.025167837738990784,-0.025167837738990784,-0.025167837738990784,-0.025167837738990784,-0.025167837738990784,-0.025167837738990784,-0.025167837738990784,-0.025167837738990784,-0.025167837738990784,-0.025167837738990784,-0.025167837738990784,-0.025167837738990784,-0.025167837738990784,-0.025167837738990784,-0.025167837738990784,-0.025167837738990784,-0.025167837738990784,-0.025167837738990784,-0.025167837738990784,-0.025167837738990784,-0.025167837738990784,-0.025167837738990784,-0.025167837738990784,-0.025167837738990784,-0.025167837738990784,-0.025167837738990784,-0.025167837738990784,-0.025167837738990784,-0.025167837738990784,-0.025167837738990784,-0.025167837738990784,-0.025167837738990784,-0.025167837738990784,-0.025167837738990784,-0.025167837738990784,-0.025167837738990784,-0.025167837738990784,-0.025167837738990784,-0.025167837738990784,-0.025167837738990784,-0.025167837738990784,-0.025167837738990784,-0.025167837738990784,-0.025167837738990784,-0.025167837738990784,-0.025167837738990784,-0.025167837738990784,-0.025167837738990784,-0.025167837738990784,-0.025167837738990784,-0.025167837738990784,-0.025167837738990784,-0.025167837738990784,-0.025167837738990784,-0.025167837738990784,-0.025167837738990784,-0.025167837738990784,-0.025167837738990784,-0.025167837738990784],[0.11078588664531708,0.11078588664531708,0.11078588664531708,0.11078588664531708,0.11078588664531708,0.11078588664531708,0.11078588664531708,0.11078588664531708,0.11078588664531708,0.11078588664531708,0.11078588664531708,0.11078588664531708,0.11078588664531708,0.11078588664531708,0.11078588664531708,0.11078588664531708,0.11078588664531708,0.11078588664531708,0.11078588664531708,0.11078588664531708,0.11078588664531708,0.11078588664531708,0.11078588664531708,0.11078588664531708,0.11078588664531708,0.11078588664531708,0.11078588664531708,0.11078588664531708,0.11078588664531708,0.11078588664531708,0.11078588664531708,0.11078588664531708,0.11078588664531708,0.11078588664531708,0.11078588664531708,0.11078588664531708,0.11078588664531708,0.11078588664531708,0.11078588664531708,0.11078588664531708,0.11078588664531708,0.11078588664531708,0.11078588664531708,0.11078588664531708,0.11078588664531708,0.11078588664531708,0.11078588664531708,0.11078588664531708,0.11078588664531708,0.11078588664531708,0.11078588664531708,0.11078588664531708,0.11078588664531708,0.11078588664531708,0.11078588664531708,0.11078588664531708,0.11078588664531708,0.11078588664531708,0.11078588664531708,0.11078588664531708,0.11078588664531708,0.11078588664531708,0.11078588664531708,0.11078588664531708],[-0.3545437455177307,-0.3545437455177307,-0.3545437455177307,-0.3545437455177307,-0.3545437455177307,-0.3545437455177307,-0.3545437455177307,-0.3545437455177307,-0.3545437455177307,-0.3545437455177307,-0.3545437455177307,-0.3545437455177307,-0.3545437455177307,-0.3545437455177307,-0.3545437455177307,-0.3545437455177307,-0.3545437455177307,-0.3545437455177307,-0.3545437455177307,-0.3545437455177307,-0.3545437455177307,-0.3545437455177307,-0.3545437455177307,-0.3545437455177307,-0.3545437455177307,-0.3545437455177307,-0.3545437455177307,-0.3545437455177307,-0.3545437455177307,-0.3545437455177307,-0.3545437455177307,-0.3545437455177307,-0.3545437455177307,-0.3545437455177307,-0.3545437455177307,-0.3545437455177307,-0.3545437455177307,-0.3545437455177307,-0.3545437455177307,-0.3545437455177307,-0.3545437455177307,-0.3545437455177307,-0.3545437455177307,-0.3545437455177307,-0.3545437455177307,-0.3545437455177307,-0.3545437455177307,-0.3545437455177307,-0.3545437455177307,-0.3545437455177307,-0.3545437455177307,-0.3545437455177307,-0.3545437455177307,-0.3545437455177307,-0.3545437455177307,-0.3545437455177307,-0.3545437455177307,-0.3545437455177307,-0.3545437455177307,-0.3545437455177307,-0.3545437455177307,-0.3545437455177307,-0.3545437455177307,-0.3545437455177307],[0.14669834077358246,0.14669834077358246,0.14669834077358246,0.14669834077358246,0.14669834077358246,0.14669834077358246,0.14669834077358246,0.14669834077358246,0.14669834077358246,0.14669834077358246,0.14669834077358246,0.14669834077358246,0.14669834077358246,0.14669834077358246,0.14669834077358246,0.14669834077358246,0.14669834077358246,0.14669834077358246,0.14669834077358246,0.14669834077358246,0.14669834077358246,0.14669834077358246,0.14669834077358246,0.14669834077358246,0.14669834077358246,0.14669834077358246,0.14669834077358246,0.14669834077358246,0.14669834077358246,0.14669834077358246,0.14669834077358246,0.14669834077358246,0.14669834077358246,0.14669834077358246,0.14669834077358246,0.14669834077358246,0.14669834077358246,0.14669834077358246,0.14669834077358246,0.14669834077358246,0.14669834077358246,0.14669834077358246,0.14669834077358246,0.14669834077358246,0.14669834077358246,0.14669834077358246,0.14669834077358246,0.14669834077358246,0.14669834077358246,0.14669834077358246,0.14669834077358246,0.14669834077358246,0.14669834077358246,0.14669834077358246,0.14669834077358246,0.14669834077358246,0.14669834077358246,0.14669834077358246,0.14669834077358246,0.14669834077358246,0.14669834077358246,0.14669834077358246,0.14669834077358246,0.14669834077358246],[0.21708498895168304,0.21708498895168304,0.21708498895168304,0.21708498895168304,0.21708498895168304,0.21708498895168304,0.21708498895168304,0.21708498895168304,0.21708498895168304,0.21708498895168304,0.21708498895168304,0.21708498895168304,0.21708498895168304,0.21708498895168304,0.21708498895168304,0.21708498895168304,0.21708498895168304,0.21708498895168304,0.21708498895168304,0.21708498895168304,0.21708498895168304,0.21708498895168304,0.21708498895168304,0.21708498895168304,0.21708498895168304,0.21708498895168304,0.21708498895168304,0.21708498895168304,0.21708498895168304,0.21708498895168304,0.21708498895168304,0.21708498895168304,0.21708498895168304,0.21708498895168304,0.21708498895168304,0.21708498895168304,0.21708498895168304,0.21708498895168304,0.21708498895168304,0.21708498895168304,0.21708498895168304,0.21708498895168304,0.21708498895168304,0.21708498895168304,0.21708498895168304,0.21708498895168304,0.21708498895168304,0.21708498895168304,0.21708498895168304,0.21708498895168304,0.21708498895168304,0.21708498895168304,0.21708498895168304,0.21708498895168304,0.21708498895168304,0.21708498895168304,0.21708498895168304,0.21708498895168304,0.21708498895168304,0.21708498895168304,0.21708498895168304,0.21708498895168304,0.21708498895168304,0.21708498895168304],[-0.020862599834799767,-0.020862599834799767,-0.020862599834799767,-0.020862599834799767,-0.020862599834799767,-0.020862599834799767,-0.020862599834799767,-0.020862599834799767,-0.020862599834799767,-0.020862599834799767,-0.020862599834799767,-0.020862599834799767,-0.020862599834799767,-0.020862599834799767,-0.020862599834799767,-0.020862599834799767,-0.020862599834799767,-0.020862599834799767,-0.020862599834799767,-0.020862599834799767,-0.020862599834799767,-0.020862599834799767,-0.020862599834799767,-0.020862599834799767,-0.020862599834799767,-0.020862599834799767,-0.020862599834799767,-0.020862599834799767,-0.020862599834799767,-0.020862599834799767,-0.020862599834799767,-0.020862599834799767,-0.020862599834799767,-0.020862599834799767,-0.020862599834799767,-0.020862599834799767,-0.020862599834799767,-0.020862599834799767,-0.020862599834799767,-0.020862599834799767,-0.020862599834799767,-0.020862599834799767,-0.020862599834799767,-0.020862599834799767,-0.020862599834799767,-0.020862599834799767,-0.020862599834799767,-0.020862599834799767,-0.020862599834799767,-0.020862599834799767,-0.020862599834799767,-0.020862599834799767,-0.020862599834799767,-0.020862599834799767,-0.020862599834799767,-0.020862599834799767,-0.020862599834799767,-0.020862599834799767,-0.020862599834799767,-0.020862599834799767,-0.020862599834799767,-0.020862599834799767,-0.020862599834799767,-0.020862599834799767],[-0.0601453073322773,-0.0601453073322773,-0.0601453073322773,-0.0601453073322773,-0.0601453073322773,-0.0601453073322773,-0.0601453073322773,-0.0601453073322773,-0.0601453073322773,-0.0601453073322773,-0.0601453073322773,-0.0601453073322773,-0.0601453073322773,-0.0601453073322773,-0.0601453073322773,-0.0601453073322773,-0.0601453073322773,-0.0601453073322773,-0.0601453073322773,-0.0601453073322773,-0.0601453073322773,-0.0601453073322773,-0.0601453073322773,-0.0601453073322773,-0.0601453073322773,-0.0601453073322773,-0.0601453073322773,-0.0601453073322773,-0.0601453073322773,-0.0601453073322773,-0.0601453073322773,-0.0601453073322773,-0.0601453073322773,-0.0601453073322773,-0.0601453073322773,-0.0601453073322773,-0.0601453073322773,-0.0601453073322773,-0.0601453073322773,-0.0601453073322773,-0.0601453073322773,-0.0601453073322773,-0.0601453073322773,-0.0601453073322773,-0.0601453073322773,-0.0601453073322773,-0.0601453073322773,-0.0601453073322773,-0.0601453073322773,-0.0601453073322773,-0.0601453073322773,-0.0601453073322773,-0.0601453073322773,-0.0601453073322773,-0.0601453073322773,-0.0601453073322773,-0.0601453073322773,-0.0601453073322773,-0.0601453073322773,-0.0601453073322773,-0.0601453073322773,-0.0601453073322773,-0.0601453073322773,-0.0601453073322773],[0.030595358461141586,0.030595358461141586,0.030595358461141586,0.030595358461141586,0.030595358461141586,0.030595358461141586,0.030595358461141586,0.030595358461141586,0.030595358461141586,0.030595358461141586,0.030595358461141586,0.030595358461141586,0.030595358461141586,0.030595358461141586,0.030595358461141586,0.030595358461141586,0.030595358461141586,0.030595358461141586,0.030595358461141586,0.030595358461141586,0.030595358461141586,0.030595358461141586,0.030595358461141586,0.030595358461141586,0.030595358461141586,0.030595358461141586,0.030595358461141586,0.030595358461141586,0.030595358461141586,0.030595358461141586,0.030595358461141586,0.030595358461141586,0.030595358461141586,0.030595358461141586,0.030595358461141586,0.030595358461141586,0.030595358461141586,0.030595358461141586,0.030595358461141586,0.030595358461141586,0.030595358461141586,0.030595358461141586,0.030595358461141586,0.030595358461141586,0.030595358461141586,0.030595358461141586,0.030595358461141586,0.030595358461141586,0.030595358461141586,0.030595358461141586,0.030595358461141586,0.030595358461141586,0.030595358461141586,0.030595358461141586,0.030595358461141586,0.030595358461141586,0.030595358461141586,0.030595358461141586,0.030595358461141586,0.030595358461141586,0.030595358461141586,0.030595358461141586,0.030595358461141586,0.030595358461141586],[-0.24140147864818573,-0.24140147864818573,-0.24140147864818573,-0.24140147864818573,-0.24140147864818573,-0.24140147864818573,-0.24140147864818573,-0.24140147864818573,-0.24140147864818573,-0.24140147864818573,-0.24140147864818573,-0.24140147864818573,-0.24140147864818573,-0.24140147864818573,-0.24140147864818573,-0.24140147864818573,-0.24140147864818573,-0.24140147864818573,-0.24140147864818573,-0.24140147864818573,-0.24140147864818573,-0.24140147864818573,-0.24140147864818573,-0.24140147864818573,-0.24140147864818573,-0.24140147864818573,-0.24140147864818573,-0.24140147864818573,-0.24140147864818573,-0.24140147864818573,-0.24140147864818573,-0.24140147864818573,-0.24140147864818573,-0.24140147864818573,-0.24140147864818573,-0.24140147864818573,-0.24140147864818573,-0.24140147864818573,-0.24140147864818573,-0.24140147864818573,-0.24140147864818573,-0.24140147864818573,-0.24140147864818573,-0.24140147864818573,-0.24140147864818573,-0.24140147864818573,-0.24140147864818573,-0.24140147864818573,-0.24140147864818573,-0.24140147864818573,-0.24140147864818573,-0.24140147864818573,-0.24140147864818573,-0.24140147864818573,-0.24140147864818573,-0.24140147864818573,-0.24140147864818573,-0.24140147864818573,-0.24140147864818573,-0.24140147864818573,-0.24140147864818573,-0.24140147864818573,-0.24140147864818573,-0.24140147864818573],[0.07206740230321884,0.07206740230321884,0.07206740230321884,0.07206740230321884,0.07206740230321884,0.07206740230321884,0.07206740230321884,0.07206740230321884,0.07206740230321884,0.07206740230321884,0.07206740230321884,0.07206740230321884,0.07206740230321884,0.07206740230321884,0.07206740230321884,0.07206740230321884,0.07206740230321884,0.07206740230321884,0.07206740230321884,0.07206740230321884,0.07206740230321884,0.07206740230321884,0.07206740230321884,0.07206740230321884,0.07206740230321884,0.07206740230321884,0.07206740230321884,0.07206740230321884,0.07206740230321884,0.07206740230321884,0.07206740230321884,0.07206740230321884,0.07206740230321884,0.07206740230321884,0.07206740230321884,0.07206740230321884,0.07206740230321884,0.07206740230321884,0.07206740230321884,0.07206740230321884,0.07206740230321884,0.07206740230321884,0.07206740230321884,0.07206740230321884,0.07206740230321884,0.07206740230321884,0.07206740230321884,0.07206740230321884,0.07206740230321884,0.07206740230321884,0.07206740230321884,0.07206740230321884,0.07206740230321884,0.07206740230321884,0.07206740230321884,0.07206740230321884,0.07206740230321884,0.07206740230321884,0.07206740230321884,0.07206740230321884,0.07206740230321884,0.07206740230321884,0.07206740230321884,0.07206740230321884],[0.002863918663933873,0.002863918663933873,0.002863918663933873,0.002863918663933873,0.002863918663933873,0.002863918663933873,0.002863918663933873,0.002863918663933873,0.002863918663933873,0.002863918663933873,0.002863918663933873,0.002863918663933873,0.002863918663933873,0.002863918663933873,0.002863918663933873,0.002863918663933873,0.002863918663933873,0.002863918663933873,0.002863918663933873,0.002863918663933873,0.002863918663933873,0.002863918663933873,0.002863918663933873,0.002863918663933873,0.002863918663933873,0.002863918663933873,0.002863918663933873,0.002863918663933873,0.002863918663933873,0.002863918663933873,0.002863918663933873,0.002863918663933873,0.002863918663933873,0.002863918663933873,0.002863918663933873,0.002863918663933873,0.002863918663933873,0.002863918663933873,0.002863918663933873,0.002863918663933873,0.002863918663933873,0.002863918663933873,0.002863918663933873,0.002863918663933873,0.002863918663933873,0.002863918663933873,0.002863918663933873,0.002863918663933873,0.002863918663933873,0.002863918663933873,0.002863918663933873,0.002863918663933873,0.002863918663933873,0.002863918663933873,0.002863918663933873,0.002863918663933873,0.002863918663933873,0.002863918663933873,0.002863918663933873,0.002863918663933873,0.002863918663933873,0.002863918663933873,0.002863918663933873,0.002863918663933873],[-0.214544877409935,-0.214544877409935,-0.214544877409935,-0.214544877409935,-0.214544877409935,-0.214544877409935,-0.214544877409935,-0.214544877409935,-0.214544877409935,-0.214544877409935,-0.214544877409935,-0.214544877409935,-0.214544877409935,-0.214544877409935,-0.214544877409935,-0.214544877409935,-0.214544877409935,-0.214544877409935,-0.214544877409935,-0.214544877409935,-0.214544877409935,-0.214544877409935,-0.214544877409935,-0.214544877409935,-0.214544877409935,-0.214544877409935,-0.214544877409935,-0.214544877409935,-0.214544877409935,-0.214544877409935,-0.214544877409935,-0.214544877409935,-0.214544877409935,-0.214544877409935,-0.214544877409935,-0.214544877409935,-0.214544877409935,-0.214544877409935,-0.214544877409935,-0.214544877409935,-0.214544877409935,-0.214544877409935,-0.214544877409935,-0.214544877409935,-0.214544877409935,-0.214544877409935,-0.214544877409935,-0.214544877409935,-0.214544877409935,-0.214544877409935,-0.214544877409935,-0.214544877409935,-0.214544877409935,-0.214544877409935,-0.214544877409935,-0.214544877409935,-0.214544877409935,-0.214544877409935,-0.214544877409935,-0.214544877409935,-0.214544877409935,-0.214544877409935,-0.214544877409935,-0.214544877409935],[-0.13484229147434235,-0.13484229147434235,-0.13484229147434235,-0.13484229147434235,-0.13484229147434235,-0.13484229147434235,-0.13484229147434235,-0.13484229147434235,-0.13484229147434235,-0.13484229147434235,-0.13484229147434235,-0.13484229147434235,-0.13484229147434235,-0.13484229147434235,-0.13484229147434235,-0.13484229147434235,-0.13484229147434235,-0.13484229147434235,-0.13484229147434235,-0.13484229147434235,-0.13484229147434235,-0.13484229147434235,-0.13484229147434235,-0.13484229147434235,-0.13484229147434235,-0.13484229147434235,-0.13484229147434235,-0.13484229147434235,-0.13484229147434235,-0.13484229147434235,-0.13484229147434235,-0.13484229147434235,-0.13484229147434235,-0.13484229147434235,-0.13484229147434235,-0.13484229147434235,-0.13484229147434235,-0.13484229147434235,-0.13484229147434235,-0.13484229147434235,-0.13484229147434235,-0.13484229147434235,-0.13484229147434235,-0.13484229147434235,-0.13484229147434235,-0.13484229147434235,-0.13484229147434235,-0.13484229147434235,-0.13484229147434235,-0.13484229147434235,-0.13484229147434235,-0.13484229147434235,-0.13484229147434235,-0.13484229147434235,-0.13484229147434235,-0.13484229147434235,-0.13484229147434235,-0.13484229147434235,-0.13484229147434235,-0.13484229147434235,-0.13484229147434235,-0.13484229147434235,-0.13484229147434235,-0.13484229147434235],[0.5788688063621521,0.5788688063621521,0.5788688063621521,0.5788688063621521,0.5788688063621521,0.5788688063621521,0.5788688063621521,0.5788688063621521,0.5788688063621521,0.5788688063621521,0.5788688063621521,0.5788688063621521,0.5788688063621521,0.5788688063621521,0.5788688063621521,0.5788688063621521,0.5788688063621521,0.5788688063621521,0.5788688063621521,0.5788688063621521,0.5788688063621521,0.5788688063621521,0.5788688063621521,0.5788688063621521,0.5788688063621521,0.5788688063621521,0.5788688063621521,0.5788688063621521,0.5788688063621521,0.5788688063621521,0.5788688063621521,0.5788688063621521,0.5788688063621521,0.5788688063621521,0.5788688063621521,0.5788688063621521,0.5788688063621521,0.5788688063621521,0.5788688063621521,0.5788688063621521,0.5788688063621521,0.5788688063621521,0.5788688063621521,0.5788688063621521,0.5788688063621521,0.5788688063621521,0.5788688063621521,0.5788688063621521,0.5788688063621521,0.5788688063621521,0.5788688063621521,0.5788688063621521,0.5788688063621521,0.5788688063621521,0.5788688063621521,0.5788688063621521,0.5788688063621521,0.5788688063621521,0.5788688063621521,0.5788688063621521,0.5788688063621521,0.5788688063621521,0.5788688063621521,0.5788688063621521],[0.11522886157035828,0.11522886157035828,0.11522886157035828,0.11522886157035828,0.11522886157035828,0.11522886157035828,0.11522886157035828,0.11522886157035828,0.11522886157035828,0.11522886157035828,0.11522886157035828,0.11522886157035828,0.11522886157035828,0.11522886157035828,0.11522886157035828,0.11522886157035828,0.11522886157035828,0.11522886157035828,0.11522886157035828,0.11522886157035828,0.11522886157035828,0.11522886157035828,0.11522886157035828,0.11522886157035828,0.11522886157035828,0.11522886157035828,0.11522886157035828,0.11522886157035828,0.11522886157035828,0.11522886157035828,0.11522886157035828,0.11522886157035828,0.11522886157035828,0.11522886157035828,0.11522886157035828,0.11522886157035828,0.11522886157035828,0.11522886157035828,0.11522886157035828,0.11522886157035828,0.11522886157035828,0.11522886157035828,0.11522886157035828,0.11522886157035828,0.11522886157035828,0.11522886157035828,0.11522886157035828,0.11522886157035828,0.11522886157035828,0.11522886157035828,0.11522886157035828,0.11522886157035828,0.11522886157035828,0.11522886157035828,0.11522886157035828,0.11522886157035828,0.11522886157035828,0.11522886157035828,0.11522886157035828,0.11522886157035828,0.11522886157035828,0.11522886157035828,0.11522886157035828,0.11522886157035828],[0.4187659025192261,0.4187659025192261,0.4187659025192261,0.4187659025192261,0.4187659025192261,0.4187659025192261,0.4187659025192261,0.4187659025192261,0.4187659025192261,0.4187659025192261,0.4187659025192261,0.4187659025192261,0.4187659025192261,0.4187659025192261,0.4187659025192261,0.4187659025192261,0.4187659025192261,0.4187659025192261,0.4187659025192261,0.4187659025192261,0.4187659025192261,0.4187659025192261,0.4187659025192261,0.4187659025192261,0.4187659025192261,0.4187659025192261,0.4187659025192261,0.4187659025192261,0.4187659025192261,0.4187659025192261,0.4187659025192261,0.4187659025192261,0.4187659025192261,0.4187659025192261,0.4187659025192261,0.4187659025192261,0.4187659025192261,0.4187659025192261,0.4187659025192261,0.4187659025192261,0.4187659025192261,0.4187659025192261,0.4187659025192261,0.4187659025192261,0.4187659025192261,0.4187659025192261,0.4187659025192261,0.4187659025192261,0.4187659025192261,0.4187659025192261,0.4187659025192261,0.4187659025192261,0.4187659025192261,0.4187659025192261,0.4187659025192261,0.4187659025192261,0.4187659025192261,0.4187659025192261,0.4187659025192261,0.4187659025192261,0.4187659025192261,0.4187659025192261,0.4187659025192261,0.4187659025192261],[-1.425997018814087,-1.425997018814087,-1.425997018814087,-1.425997018814087,-1.425997018814087,-1.425997018814087,-1.425997018814087,-1.425997018814087,-1.425997018814087,-1.425997018814087,-1.425997018814087,-1.425997018814087,-1.425997018814087,-1.425997018814087,-1.425997018814087,-1.425997018814087,-1.425997018814087,-1.425997018814087,-1.425997018814087,-1.425997018814087,-1.425997018814087,-1.425997018814087,-1.425997018814087,-1.425997018814087,-1.425997018814087,-1.425997018814087,-1.425997018814087,-1.425997018814087,-1.425997018814087,-1.425997018814087,-1.425997018814087,-1.425997018814087,-1.425997018814087,-1.425997018814087,-1.425997018814087,-1.425997018814087,-1.425997018814087,-1.425997018814087,-1.425997018814087,-1.425997018814087,-1.425997018814087,-1.425997018814087,-1.425997018814087,-1.425997018814087,-1.425997018814087,-1.425997018814087,-1.425997018814087,-1.425997018814087,-1.425997018814087,-1.425997018814087,-1.425997018814087,-1.425997018814087,-1.425997018814087,-1.425997018814087,-1.425997018814087,-1.425997018814087,-1.425997018814087,-1.425997018814087,-1.425997018814087,-1.425997018814087,-1.425997018814087,-1.425997018814087,-1.425997018814087,-1.425997018814087],[-0.23838156461715698,-0.23838156461715698,-0.23838156461715698,-0.23838156461715698,-0.23838156461715698,-0.23838156461715698,-0.23838156461715698,-0.23838156461715698,-0.23838156461715698,-0.23838156461715698,-0.23838156461715698,-0.23838156461715698,-0.23838156461715698,-0.23838156461715698,-0.23838156461715698,-0.23838156461715698,-0.23838156461715698,-0.23838156461715698,-0.23838156461715698,-0.23838156461715698,-0.23838156461715698,-0.23838156461715698,-0.23838156461715698,-0.23838156461715698,-0.23838156461715698,-0.23838156461715698,-0.23838156461715698,-0.23838156461715698,-0.23838156461715698,-0.23838156461715698,-0.23838156461715698,-0.23838156461715698,-0.23838156461715698,-0.23838156461715698,-0.23838156461715698,-0.23838156461715698,-0.23838156461715698,-0.23838156461715698,-0.23838156461715698,-0.23838156461715698,-0.23838156461715698,-0.23838156461715698,-0.23838156461715698,-0.23838156461715698,-0.23838156461715698,-0.23838156461715698,-0.23838156461715698,-0.23838156461715698,-0.23838156461715698,-0.23838156461715698,-0.23838156461715698,-0.23838156461715698,-0.23838156461715698,-0.23838156461715698,-0.23838156461715698,-0.23838156461715698,-0.23838156461715698,-0.23838156461715698,-0.23838156461715698,-0.23838156461715698,-0.23838156461715698,-0.23838156461715698,-0.23838156461715698,-0.23838156461715698],[-0.38544961810112,-0.38544961810112,-0.38544961810112,-0.38544961810112,-0.38544961810112,-0.38544961810112,-0.38544961810112,-0.38544961810112,-0.38544961810112,-0.38544961810112,-0.38544961810112,-0.38544961810112,-0.38544961810112,-0.38544961810112,-0.38544961810112,-0.38544961810112,-0.38544961810112,-0.38544961810112,-0.38544961810112,-0.38544961810112,-0.38544961810112,-0.38544961810112,-0.38544961810112,-0.38544961810112,-0.38544961810112,-0.38544961810112,-0.38544961810112,-0.38544961810112,-0.38544961810112,-0.38544961810112,-0.38544961810112,-0.38544961810112,-0.38544961810112,-0.38544961810112,-0.38544961810112,-0.38544961810112,-0.38544961810112,-0.38544961810112,-0.38544961810112,-0.38544961810112,-0.38544961810112,-0.38544961810112,-0.38544961810112,-0.38544961810112,-0.38544961810112,-0.38544961810112,-0.38544961810112,-0.38544961810112,-0.38544961810112,-0.38544961810112,-0.38544961810112,-0.38544961810112,-0.38544961810112,-0.38544961810112,-0.38544961810112,-0.38544961810112,-0.38544961810112,-0.38544961810112,-0.38544961810112,-0.38544961810112,-0.38544961810112,-0.38544961810112,-0.38544961810112,-0.38544961810112]],"Layer1_biases":[0,0,0,0,0,0,0,0,0,0,0,0,0,0,0,0,0,0,0,0,0,0,0,0,0,0,0,0,0,0,0,0,0,0,0,0,0,0,0,0,0,0,0,0,0,0,0,0,0,0,0,0,0,0,0,0,0,0,0,0,0,0,0,0],"Layer2_weights":[[-7.990810871124268,-7.990810871124268,-7.990810871124268,-7.990810871124268,-7.990810871124268,-7.990810871124268,-7.990810871124268,-7.990810871124268,-7.990810871124268,-7.990810871124268,-7.990810871124268,-7.990810871124268,-7.990810871124268,-7.990810871124268,-7.990810871124268,-7.990810871124268,-7.990810871124268,-7.990810871124268,-7.990810871124268,-7.990810871124268,-7.990810871124268,-7.990810871124268,-7.990810871124268,-7.990810871124268,-7.990810871124268,-7.990810871124268,-7.990810871124268,-7.990810871124268,-7.990810871124268,-7.990810871124268,-7.990810871124268,-7.990810871124268,-7.990810871124268,-7.990810871124268,-7.990810871124268,-7.990810871124268,-7.990810871124268,-7.990810871124268,-7.990810871124268,-7.990810871124268,-7.990810871124268,-7.990810871124268,-7.990810871124268,-7.990810871124268,-7.990810871124268,-7.990810871124268,-7.990810871124268,-7.990810871124268,-7.990810871124268,-7.990810871124268,-7.990810871124268,-7.990810871124268,-7.990810871124268,-7.990810871124268,-7.990810871124268,-7.990810871124268,-7.990810871124268,-7.990810871124268,-7.990810871124268,-7.990810871124268,-7.990810871124268,-7.990810871124268,-7.990810871124268,-7.990810871124268,-7.990810871124268,-7.990810871124268,-7.990810871124268,-7.990810871124268,-7.990810871124268,-7.990810871124268,-7.990810871124268,-7.990810871124268,-7.990810871124268,-7.990810871124268,-7.990810871124268,-7.990810871124268,-7.990810871124268,-7.990810871124268,-7.990810871124268,-7.990810871124268,-7.990810871124268,-7.990810871124268,-7.990810871124268,-7.990810871124268,-7.990810871124268,-7.990810871124268,-7.990810871124268,-7.990810871124268,-7.990810871124268,-7.990810871124268,-7.990810871124268,-7.990810871124268,-7.990810871124268,-7.990810871124268,-7.990810871124268,-7.990810871124268,-7.990810871124268,-7.990810871124268,-7.990810871124268,-7.990810871124268,-7.990810871124268,-7.990810871124268,-7.990810871124268,-7.990810871124268,-7.990810871124268,-7.990810871124268,-7.990810871124268,-7.990810871124268,-7.990810871124268,-7.990810871124268,-7.990810871124268,-7.990810871124268,-7.990810871124268,-7.990810871124268,-7.990810871124268,-7.990810871124268,-7.990810871124268,-7.990810871124268,-7.990810871124268,-7.990810871124268,-7.990810871124268,-7.990810871124268,-7.990810871124268,-7.990810871124268,-7.990810871124268,-7.990810871124268,-0.035863764584064484,-0.035863764584064484],[-7.990810871124268,-7.990810871124268,-7.990810871124268,-7.990810871124268,-7.990810871124268,-7.990810871124268,-7.990810871124268,-7.990810871124268,-7.990810871124268,-7.990810871124268,-7.990810871124268,-7.990810871124268,-7.990810871124268,-7.990810871124268,-7.990810871124268,-7.990810871124268,-7.990810871124268,-7.990810871124268,-7.990810871124268,-7.990810871124268,-7.990810871124268,-7.990810871124268,-7.990810871124268,-7.990810871124268,-7.990810871124268,-7.990810871124268,-7.990810871124268,-7.990810871124268,-7.990810871124268,-7.990810871124268,-7.990810871124268,-7.990810871124268,-7.990810871124268,-7.990810871124268,-7.990810871124268,-7.990810871124268,-7.990810871124268,-7.990810871124268,-7.990810871124268,-7.990810871124268,-7.990810871124268,-7.990810871124268,-7.990810871124268,-7.990810871124268,-7.990810871124268,-7.990810871124268,-7.990810871124268,-7.990810871124268,-7.990810871124268,-7.990810871124268,-7.990810871124268,-7.990810871124268,-7.990810871124268,-7.990810871124268,-7.990810871124268,-7.990810871124268,-7.990810871124268,-7.990810871124268,-7.990810871124268,-7.990810871124268,-7.990810871124268,-7.990810871124268,-7.990810871124268,-7.990810871124268,-7.990810871124268,-7.990810871124268,-7.990810871124268,-7.990810871124268,-7.990810871124268,-7.990810871124268,-7.990810871124268,-7.990810871124268,-7.990810871124268,-7.990810871124268,-7.990810871124268,-7.990810871124268,-7.990810871124268,-7.990810871124268,-7.990810871124268,-7.990810871124268,-7.990810871124268,-7.990810871124268,-7.990810871124268,-7.990810871124268,-7.990810871124268,-7.990810871124268,-7.990810871124268,-7.990810871124268,-7.990810871124268,-7.990810871124268,-7.990810871124268,-7.990810871124268,-7.990810871124268,-7.990810871124268,-7.990810871124268,-7.990810871124268,-7.990810871124268,-7.990810871124268,-7.990810871124268,-7.990810871124268,-7.990810871124268,-7.990810871124268,-7.990810871124268,-7.990810871124268,-7.990810871124268,-7.990810871124268,-7.990810871124268,-7.990810871124268,-7.990810871124268,-7.990810871124268,-7.990810871124268,-7.990810871124268,-7.990810871124268,-7.990810871124268,-7.990810871124268,-7.990810871124268,-7.990810871124268,-7.990810871124268,-7.990810871124268,-7.990810871124268,-7.990810871124268,-7.990810871124268,-7.990810871124268,-7.990810871124268,-7.990810871124268,-7.990810871124268,-0.035863764584064484,-0.035863764584064484],[-7.990810871124268,-7.990810871124268,-7.990810871124268,-7.990810871124268,-7.990810871124268,-7.990810871124268,-7.990810871124268,-7.990810871124268,-7.990810871124268,-7.990810871124268,-7.990810871124268,-7.990810871124268,-7.990810871124268,-7.990810871124268,-7.990810871124268,-7.990810871124268,-7.990810871124268,-7.990810871124268,-7.990810871124268,-7.990810871124268,-7.990810871124268,-7.990810871124268,-7.990810871124268,-7.990810871124268,-7.990810871124268,-7.990810871124268,-7.990810871124268,-7.990810871124268,-7.990810871124268,-7.990810871124268,-7.990810871124268,-7.990810871124268,-7.990810871124268,-7.990810871124268,-7.990810871124268,-7.990810871124268,-7.990810871124268,-7.990810871124268,-7.990810871124268,-7.990810871124268,-7.990810871124268,-7.990810871124268,-7.990810871124268,-7.990810871124268,-7.990810871124268,-7.990810871124268,-7.990810871124268,-7.990810871124268,-7.990810871124268,-7.990810871124268,-7.990810871124268,-7.990810871124268,-7.990810871124268,-7.990810871124268,-7.990810871124268,-7.990810871124268,-7.990810871124268,-7.990810871124268,-7.990810871124268,-7.990810871124268,-7.990810871124268,-7.990810871124268,-7.990810871124268,-7.990810871124268,-7.990810871124268,-7.990810871124268,-7.990810871124268,-7.990810871124268,-7.990810871124268,-7.990810871124268,-7.990810871124268,-7.990810871124268,-7.990810871124268,-7.990810871124268,-7.990810871124268,-7.990810871124268,-7.990810871124268,-7.990810871124268,-7.990810871124268,-7.990810871124268,-7.990810871124268,-7.990810871124268,-7.990810871124268,-7.990810871124268,-7.990810871124268,-7.990810871124268,-7.990810871124268,-7.990810871124268,-7.990810871124268,-7.990810871124268,-7.990810871124268,-7.990810871124268,-7.990810871124268,-7.990810871124268,-7.990810871124268,-7.990810871124268,-7.990810871124268,-7.990810871124268,-7.990810871124268,-7.990810871124268,-7.990810871124268,-7.990810871124268,-7.990810871124268,-7.990810871124268,-7.990810871124268,-7.990810871124268,-7.990810871124268,-7.990810871124268,-7.990810871124268,-7.990810871124268,-7.990810871124268,-7.990810871124268,-7.990810871124268,-7.990810871124268,-7.990810871124268,-7.990810871124268,-7.990810871124268,-7.990810871124268,-7.990810871124268,-7.990810871124268,-7.990810871124268,-7.990810871124268,-7.990810871124268,-7.990810871124268,-7.990810871124268,-7.990810871124268,-0.035863764584064484,-0.035863764584064484],[-7.990810871124268,-7.990810871124268,-7.990810871124268,-7.990810871124268,-7.990810871124268,-7.990810871124268,-7.990810871124268,-7.990810871124268,-7.990810871124268,-7.990810871124268,-7.990810871124268,-7.990810871124268,-7.990810871124268,-7.990810871124268,-7.990810871124268,-7.990810871124268,-7.990810871124268,-7.990810871124268,-7.990810871124268,-7.990810871124268,-7.990810871124268,-7.990810871124268,-7.990810871124268,-7.990810871124268,-7.990810871124268,-7.990810871124268,-7.990810871124268,-7.990810871124268,-7.990810871124268,-7.990810871124268,-7.990810871124268,-7.990810871124268,-7.990810871124268,-7.990810871124268,-7.990810871124268,-7.990810871124268,-7.990810871124268,-7.990810871124268,-7.990810871124268,-7.990810871124268,-7.990810871124268,-7.990810871124268,-7.990810871124268,-7.990810871124268,-7.990810871124268,-7.990810871124268,-7.990810871124268,-7.990810871124268,-7.990810871124268,-7.990810871124268,-7.990810871124268,-7.990810871124268,-7.990810871124268,-7.990810871124268,-7.990810871124268,-7.990810871124268,-7.990810871124268,-7.990810871124268,-7.990810871124268,-7.990810871124268,-7.990810871124268,-7.990810871124268,-7.990810871124268,-7.990810871124268,-7.990810871124268,-7.990810871124268,-7.990810871124268,-7.990810871124268,-7.990810871124268,-7.990810871124268,-7.990810871124268,-7.990810871124268,-7.990810871124268,-7.990810871124268,-7.990810871124268,-7.990810871124268,-7.990810871124268,-7.990810871124268,-7.990810871124268,-7.990810871124268,-7.990810871124268,-7.990810871124268,-7.990810871124268,-7.990810871124268,-7.990810871124268,-7.990810871124268,-7.990810871124268,-7.990810871124268,-7.990810871124268,-7.990810871124268,-7.990810871124268,-7.990810871124268,-7.990810871124268,-7.990810871124268,-7.990810871124268,-7.990810871124268,-7.990810871124268,-7.990810871124268,-7.990810871124268,-7.990810871124268,-7.990810871124268,-7.990810871124268,-7.990810871124268,-7.990810871124268,-7.990810871124268,-7.990810871124268,-7.990810871124268,-7.990810871124268,-7.990810871124268,-7.990810871124268,-7.990810871124268,-7.990810871124268,-7.990810871124268,-7.990810871124268,-7.990810871124268,-7.990810871124268,-7.990810871124268,-7.990810871124268,-7.990810871124268,-7.990810871124268,-7.990810871124268,-7.990810871124268,-7.990810871124268,-7.990810871124268,-7.990810871124268,-7.990810871124268,-0.035863764584064484,-0.035863764584064484],[-7.990810871124268,-7.990810871124268,-7.990810871124268,-7.990810871124268,-7.990810871124268,-7.990810871124268,-7.990810871124268,-7.990810871124268,-7.990810871124268,-7.990810871124268,-7.990810871124268,-7.990810871124268,-7.990810871124268,-7.990810871124268,-7.990810871124268,-7.990810871124268,-7.990810871124268,-7.990810871124268,-7.990810871124268,-7.990810871124268,-7.990810871124268,-7.990810871124268,-7.990810871124268,-7.990810871124268,-7.990810871124268,-7.990810871124268,-7.990810871124268,-7.990810871124268,-7.990810871124268,-7.990810871124268,-7.990810871124268,-7.990810871124268,-7.990810871124268,-7.990810871124268,-7.990810871124268,-7.990810871124268,-7.990810871124268,-7.990810871124268,-7.990810871124268,-7.990810871124268,-7.990810871124268,-7.990810871124268,-7.990810871124268,-7.990810871124268,-7.990810871124268,-7.990810871124268,-7.990810871124268,-7.990810871124268,-7.990810871124268,-7.990810871124268,-7.990810871124268,-7.990810871124268,-7.990810871124268,-7.990810871124268,-7.990810871124268,-7.990810871124268,-7.990810871124268,-7.990810871124268,-7.990810871124268,-7.990810871124268,-7.990810871124268,-7.990810871124268,-7.990810871124268,-7.990810871124268,-7.990810871124268,-7.990810871124268,-7.990810871124268,-7.990810871124268,-7.990810871124268,-7.990810871124268,-7.990810871124268,-7.990810871124268,-7.990810871124268,-7.990810871124268,-7.990810871124268,-7.990810871124268,-7.990810871124268,-7.990810871124268,-7.990810871124268,-7.990810871124268,-7.990810871124268,-7.990810871124268,-7.990810871124268,-7.990810871124268,-7.990810871124268,-7.990810871124268,-7.990810871124268,-7.990810871124268,-7.990810871124268,-7.990810871124268,-7.990810871124268,-7.990810871124268,-7.990810871124268,-7.990810871124268,-7.990810871124268,-7.990810871124268,-7.990810871124268,-7.990810871124268,-7.990810871124268,-7.990810871124268,-7.990810871124268,-7.990810871124268,-7.990810871124268,-7.990810871124268,-7.990810871124268,-7.990810871124268,-7.990810871124268,-7.990810871124268,-7.990810871124268,-7.990810871124268,-7.990810871124268,-7.990810871124268,-7.990810871124268,-7.990810871124268,-7.990810871124268,-7.990810871124268,-7.990810871124268,-7.990810871124268,-7.990810871124268,-7.990810871124268,-7.990810871124268,-7.990810871124268,-7.990810871124268,-7.990810871124268,-7.990810871124268,-7.990810871124268,-0.035863764584064484,-0.035863764584064484],[-7.990810871124268,-7.990810871124268,-7.990810871124268,-7.990810871124268,-7.990810871124268,-7.990810871124268,-7.990810871124268,-7.990810871124268,-7.990810871124268,-7.990810871124268,-7.990810871124268,-7.990810871124268,-7.990810871124268,-7.990810871124268,-7.990810871124268,-7.990810871124268,-7.990810871124268,-7.990810871124268,-7.990810871124268,-7.990810871124268,-7.990810871124268,-7.990810871124268,-7.990810871124268,-7.990810871124268,-7.990810871124268,-7.990810871124268,-7.990810871124268,-7.990810871124268,-7.990810871124268,-7.990810871124268,-7.990810871124268,-7.990810871124268,-7.990810871124268,-7.990810871124268,-7.990810871124268,-7.990810871124268,-7.990810871124268,-7.990810871124268,-7.990810871124268,-7.990810871124268,-7.990810871124268,-7.990810871124268,-7.990810871124268,-7.990810871124268,-7.990810871124268,-7.990810871124268,-7.990810871124268,-7.990810871124268,-7.990810871124268,-7.990810871124268,-7.990810871124268,-7.990810871124268,-7.990810871124268,-7.990810871124268,-7.990810871124268,-7.990810871124268,-7.990810871124268,-7.990810871124268,-7.990810871124268,-7.990810871124268,-7.990810871124268,-7.990810871124268,-7.990810871124268,-7.990810871124268,-7.990810871124268,-7.990810871124268,-7.990810871124268,-7.990810871124268,-7.990810871124268,-7.990810871124268,-7.990810871124268,-7.990810871124268,-7.990810871124268,-7.990810871124268,-7.990810871124268,-7.990810871124268,-7.990810871124268,-7.990810871124268,-7.990810871124268,-7.990810871124268,-7.990810871124268,-7.990810871124268,-7.990810871124268,-7.990810871124268,-7.990810871124268,-7.990810871124268,-7.990810871124268,-7.990810871124268,-7.990810871124268,-7.990810871124268,-7.990810871124268,-7.990810871124268,-7.990810871124268,-7.990810871124268,-7.990810871124268,-7.990810871124268,-7.990810871124268,-7.990810871124268,-7.990810871124268,-7.990810871124268,-7.990810871124268,-7.990810871124268,-7.990810871124268,-7.990810871124268,-7.990810871124268,-7.990810871124268,-7.990810871124268,-7.990810871124268,-7.990810871124268,-7.990810871124268,-7.990810871124268,-7.990810871124268,-7.990810871124268,-7.990810871124268,-7.990810871124268,-7.990810871124268,-7.990810871124268,-7.990810871124268,-7.990810871124268,-7.990810871124268,-7.990810871124268,-7.990810871124268,-7.990810871124268,-7.990810871124268,-7.990810871124268,-7.990810871124268,-0.035863764584064484,-0.035863764584064484],[-7.990810871124268,-7.990810871124268,-7.990810871124268,-7.990810871124268,-7.990810871124268,-7.990810871124268,-7.990810871124268,-7.990810871124268,-7.990810871124268,-7.990810871124268,-7.990810871124268,-7.990810871124268,-7.990810871124268,-7.990810871124268,-7.990810871124268,-7.990810871124268,-7.990810871124268,-7.990810871124268,-7.990810871124268,-7.990810871124268,-7.990810871124268,-7.990810871124268,-7.990810871124268,-7.990810871124268,-7.990810871124268,-7.990810871124268,-7.990810871124268,-7.990810871124268,-7.990810871124268,-7.990810871124268,-7.990810871124268,-7.990810871124268,-7.990810871124268,-7.990810871124268,-7.990810871124268,-7.990810871124268,-7.990810871124268,-7.990810871124268,-7.990810871124268,-7.990810871124268,-7.990810871124268,-7.990810871124268,-7.990810871124268,-7.990810871124268,-7.990810871124268,-7.990810871124268,-7.990810871124268,-7.990810871124268,-7.990810871124268,-7.990810871124268,-7.990810871124268,-7.990810871124268,-7.990810871124268,-7.990810871124268,-7.990810871124268,-7.990810871124268,-7.990810871124268,-7.990810871124268,-7.990810871124268,-7.990810871124268,-7.990810871124268,-7.990810871124268,-7.990810871124268,-7.990810871124268,-7.990810871124268,-7.990810871124268,-7.990810871124268,-7.990810871124268,-7.990810871124268,-7.990810871124268,-7.990810871124268,-7.990810871124268,-7.990810871124268,-7.990810871124268,-7.990810871124268,-7.990810871124268,-7.990810871124268,-7.990810871124268,-7.990810871124268,-7.990810871124268,-7.990810871124268,-7.990810871124268,-7.990810871124268,-7.990810871124268,-7.990810871124268,-7.990810871124268,-7.990810871124268,-7.990810871124268,-7.990810871124268,-7.990810871124268,-7.990810871124268,-7.990810871124268,-7.990810871124268,-7.990810871124268,-7.990810871124268,-7.990810871124268,-7.990810871124268,-7.990810871124268,-7.990810871124268,-7.990810871124268,-7.990810871124268,-7.990810871124268,-7.990810871124268,-7.990810871124268,-7.990810871124268,-7.990810871124268,-7.990810871124268,-7.990810871124268,-7.990810871124268,-7.990810871124268,-7.990810871124268,-7.990810871124268,-7.990810871124268,-7.990810871124268,-7.990810871124268,-7.990810871124268,-7.990810871124268,-7.990810871124268,-7.990810871124268,-7.990810871124268,-7.990810871124268,-7.990810871124268,-7.990810871124268,-7.990810871124268,-7.990810871124268,-7.990810871124268,-0.035863764584064484,-0.035863764584064484],[-7.990810871124268,-7.990810871124268,-7.990810871124268,-7.990810871124268,-7.990810871124268,-7.990810871124268,-7.990810871124268,-7.990810871124268,-7.990810871124268,-7.990810871124268,-7.990810871124268,-7.990810871124268,-7.990810871124268,-7.990810871124268,-7.990810871124268,-7.990810871124268,-7.990810871124268,-7.990810871124268,-7.990810871124268,-7.990810871124268,-7.990810871124268,-7.990810871124268,-7.990810871124268,-7.990810871124268,-7.990810871124268,-7.990810871124268,-7.990810871124268,-7.990810871124268,-7.990810871124268,-7.990810871124268,-7.990810871124268,-7.990810871124268,-7.990810871124268,-7.990810871124268,-7.990810871124268,-7.990810871124268,-7.990810871124268,-7.990810871124268,-7.990810871124268,-7.990810871124268,-7.990810871124268,-7.990810871124268,-7.990810871124268,-7.990810871124268,-7.990810871124268,-7.990810871124268,-7.990810871124268,-7.990810871124268,-7.990810871124268,-7.990810871124268,-7.990810871124268,-7.990810871124268,-7.990810871124268,-7.990810871124268,-7.990810871124268,-7.990810871124268,-7.990810871124268,-7.990810871124268,-7.990810871124268,-7.990810871124268,-7.990810871124268,-7.990810871124268,-7.990810871124268,-7.990810871124268,-7.990810871124268,-7.990810871124268,-7.990810871124268,-7.990810871124268,-7.990810871124268,-7.990810871124268,-7.990810871124268,-7.990810871124268,-7.990810871124268,-7.990810871124268,-7.990810871124268,-7.990810871124268,-7.990810871124268,-7.990810871124268,-7.990810871124268,-7.990810871124268,-7.990810871124268,-7.990810871124268,-7.990810871124268,-7.990810871124268,-7.990810871124268,-7.990810871124268,-7.990810871124268,-7.990810871124268,-7.990810871124268,-7.990810871124268,-7.990810871124268,-7.990810871124268,-7.990810871124268,-7.990810871124268,-7.990810871124268,-7.990810871124268,-7.990810871124268,-7.990810871124268,-7.990810871124268,-7.990810871124268,-7.990810871124268,-7.990810871124268,-7.990810871124268,-7.990810871124268,-7.990810871124268,-7.990810871124268,-7.990810871124268,-7.990810871124268,-7.990810871124268,-7.990810871124268,-7.990810871124268,-7.990810871124268,-7.990810871124268,-7.990810871124268,-7.990810871124268,-7.990810871124268,-7.990810871124268,-7.990810871124268,-7.990810871124268,-7.990810871124268,-7.990810871124268,-7.990810871124268,-7.990810871124268,-7.990810871124268,-7.990810871124268,-7.990810871124268,-0.035863764584064484,-0.035863764584064484],[-7.990810871124268,-7.990810871124268,-7.990810871124268,-7.990810871124268,-7.990810871124268,-7.990810871124268,-7.990810871124268,-7.990810871124268,-7.990810871124268,-7.990810871124268,-7.990810871124268,-7.990810871124268,-7.990810871124268,-7.990810871124268,-7.990810871124268,-7.990810871124268,-7.990810871124268,-7.990810871124268,-7.990810871124268,-7.990810871124268,-7.990810871124268,-7.990810871124268,-7.990810871124268,-7.990810871124268,-7.990810871124268,-7.990810871124268,-7.990810871124268,-7.990810871124268,-7.990810871124268,-7.990810871124268,-7.990810871124268,-7.990810871124268,-7.990810871124268,-7.990810871124268,-7.990810871124268,-7.990810871124268,-7.990810871124268,-7.990810871124268,-7.990810871124268,-7.990810871124268,-7.990810871124268,-7.990810871124268,-7.990810871124268,-7.990810871124268,-7.990810871124268,-7.990810871124268,-7.990810871124268,-7.990810871124268,-7.990810871124268,-7.990810871124268,-7.990810871124268,-7.990810871124268,-7.990810871124268,-7.990810871124268,-7.990810871124268,-7.990810871124268,-7.990810871124268,-7.990810871124268,-7.990810871124268,-7.990810871124268,-7.990810871124268,-7.990810871124268,-7.990810871124268,-7.990810871124268,-7.990810871124268,-7.990810871124268,-7.990810871124268,-7.990810871124268,-7.990810871124268,-7.990810871124268,-7.990810871124268,-7.990810871124268,-7.990810871124268,-7.990810871124268,-7.990810871124268,-7.990810871124268,-7.990810871124268,-7.990810871124268,-7.990810871124268,-7.990810871124268,-7.990810871124268,-7.990810871124268,-7.990810871124268,-7.990810871124268,-7.990810871124268,-7.990810871124268,-7.990810871124268,-7.990810871124268,-7.990810871124268,-7.990810871124268,-7.990810871124268,-7.990810871124268,-7.990810871124268,-7.990810871124268,-7.990810871124268,-7.990810871124268,-7.990810871124268,-7.990810871124268,-7.990810871124268,-7.990810871124268,-7.990810871124268,-7.990810871124268,-7.990810871124268,-7.990810871124268,-7.990810871124268,-7.990810871124268,-7.990810871124268,-7.990810871124268,-7.990810871124268,-7.990810871124268,-7.990810871124268,-7.990810871124268,-7.990810871124268,-7.990810871124268,-7.990810871124268,-7.990810871124268,-7.990810871124268,-7.990810871124268,-7.990810871124268,-7.990810871124268,-7.990810871124268,-7.990810871124268,-7.990810871124268,-7.990810871124268,-7.990810871124268,-7.990810871124268,-0.035863764584064484,-0.035863764584064484],[-7.990810871124268,-7.990810871124268,-7.990810871124268,-7.990810871124268,-7.990810871124268,-7.990810871124268,-7.990810871124268,-7.990810871124268,-7.990810871124268,-7.990810871124268,-7.990810871124268,-7.990810871124268,-7.990810871124268,-7.990810871124268,-7.990810871124268,-7.990810871124268,-7.990810871124268,-7.990810871124268,-7.990810871124268,-7.990810871124268,-7.990810871124268,-7.990810871124268,-7.990810871124268,-7.990810871124268,-7.990810871124268,-7.990810871124268,-7.990810871124268,-7.990810871124268,-7.990810871124268,-7.990810871124268,-7.990810871124268,-7.990810871124268,-7.990810871124268,-7.990810871124268,-7.990810871124268,-7.990810871124268,-7.990810871124268,-7.990810871124268,-7.990810871124268,-7.990810871124268,-7.990810871124268,-7.990810871124268,-7.990810871124268,-7.990810871124268,-7.990810871124268,-7.990810871124268,-7.990810871124268,-7.990810871124268,-7.990810871124268,-7.990810871124268,-7.990810871124268,-7.990810871124268,-7.990810871124268,-7.990810871124268,-7.990810871124268,-7.990810871124268,-7.990810871124268,-7.990810871124268,-7.990810871124268,-7.990810871124268,-7.990810871124268,-7.990810871124268,-7.990810871124268,-7.990810871124268,-7.990810871124268,-7.990810871124268,-7.990810871124268,-7.990810871124268,-7.990810871124268,-7.990810871124268,-7.990810871124268,-7.990810871124268,-7.990810871124268,-7.990810871124268,-7.990810871124268,-7.990810871124268,-7.990810871124268,-7.990810871124268,-7.990810871124268,-7.990810871124268,-7.990810871124268,-7.990810871124268,-7.990810871124268,-7.990810871124268,-7.990810871124268,-7.990810871124268,-7.990810871124268,-7.990810871124268,-7.990810871124268,-7.990810871124268,-7.990810871124268,-7.990810871124268,-7.990810871124268,-7.990810871124268,-7.990810871124268,-7.990810871124268,-7.990810871124268,-7.990810871124268,-7.990810871124268,-7.990810871124268,-7.990810871124268,-7.990810871124268,-7.990810871124268,-7.990810871124268,-7.990810871124268,-7.990810871124268,-7.990810871124268,-7.990810871124268,-7.990810871124268,-7.990810871124268,-7.990810871124268,-7.990810871124268,-7.990810871124268,-7.990810871124268,-7.990810871124268,-7.990810871124268,-7.990810871124268,-7.990810871124268,-7.990810871124268,-7.990810871124268,-7.990810871124268,-7.990810871124268,-7.990810871124268,-7.990810871124268,-7.990810871124268,-7.990810871124268,-0.035863764584064484,-0.035863764584064484],[-7.990810871124268,-7.990810871124268,-7.990810871124268,-7.990810871124268,-7.990810871124268,-7.990810871124268,-7.990810871124268,-7.990810871124268,-7.990810871124268,-7.990810871124268,-7.990810871124268,-7.990810871124268,-7.990810871124268,-7.990810871124268,-7.990810871124268,-7.990810871124268,-7.990810871124268,-7.990810871124268,-7.990810871124268,-7.990810871124268,-7.990810871124268,-7.990810871124268,-7.990810871124268,-7.990810871124268,-7.990810871124268,-7.990810871124268,-7.990810871124268,-7.990810871124268,-7.990810871124268,-7.990810871124268,-7.990810871124268,-7.990810871124268,-7.990810871124268,-7.990810871124268,-7.990810871124268,-7.990810871124268,-7.990810871124268,-7.990810871124268,-7.990810871124268,-7.990810871124268,-7.990810871124268,-7.990810871124268,-7.990810871124268,-7.990810871124268,-7.990810871124268,-7.990810871124268,-7.990810871124268,-7.990810871124268,-7.990810871124268,-7.990810871124268,-7.990810871124268,-7.990810871124268,-7.990810871124268,-7.990810871124268,-7.990810871124268,-7.990810871124268,-7.990810871124268,-7.990810871124268,-7.990810871124268,-7.990810871124268,-7.990810871124268,-7.990810871124268,-7.990810871124268,-7.990810871124268,-7.990810871124268,-7.990810871124268,-7.990810871124268,-7.990810871124268,-7.990810871124268,-7.990810871124268,-7.990810871124268,-7.990810871124268,-7.990810871124268,-7.990810871124268,-7.990810871124268,-7.990810871124268,-7.990810871124268,-7.990810871124268,-7.990810871124268,-7.990810871124268,-7.990810871124268,-7.990810871124268,-7.990810871124268,-7.990810871124268,-7.990810871124268,-7.990810871124268,-7.990810871124268,-7.990810871124268,-7.990810871124268,-7.990810871124268,-7.990810871124268,-7.990810871124268,-7.990810871124268,-7.990810871124268,-7.990810871124268,-7.990810871124268,-7.990810871124268,-7.990810871124268,-7.990810871124268,-7.990810871124268,-7.990810871124268,-7.990810871124268,-7.990810871124268,-7.990810871124268,-7.990810871124268,-7.990810871124268,-7.990810871124268,-7.990810871124268,-7.990810871124268,-7.990810871124268,-7.990810871124268,-7.990810871124268,-7.990810871124268,-7.990810871124268,-7.990810871124268,-7.990810871124268,-7.990810871124268,-7.990810871124268,-7.990810871124268,-7.990810871124268,-7.990810871124268,-7.990810871124268,-7.990810871124268,-7.990810871124268,-7.990810871124268,-7.990810871124268,-0.035863764584064484,-0.035863764584064484],[-7.990810871124268,-7.990810871124268,-7.990810871124268,-7.990810871124268,-7.990810871124268,-7.990810871124268,-7.990810871124268,-7.990810871124268,-7.990810871124268,-7.990810871124268,-7.990810871124268,-7.990810871124268,-7.990810871124268,-7.990810871124268,-7.990810871124268,-7.990810871124268,-7.990810871124268,-7.990810871124268,-7.990810871124268,-7.990810871124268,-7.990810871124268,-7.990810871124268,-7.990810871124268,-7.990810871124268,-7.990810871124268,-7.990810871124268,-7.990810871124268,-7.990810871124268,-7.990810871124268,-7.990810871124268,-7.990810871124268,-7.990810871124268,-7.990810871124268,-7.990810871124268,-7.990810871124268,-7.990810871124268,-7.990810871124268,-7.990810871124268,-7.990810871124268,-7.990810871124268,-7.990810871124268,-7.990810871124268,-7.990810871124268,-7.990810871124268,-7.990810871124268,-7.990810871124268,-7.990810871124268,-7.990810871124268,-7.990810871124268,-7.990810871124268,-7.990810871124268,-7.990810871124268,-7.990810871124268,-7.990810871124268,-7.990810871124268,-7.990810871124268,-7.990810871124268,-7.990810871124268,-7.990810871124268,-7.990810871124268,-7.990810871124268,-7.990810871124268,-7.990810871124268,-7.990810871124268,-7.990810871124268,-7.990810871124268,-7.990810871124268,-7.990810871124268,-7.990810871124268,-7.990810871124268,-7.990810871124268,-7.990810871124268,-7.990810871124268,-7.990810871124268,-7.990810871124268,-7.990810871124268,-7.990810871124268,-7.990810871124268,-7.990810871124268,-7.990810871124268,-7.990810871124268,-7.990810871124268,-7.990810871124268,-7.990810871124268,-7.990810871124268,-7.990810871124268,-7.990810871124268,-7.990810871124268,-7.990810871124268,-7.990810871124268,-7.990810871124268,-7.990810871124268,-7.990810871124268,-7.990810871124268,-7.990810871124268,-7.990810871124268,-7.990810871124268,-7.990810871124268,-7.990810871124268,-7.990810871124268,-7.990810871124268,-7.990810871124268,-7.990810871124268,-7.990810871124268,-7.990810871124268,-7.990810871124268,-7.990810871124268,-7.990810871124268,-7.990810871124268,-7.990810871124268,-7.990810871124268,-7.990810871124268,-7.990810871124268,-7.990810871124268,-7.990810871124268,-7.990810871124268,-7.990810871124268,-7.990810871124268,-7.990810871124268,-7.990810871124268,-7.990810871124268,-7.990810871124268,-7.990810871124268,-7.990810871124268,-7.990810871124268,-7.990810871124268,-0.035863764584064484,-0.035863764584064484],[-7.990810871124268,-7.990810871124268,-7.990810871124268,-7.990810871124268,-7.990810871124268,-7.990810871124268,-7.990810871124268,-7.990810871124268,-7.990810871124268,-7.990810871124268,-7.990810871124268,-7.990810871124268,-7.990810871124268,-7.990810871124268,-7.990810871124268,-7.990810871124268,-7.990810871124268,-7.990810871124268,-7.990810871124268,-7.990810871124268,-7.990810871124268,-7.990810871124268,-7.990810871124268,-7.990810871124268,-7.990810871124268,-7.990810871124268,-7.990810871124268,-7.990810871124268,-7.990810871124268,-7.990810871124268,-7.990810871124268,-7.990810871124268,-7.990810871124268,-7.990810871124268,-7.990810871124268,-7.990810871124268,-7.990810871124268,-7.990810871124268,-7.990810871124268,-7.990810871124268,-7.990810871124268,-7.990810871124268,-7.990810871124268,-7.990810871124268,-7.990810871124268,-7.990810871124268,-7.990810871124268,-7.990810871124268,-7.990810871124268,-7.990810871124268,-7.990810871124268,-7.990810871124268,-7.990810871124268,-7.990810871124268,-7.990810871124268,-7.990810871124268,-7.990810871124268,-7.990810871124268,-7.990810871124268,-7.990810871124268,-7.990810871124268,-7.990810871124268,-7.990810871124268,-7.990810871124268,-7.990810871124268,-7.990810871124268,-7.990810871124268,-7.990810871124268,-7.990810871124268,-7.990810871124268,-7.990810871124268,-7.990810871124268,-7.990810871124268,-7.990810871124268,-7.990810871124268,-7.990810871124268,-7.990810871124268,-7.990810871124268,-7.990810871124268,-7.990810871124268,-7.990810871124268,-7.990810871124268,-7.990810871124268,-7.990810871124268,-7.990810871124268,-7.990810871124268,-7.990810871124268,-7.990810871124268,-7.990810871124268,-7.990810871124268,-7.990810871124268,-7.990810871124268,-7.990810871124268,-7.990810871124268,-7.990810871124268,-7.990810871124268,-7.990810871124268,-7.990810871124268,-7.990810871124268,-7.990810871124268,-7.990810871124268,-7.990810871124268,-7.990810871124268,-7.990810871124268,-7.990810871124268,-7.990810871124268,-7.990810871124268,-7.990810871124268,-7.990810871124268,-7.990810871124268,-7.990810871124268,-7.990810871124268,-7.990810871124268,-7.990810871124268,-7.990810871124268,-7.990810871124268,-7.990810871124268,-7.990810871124268,-7.990810871124268,-7.990810871124268,-7.990810871124268,-7.990810871124268,-7.990810871124268,-7.990810871124268,-7.990810871124268,-7.990810871124268,-0.035863764584064484,-0.035863764584064484],[-7.990810871124268,-7.990810871124268,-7.990810871124268,-7.990810871124268,-7.990810871124268,-7.990810871124268,-7.990810871124268,-7.990810871124268,-7.990810871124268,-7.990810871124268,-7.990810871124268,-7.990810871124268,-7.990810871124268,-7.990810871124268,-7.990810871124268,-7.990810871124268,-7.990810871124268,-7.990810871124268,-7.990810871124268,-7.990810871124268,-7.990810871124268,-7.990810871124268,-7.990810871124268,-7.990810871124268,-7.990810871124268,-7.990810871124268,-7.990810871124268,-7.990810871124268,-7.990810871124268,-7.990810871124268,-7.990810871124268,-7.990810871124268,-7.990810871124268,-7.990810871124268,-7.990810871124268,-7.990810871124268,-7.990810871124268,-7.990810871124268,-7.990810871124268,-7.990810871124268,-7.990810871124268,-7.990810871124268,-7.990810871124268,-7.990810871124268,-7.990810871124268,-7.990810871124268,-7.990810871124268,-7.990810871124268,-7.990810871124268,-7.990810871124268,-7.990810871124268,-7.990810871124268,-7.990810871124268,-7.990810871124268,-7.990810871124268,-7.990810871124268,-7.990810871124268,-7.990810871124268,-7.990810871124268,-7.990810871124268,-7.990810871124268,-7.990810871124268,-7.990810871124268,-7.990810871124268,-7.990810871124268,-7.990810871124268,-7.990810871124268,-7.990810871124268,-7.990810871124268,-7.990810871124268,-7.990810871124268,-7.990810871124268,-7.990810871124268,-7.990810871124268,-7.990810871124268,-7.990810871124268,-7.990810871124268,-7.990810871124268,-7.990810871124268,-7.990810871124268,-7.990810871124268,-7.990810871124268,-7.990810871124268,-7.990810871124268,-7.990810871124268,-7.990810871124268,-7.990810871124268,-7.990810871124268,-7.990810871124268,-7.990810871124268,-7.990810871124268,-7.990810871124268,-7.990810871124268,-7.990810871124268,-7.990810871124268,-7.990810871124268,-7.990810871124268,-7.990810871124268,-7.990810871124268,-7.990810871124268,-7.990810871124268,-7.990810871124268,-7.990810871124268,-7.990810871124268,-7.990810871124268,-7.990810871124268,-7.990810871124268,-7.990810871124268,-7.990810871124268,-7.990810871124268,-7.990810871124268,-7.990810871124268,-7.990810871124268,-7.990810871124268,-7.990810871124268,-7.990810871124268,-7.990810871124268,-7.990810871124268,-7.990810871124268,-7.990810871124268,-7.990810871124268,-7.990810871124268,-7.990810871124268,-7.990810871124268,-7.990810871124268,-7.990810871124268,-0.035863764584064484,-0.035863764584064484],[-7.990810871124268,-7.990810871124268,-7.990810871124268,-7.990810871124268,-7.990810871124268,-7.990810871124268,-7.990810871124268,-7.990810871124268,-7.990810871124268,-7.990810871124268,-7.990810871124268,-7.990810871124268,-7.990810871124268,-7.990810871124268,-7.990810871124268,-7.990810871124268,-7.990810871124268,-7.990810871124268,-7.990810871124268,-7.990810871124268,-7.990810871124268,-7.990810871124268,-7.990810871124268,-7.990810871124268,-7.990810871124268,-7.990810871124268,-7.990810871124268,-7.990810871124268,-7.990810871124268,-7.990810871124268,-7.990810871124268,-7.990810871124268,-7.990810871124268,-7.990810871124268,-7.990810871124268,-7.990810871124268,-7.990810871124268,-7.990810871124268,-7.990810871124268,-7.990810871124268,-7.990810871124268,-7.990810871124268,-7.990810871124268,-7.990810871124268,-7.990810871124268,-7.990810871124268,-7.990810871124268,-7.990810871124268,-7.990810871124268,-7.990810871124268,-7.990810871124268,-7.990810871124268,-7.990810871124268,-7.990810871124268,-7.990810871124268,-7.990810871124268,-7.990810871124268,-7.990810871124268,-7.990810871124268,-7.990810871124268,-7.990810871124268,-7.990810871124268,-7.990810871124268,-7.990810871124268,-7.990810871124268,-7.990810871124268,-7.990810871124268,-7.990810871124268,-7.990810871124268,-7.990810871124268,-7.990810871124268,-7.990810871124268,-7.990810871124268,-7.990810871124268,-7.990810871124268,-7.990810871124268,-7.990810871124268,-7.990810871124268,-7.990810871124268,-7.990810871124268,-7.990810871124268,-7.990810871124268,-7.990810871124268,-7.990810871124268,-7.990810871124268,-7.990810871124268,-7.990810871124268,-7.990810871124268,-7.990810871124268,-7.990810871124268,-7.990810871124268,-7.990810871124268,-7.990810871124268,-7.990810871124268,-7.990810871124268,-7.990810871124268,-7.990810871124268,-7.990810871124268,-7.990810871124268,-7.990810871124268,-7.990810871124268,-7.990810871124268,-7.990810871124268,-7.990810871124268,-7.990810871124268,-7.990810871124268,-7.990810871124268,-7.990810871124268,-7.990810871124268,-7.990810871124268,-7.990810871124268,-7.990810871124268,-7.990810871124268,-7.990810871124268,-7.990810871124268,-7.990810871124268,-7.990810871124268,-7.990810871124268,-7.990810871124268,-7.990810871124268,-7.990810871124268,-7.990810871124268,-7.990810871124268,-7.990810871124268,-7.990810871124268,-7.990810871124268,-0.035863764584064484,-0.035863764584064484],[-7.990810871124268,-7.990810871124268,-7.990810871124268,-7.990810871124268,-7.990810871124268,-7.990810871124268,-7.990810871124268,-7.990810871124268,-7.990810871124268,-7.990810871124268,-7.990810871124268,-7.990810871124268,-7.990810871124268,-7.990810871124268,-7.990810871124268,-7.990810871124268,-7.990810871124268,-7.990810871124268,-7.990810871124268,-7.990810871124268,-7.990810871124268,-7.990810871124268,-7.990810871124268,-7.990810871124268,-7.990810871124268,-7.990810871124268,-7.990810871124268,-7.990810871124268,-7.990810871124268,-7.990810871124268,-7.990810871124268,-7.990810871124268,-7.990810871124268,-7.990810871124268,-7.990810871124268,-7.990810871124268,-7.990810871124268,-7.990810871124268,-7.990810871124268,-7.990810871124268,-7.990810871124268,-7.990810871124268,-7.990810871124268,-7.990810871124268,-7.990810871124268,-7.990810871124268,-7.990810871124268,-7.990810871124268,-7.990810871124268,-7.990810871124268,-7.990810871124268,-7.990810871124268,-7.990810871124268,-7.990810871124268,-7.990810871124268,-7.990810871124268,-7.990810871124268,-7.990810871124268,-7.990810871124268,-7.990810871124268,-7.990810871124268,-7.990810871124268,-7.990810871124268,-7.990810871124268,-7.990810871124268,-7.990810871124268,-7.990810871124268,-7.990810871124268,-7.990810871124268,-7.990810871124268,-7.990810871124268,-7.990810871124268,-7.990810871124268,-7.990810871124268,-7.990810871124268,-7.990810871124268,-7.990810871124268,-7.990810871124268,-7.990810871124268,-7.990810871124268,-7.990810871124268,-7.990810871124268,-7.990810871124268,-7.990810871124268,-7.990810871124268,-7.990810871124268,-7.990810871124268,-7.990810871124268,-7.990810871124268,-7.990810871124268,-7.990810871124268,-7.990810871124268,-7.990810871124268,-7.990810871124268,-7.990810871124268,-7.990810871124268,-7.990810871124268,-7.990810871124268,-7.990810871124268,-7.990810871124268,-7.990810871124268,-7.990810871124268,-7.990810871124268,-7.990810871124268,-7.990810871124268,-7.990810871124268,-7.990810871124268,-7.990810871124268,-7.990810871124268,-7.990810871124268,-7.990810871124268,-7.990810871124268,-7.990810871124268,-7.990810871124268,-7.990810871124268,-7.990810871124268,-7.990810871124268,-7.990810871124268,-7.990810871124268,-7.990810871124268,-7.990810871124268,-7.990810871124268,-7.990810871124268,-7.990810871124268,-7.990810871124268,-7.990810871124268,-0.035863764584064484,-0.035863764584064484],[-7.990810871124268,-7.990810871124268,-7.990810871124268,-7.990810871124268,-7.990810871124268,-7.990810871124268,-7.990810871124268,-7.990810871124268,-7.990810871124268,-7.990810871124268,-7.990810871124268,-7.990810871124268,-7.990810871124268,-7.990810871124268,-7.990810871124268,-7.990810871124268,-7.990810871124268,-7.990810871124268,-7.990810871124268,-7.990810871124268,-7.990810871124268,-7.990810871124268,-7.990810871124268,-7.990810871124268,-7.990810871124268,-7.990810871124268,-7.990810871124268,-7.990810871124268,-7.990810871124268,-7.990810871124268,-7.990810871124268,-7.990810871124268,-7.990810871124268,-7.990810871124268,-7.990810871124268,-7.990810871124268,-7.990810871124268,-7.990810871124268,-7.990810871124268,-7.990810871124268,-7.990810871124268,-7.990810871124268,-7.990810871124268,-7.990810871124268,-7.990810871124268,-7.990810871124268,-7.990810871124268,-7.990810871124268,-7.990810871124268,-7.990810871124268,-7.990810871124268,-7.990810871124268,-7.990810871124268,-7.990810871124268,-7.990810871124268,-7.990810871124268,-7.990810871124268,-7.990810871124268,-7.990810871124268,-7.990810871124268,-7.990810871124268,-7.990810871124268,-7.990810871124268,-7.990810871124268,-7.990810871124268,-7.990810871124268,-7.990810871124268,-7.990810871124268,-7.990810871124268,-7.990810871124268,-7.990810871124268,-7.990810871124268,-7.990810871124268,-7.990810871124268,-7.990810871124268,-7.990810871124268,-7.990810871124268,-7.990810871124268,-7.990810871124268,-7.990810871124268,-7.990810871124268,-7.990810871124268,-7.990810871124268,-7.990810871124268,-7.990810871124268,-7.990810871124268,-7.990810871124268,-7.990810871124268,-7.990810871124268,-7.990810871124268,-7.990810871124268,-7.990810871124268,-7.990810871124268,-7.990810871124268,-7.990810871124268,-7.990810871124268,-7.990810871124268,-7.990810871124268,-7.990810871124268,-7.990810871124268,-7.990810871124268,-7.990810871124268,-7.990810871124268,-7.990810871124268,-7.990810871124268,-7.990810871124268,-7.990810871124268,-7.990810871124268,-7.990810871124268,-7.990810871124268,-7.990810871124268,-7.990810871124268,-7.990810871124268,-7.990810871124268,-7.990810871124268,-7.990810871124268,-7.990810871124268,-7.990810871124268,-7.990810871124268,-7.990810871124268,-7.990810871124268,-7.990810871124268,-7.990810871124268,-7.990810871124268,-7.990810871124268,-7.990810871124268,-0.035863764584064484,-0.035863764584064484],[-7.990810871124268,-7.990810871124268,-7.990810871124268,-7.990810871124268,-7.990810871124268,-7.990810871124268,-7.990810871124268,-7.990810871124268,-7.990810871124268,-7.990810871124268,-7.990810871124268,-7.990810871124268,-7.990810871124268,-7.990810871124268,-7.990810871124268,-7.990810871124268,-7.990810871124268,-7.990810871124268,-7.990810871124268,-7.990810871124268,-7.990810871124268,-7.990810871124268,-7.990810871124268,-7.990810871124268,-7.990810871124268,-7.990810871124268,-7.990810871124268,-7.990810871124268,-7.990810871124268,-7.990810871124268,-7.990810871124268,-7.990810871124268,-7.990810871124268,-7.990810871124268,-7.990810871124268,-7.990810871124268,-7.990810871124268,-7.990810871124268,-7.990810871124268,-7.990810871124268,-7.990810871124268,-7.990810871124268,-7.990810871124268,-7.990810871124268,-7.990810871124268,-7.990810871124268,-7.990810871124268,-7.990810871124268,-7.990810871124268,-7.990810871124268,-7.990810871124268,-7.990810871124268,-7.990810871124268,-7.990810871124268,-7.990810871124268,-7.990810871124268,-7.990810871124268,-7.990810871124268,-7.990810871124268,-7.990810871124268,-7.990810871124268,-7.990810871124268,-7.990810871124268,-7.990810871124268,-7.990810871124268,-7.990810871124268,-7.990810871124268,-7.990810871124268,-7.990810871124268,-7.990810871124268,-7.990810871124268,-7.990810871124268,-7.990810871124268,-7.990810871124268,-7.990810871124268,-7.990810871124268,-7.990810871124268,-7.990810871124268,-7.990810871124268,-7.990810871124268,-7.990810871124268,-7.990810871124268,-7.990810871124268,-7.990810871124268,-7.990810871124268,-7.990810871124268,-7.990810871124268,-7.990810871124268,-7.990810871124268,-7.990810871124268,-7.990810871124268,-7.990810871124268,-7.990810871124268,-7.990810871124268,-7.990810871124268,-7.990810871124268,-7.990810871124268,-7.990810871124268,-7.990810871124268,-7.990810871124268,-7.990810871124268,-7.990810871124268,-7.990810871124268,-7.990810871124268,-7.990810871124268,-7.990810871124268,-7.990810871124268,-7.990810871124268,-7.990810871124268,-7.990810871124268,-7.990810871124268,-7.990810871124268,-7.990810871124268,-7.990810871124268,-7.990810871124268,-7.990810871124268,-7.990810871124268,-7.990810871124268,-7.990810871124268,-7.990810871124268,-7.990810871124268,-7.990810871124268,-7.990810871124268,-7.990810871124268,-7.990810871124268,-7.990810871124268,-0.035863764584064484,-0.035863764584064484],[-7.990810871124268,-7.990810871124268,-7.990810871124268,-7.990810871124268,-7.990810871124268,-7.990810871124268,-7.990810871124268,-7.990810871124268,-7.990810871124268,-7.990810871124268,-7.990810871124268,-7.990810871124268,-7.990810871124268,-7.990810871124268,-7.990810871124268,-7.990810871124268,-7.990810871124268,-7.990810871124268,-7.990810871124268,-7.990810871124268,-7.990810871124268,-7.990810871124268,-7.990810871124268,-7.990810871124268,-7.990810871124268,-7.990810871124268,-7.990810871124268,-7.990810871124268,-7.990810871124268,-7.990810871124268,-7.990810871124268,-7.990810871124268,-7.990810871124268,-7.990810871124268,-7.990810871124268,-7.990810871124268,-7.990810871124268,-7.990810871124268,-7.990810871124268,-7.990810871124268,-7.990810871124268,-7.990810871124268,-7.990810871124268,-7.990810871124268,-7.990810871124268,-7.990810871124268,-7.990810871124268,-7.990810871124268,-7.990810871124268,-7.990810871124268,-7.990810871124268,-7.990810871124268,-7.990810871124268,-7.990810871124268,-7.990810871124268,-7.990810871124268,-7.990810871124268,-7.990810871124268,-7.990810871124268,-7.990810871124268,-7.990810871124268,-7.990810871124268,-7.990810871124268,-7.990810871124268,-7.990810871124268,-7.990810871124268,-7.990810871124268,-7.990810871124268,-7.990810871124268,-7.990810871124268,-7.990810871124268,-7.990810871124268,-7.990810871124268,-7.990810871124268,-7.990810871124268,-7.990810871124268,-7.990810871124268,-7.990810871124268,-7.990810871124268,-7.990810871124268,-7.990810871124268,-7.990810871124268,-7.990810871124268,-7.990810871124268,-7.990810871124268,-7.990810871124268,-7.990810871124268,-7.990810871124268,-7.990810871124268,-7.990810871124268,-7.990810871124268,-7.990810871124268,-7.990810871124268,-7.990810871124268,-7.990810871124268,-7.990810871124268,-7.990810871124268,-7.990810871124268,-7.990810871124268,-7.990810871124268,-7.990810871124268,-7.990810871124268,-7.990810871124268,-7.990810871124268,-7.990810871124268,-7.990810871124268,-7.990810871124268,-7.990810871124268,-7.990810871124268,-7.990810871124268,-7.990810871124268,-7.990810871124268,-7.990810871124268,-7.990810871124268,-7.990810871124268,-7.990810871124268,-7.990810871124268,-7.990810871124268,-7.990810871124268,-7.990810871124268,-7.990810871124268,-7.990810871124268,-7.990810871124268,-7.990810871124268,-7.990810871124268,-7.990810871124268,-0.035863764584064484,-0.035863764584064484],[-7.990810871124268,-7.990810871124268,-7.990810871124268,-7.990810871124268,-7.990810871124268,-7.990810871124268,-7.990810871124268,-7.990810871124268,-7.990810871124268,-7.990810871124268,-7.990810871124268,-7.990810871124268,-7.990810871124268,-7.990810871124268,-7.990810871124268,-7.990810871124268,-7.990810871124268,-7.990810871124268,-7.990810871124268,-7.990810871124268,-7.990810871124268,-7.990810871124268,-7.990810871124268,-7.990810871124268,-7.990810871124268,-7.990810871124268,-7.990810871124268,-7.990810871124268,-7.990810871124268,-7.990810871124268,-7.990810871124268,-7.990810871124268,-7.990810871124268,-7.990810871124268,-7.990810871124268,-7.990810871124268,-7.990810871124268,-7.990810871124268,-7.990810871124268,-7.990810871124268,-7.990810871124268,-7.990810871124268,-7.990810871124268,-7.990810871124268,-7.990810871124268,-7.990810871124268,-7.990810871124268,-7.990810871124268,-7.990810871124268,-7.990810871124268,-7.990810871124268,-7.990810871124268,-7.990810871124268,-7.990810871124268,-7.990810871124268,-7.990810871124268,-7.990810871124268,-7.990810871124268,-7.990810871124268,-7.990810871124268,-7.990810871124268,-7.990810871124268,-7.990810871124268,-7.990810871124268,-7.990810871124268,-7.990810871124268,-7.990810871124268,-7.990810871124268,-7.990810871124268,-7.990810871124268,-7.990810871124268,-7.990810871124268,-7.990810871124268,-7.990810871124268,-7.990810871124268,-7.990810871124268,-7.990810871124268,-7.990810871124268,-7.990810871124268,-7.990810871124268,-7.990810871124268,-7.990810871124268,-7.990810871124268,-7.990810871124268,-7.990810871124268,-7.990810871124268,-7.990810871124268,-7.990810871124268,-7.990810871124268,-7.990810871124268,-7.990810871124268,-7.990810871124268,-7.990810871124268,-7.990810871124268,-7.990810871124268,-7.990810871124268,-7.990810871124268,-7.990810871124268,-7.990810871124268,-7.990810871124268,-7.990810871124268,-7.990810871124268,-7.990810871124268,-7.990810871124268,-7.990810871124268,-7.990810871124268,-7.990810871124268,-7.990810871124268,-7.990810871124268,-7.990810871124268,-7.990810871124268,-7.990810871124268,-7.990810871124268,-7.990810871124268,-7.990810871124268,-7.990810871124268,-7.990810871124268,-7.990810871124268,-7.990810871124268,-7.990810871124268,-7.990810871124268,-7.990810871124268,-7.990810871124268,-7.990810871124268,-7.990810871124268,-7.990810871124268,-0.035863764584064484,-0.035863764584064484],[-7.990810871124268,-7.990810871124268,-7.990810871124268,-7.990810871124268,-7.990810871124268,-7.990810871124268,-7.990810871124268,-7.990810871124268,-7.990810871124268,-7.990810871124268,-7.990810871124268,-7.990810871124268,-7.990810871124268,-7.990810871124268,-7.990810871124268,-7.990810871124268,-7.990810871124268,-7.990810871124268,-7.990810871124268,-7.990810871124268,-7.990810871124268,-7.990810871124268,-7.990810871124268,-7.990810871124268,-7.990810871124268,-7.990810871124268,-7.990810871124268,-7.990810871124268,-7.990810871124268,-7.990810871124268,-7.990810871124268,-7.990810871124268,-7.990810871124268,-7.990810871124268,-7.990810871124268,-7.990810871124268,-7.990810871124268,-7.990810871124268,-7.990810871124268,-7.990810871124268,-7.990810871124268,-7.990810871124268,-7.990810871124268,-7.990810871124268,-7.990810871124268,-7.990810871124268,-7.990810871124268,-7.990810871124268,-7.990810871124268,-7.990810871124268,-7.990810871124268,-7.990810871124268,-7.990810871124268,-7.990810871124268,-7.990810871124268,-7.990810871124268,-7.990810871124268,-7.990810871124268,-7.990810871124268,-7.990810871124268,-7.990810871124268,-7.990810871124268,-7.990810871124268,-7.990810871124268,-7.990810871124268,-7.990810871124268,-7.990810871124268,-7.990810871124268,-7.990810871124268,-7.990810871124268,-7.990810871124268,-7.990810871124268,-7.990810871124268,-7.990810871124268,-7.990810871124268,-7.990810871124268,-7.990810871124268,-7.990810871124268,-7.990810871124268,-7.990810871124268,-7.990810871124268,-7.990810871124268,-7.990810871124268,-7.990810871124268,-7.990810871124268,-7.990810871124268,-7.990810871124268,-7.990810871124268,-7.990810871124268,-7.990810871124268,-7.990810871124268,-7.990810871124268,-7.990810871124268,-7.990810871124268,-7.990810871124268,-7.990810871124268,-7.990810871124268,-7.990810871124268,-7.990810871124268,-7.990810871124268,-7.990810871124268,-7.990810871124268,-7.990810871124268,-7.990810871124268,-7.990810871124268,-7.990810871124268,-7.990810871124268,-7.990810871124268,-7.990810871124268,-7.990810871124268,-7.990810871124268,-7.990810871124268,-7.990810871124268,-7.990810871124268,-7.990810871124268,-7.990810871124268,-7.990810871124268,-7.990810871124268,-7.990810871124268,-7.990810871124268,-7.990810871124268,-7.990810871124268,-7.990810871124268,-7.990810871124268,-7.990810871124268,-7.990810871124268,-0.035863764584064484,-0.035863764584064484],[-7.990810871124268,-7.990810871124268,-7.990810871124268,-7.990810871124268,-7.990810871124268,-7.990810871124268,-7.990810871124268,-7.990810871124268,-7.990810871124268,-7.990810871124268,-7.990810871124268,-7.990810871124268,-7.990810871124268,-7.990810871124268,-7.990810871124268,-7.990810871124268,-7.990810871124268,-7.990810871124268,-7.990810871124268,-7.990810871124268,-7.990810871124268,-7.990810871124268,-7.990810871124268,-7.990810871124268,-7.990810871124268,-7.990810871124268,-7.990810871124268,-7.990810871124268,-7.990810871124268,-7.990810871124268,-7.990810871124268,-7.990810871124268,-7.990810871124268,-7.990810871124268,-7.990810871124268,-7.990810871124268,-7.990810871124268,-7.990810871124268,-7.990810871124268,-7.990810871124268,-7.990810871124268,-7.990810871124268,-7.990810871124268,-7.990810871124268,-7.990810871124268,-7.990810871124268,-7.990810871124268,-7.990810871124268,-7.990810871124268,-7.990810871124268,-7.990810871124268,-7.990810871124268,-7.990810871124268,-7.990810871124268,-7.990810871124268,-7.990810871124268,-7.990810871124268,-7.990810871124268,-7.990810871124268,-7.990810871124268,-7.990810871124268,-7.990810871124268,-7.990810871124268,-7.990810871124268,-7.990810871124268,-7.990810871124268,-7.990810871124268,-7.990810871124268,-7.990810871124268,-7.990810871124268,-7.990810871124268,-7.990810871124268,-7.990810871124268,-7.990810871124268,-7.990810871124268,-7.990810871124268,-7.990810871124268,-7.990810871124268,-7.990810871124268,-7.990810871124268,-7.990810871124268,-7.990810871124268,-7.990810871124268,-7.990810871124268,-7.990810871124268,-7.990810871124268,-7.990810871124268,-7.990810871124268,-7.990810871124268,-7.990810871124268,-7.990810871124268,-7.990810871124268,-7.990810871124268,-7.990810871124268,-7.990810871124268,-7.990810871124268,-7.990810871124268,-7.990810871124268,-7.990810871124268,-7.990810871124268,-7.990810871124268,-7.990810871124268,-7.990810871124268,-7.990810871124268,-7.990810871124268,-7.990810871124268,-7.990810871124268,-7.990810871124268,-7.990810871124268,-7.990810871124268,-7.990810871124268,-7.990810871124268,-7.990810871124268,-7.990810871124268,-7.990810871124268,-7.990810871124268,-7.990810871124268,-7.990810871124268,-7.990810871124268,-7.990810871124268,-7.990810871124268,-7.990810871124268,-7.990810871124268,-7.990810871124268,-7.990810871124268,-7.990810871124268,-0.035863764584064484,-0.035863764584064484],[-7.990810871124268,-7.990810871124268,-7.990810871124268,-7.990810871124268,-7.990810871124268,-7.990810871124268,-7.990810871124268,-7.990810871124268,-7.990810871124268,-7.990810871124268,-7.990810871124268,-7.990810871124268,-7.990810871124268,-7.990810871124268,-7.990810871124268,-7.990810871124268,-7.990810871124268,-7.990810871124268,-7.990810871124268,-7.990810871124268,-7.990810871124268,-7.990810871124268,-7.990810871124268,-7.990810871124268,-7.990810871124268,-7.990810871124268,-7.990810871124268,-7.990810871124268,-7.990810871124268,-7.990810871124268,-7.990810871124268,-7.990810871124268,-7.990810871124268,-7.990810871124268,-7.990810871124268,-7.990810871124268,-7.990810871124268,-7.990810871124268,-7.990810871124268,-7.990810871124268,-7.990810871124268,-7.990810871124268,-7.990810871124268,-7.990810871124268,-7.990810871124268,-7.990810871124268,-7.990810871124268,-7.990810871124268,-7.990810871124268,-7.990810871124268,-7.990810871124268,-7.990810871124268,-7.990810871124268,-7.990810871124268,-7.990810871124268,-7.990810871124268,-7.990810871124268,-7.990810871124268,-7.990810871124268,-7.990810871124268,-7.990810871124268,-7.990810871124268,-7.990810871124268,-7.990810871124268,-7.990810871124268,-7.990810871124268,-7.990810871124268,-7.990810871124268,-7.990810871124268,-7.990810871124268,-7.990810871124268,-7.990810871124268,-7.990810871124268,-7.990810871124268,-7.990810871124268,-7.990810871124268,-7.990810871124268,-7.990810871124268,-7.990810871124268,-7.990810871124268,-7.990810871124268,-7.990810871124268,-7.990810871124268,-7.990810871124268,-7.990810871124268,-7.990810871124268,-7.990810871124268,-7.990810871124268,-7.990810871124268,-7.990810871124268,-7.990810871124268,-7.990810871124268,-7.990810871124268,-7.990810871124268,-7.990810871124268,-7.990810871124268,-7.990810871124268,-7.990810871124268,-7.990810871124268,-7.990810871124268,-7.990810871124268,-7.990810871124268,-7.990810871124268,-7.990810871124268,-7.990810871124268,-7.990810871124268,-7.990810871124268,-7.990810871124268,-7.990810871124268,-7.990810871124268,-7.990810871124268,-7.990810871124268,-7.990810871124268,-7.990810871124268,-7.990810871124268,-7.990810871124268,-7.990810871124268,-7.990810871124268,-7.990810871124268,-7.990810871124268,-7.990810871124268,-7.990810871124268,-7.990810871124268,-7.990810871124268,-7.990810871124268,-7.990810871124268,-0.035863764584064484,-0.035863764584064484],[-7.990810871124268,-7.990810871124268,-7.990810871124268,-7.990810871124268,-7.990810871124268,-7.990810871124268,-7.990810871124268,-7.990810871124268,-7.990810871124268,-7.990810871124268,-7.990810871124268,-7.990810871124268,-7.990810871124268,-7.990810871124268,-7.990810871124268,-7.990810871124268,-7.990810871124268,-7.990810871124268,-7.990810871124268,-7.990810871124268,-7.990810871124268,-7.990810871124268,-7.990810871124268,-7.990810871124268,-7.990810871124268,-7.990810871124268,-7.990810871124268,-7.990810871124268,-7.990810871124268,-7.990810871124268,-7.990810871124268,-7.990810871124268,-7.990810871124268,-7.990810871124268,-7.990810871124268,-7.990810871124268,-7.990810871124268,-7.990810871124268,-7.990810871124268,-7.990810871124268,-7.990810871124268,-7.990810871124268,-7.990810871124268,-7.990810871124268,-7.990810871124268,-7.990810871124268,-7.990810871124268,-7.990810871124268,-7.990810871124268,-7.990810871124268,-7.990810871124268,-7.990810871124268,-7.990810871124268,-7.990810871124268,-7.990810871124268,-7.990810871124268,-7.990810871124268,-7.990810871124268,-7.990810871124268,-7.990810871124268,-7.990810871124268,-7.990810871124268,-7.990810871124268,-7.990810871124268,-7.990810871124268,-7.990810871124268,-7.990810871124268,-7.990810871124268,-7.990810871124268,-7.990810871124268,-7.990810871124268,-7.990810871124268,-7.990810871124268,-7.990810871124268,-7.990810871124268,-7.990810871124268,-7.990810871124268,-7.990810871124268,-7.990810871124268,-7.990810871124268,-7.990810871124268,-7.990810871124268,-7.990810871124268,-7.990810871124268,-7.990810871124268,-7.990810871124268,-7.990810871124268,-7.990810871124268,-7.990810871124268,-7.990810871124268,-7.990810871124268,-7.990810871124268,-7.990810871124268,-7.990810871124268,-7.990810871124268,-7.990810871124268,-7.990810871124268,-7.990810871124268,-7.990810871124268,-7.990810871124268,-7.990810871124268,-7.990810871124268,-7.990810871124268,-7.990810871124268,-7.990810871124268,-7.990810871124268,-7.990810871124268,-7.990810871124268,-7.990810871124268,-7.990810871124268,-7.990810871124268,-7.990810871124268,-7.990810871124268,-7.990810871124268,-7.990810871124268,-7.990810871124268,-7.990810871124268,-7.990810871124268,-7.990810871124268,-7.990810871124268,-7.990810871124268,-7.990810871124268,-7.990810871124268,-7.990810871124268,-7.990810871124268,-7.990810871124268,-0.035863764584064484,-0.035863764584064484],[-7.990810871124268,-7.990810871124268,-7.990810871124268,-7.990810871124268,-7.990810871124268,-7.990810871124268,-7.990810871124268,-7.990810871124268,-7.990810871124268,-7.990810871124268,-7.990810871124268,-7.990810871124268,-7.990810871124268,-7.990810871124268,-7.990810871124268,-7.990810871124268,-7.990810871124268,-7.990810871124268,-7.990810871124268,-7.990810871124268,-7.990810871124268,-7.990810871124268,-7.990810871124268,-7.990810871124268,-7.990810871124268,-7.990810871124268,-7.990810871124268,-7.990810871124268,-7.990810871124268,-7.990810871124268,-7.990810871124268,-7.990810871124268,-7.990810871124268,-7.990810871124268,-7.990810871124268,-7.990810871124268,-7.990810871124268,-7.990810871124268,-7.990810871124268,-7.990810871124268,-7.990810871124268,-7.990810871124268,-7.990810871124268,-7.990810871124268,-7.990810871124268,-7.990810871124268,-7.990810871124268,-7.990810871124268,-7.990810871124268,-7.990810871124268,-7.990810871124268,-7.990810871124268,-7.990810871124268,-7.990810871124268,-7.990810871124268,-7.990810871124268,-7.990810871124268,-7.990810871124268,-7.990810871124268,-7.990810871124268,-7.990810871124268,-7.990810871124268,-7.990810871124268,-7.990810871124268,-7.990810871124268,-7.990810871124268,-7.990810871124268,-7.990810871124268,-7.990810871124268,-7.990810871124268,-7.990810871124268,-7.990810871124268,-7.990810871124268,-7.990810871124268,-7.990810871124268,-7.990810871124268,-7.990810871124268,-7.990810871124268,-7.990810871124268,-7.990810871124268,-7.990810871124268,-7.990810871124268,-7.990810871124268,-7.990810871124268,-7.990810871124268,-7.990810871124268,-7.990810871124268,-7.990810871124268,-7.990810871124268,-7.990810871124268,-7.990810871124268,-7.990810871124268,-7.990810871124268,-7.990810871124268,-7.990810871124268,-7.990810871124268,-7.990810871124268,-7.990810871124268,-7.990810871124268,-7.990810871124268,-7.990810871124268,-7.990810871124268,-7.990810871124268,-7.990810871124268,-7.990810871124268,-7.990810871124268,-7.990810871124268,-7.990810871124268,-7.990810871124268,-7.990810871124268,-7.990810871124268,-7.990810871124268,-7.990810871124268,-7.990810871124268,-7.990810871124268,-7.990810871124268,-7.990810871124268,-7.990810871124268,-7.990810871124268,-7.990810871124268,-7.990810871124268,-7.990810871124268,-7.990810871124268,-7.990810871124268,-7.990810871124268,-7.990810871124268,-0.035863764584064484,-0.035863764584064484],[-7.990810871124268,-7.990810871124268,-7.990810871124268,-7.990810871124268,-7.990810871124268,-7.990810871124268,-7.990810871124268,-7.990810871124268,-7.990810871124268,-7.990810871124268,-7.990810871124268,-7.990810871124268,-7.990810871124268,-7.990810871124268,-7.990810871124268,-7.990810871124268,-7.990810871124268,-7.990810871124268,-7.990810871124268,-7.990810871124268,-7.990810871124268,-7.990810871124268,-7.990810871124268,-7.990810871124268,-7.990810871124268,-7.990810871124268,-7.990810871124268,-7.990810871124268,-7.990810871124268,-7.990810871124268,-7.990810871124268,-7.990810871124268,-7.990810871124268,-7.990810871124268,-7.990810871124268,-7.990810871124268,-7.990810871124268,-7.990810871124268,-7.990810871124268,-7.990810871124268,-7.990810871124268,-7.990810871124268,-7.990810871124268,-7.990810871124268,-7.990810871124268,-7.990810871124268,-7.990810871124268,-7.990810871124268,-7.990810871124268,-7.990810871124268,-7.990810871124268,-7.990810871124268,-7.990810871124268,-7.990810871124268,-7.990810871124268,-7.990810871124268,-7.990810871124268,-7.990810871124268,-7.990810871124268,-7.990810871124268,-7.990810871124268,-7.990810871124268,-7.990810871124268,-7.990810871124268,-7.990810871124268,-7.990810871124268,-7.990810871124268,-7.990810871124268,-7.990810871124268,-7.990810871124268,-7.990810871124268,-7.990810871124268,-7.990810871124268,-7.990810871124268,-7.990810871124268,-7.990810871124268,-7.990810871124268,-7.990810871124268,-7.990810871124268,-7.990810871124268,-7.990810871124268,-7.990810871124268,-7.990810871124268,-7.990810871124268,-7.990810871124268,-7.990810871124268,-7.990810871124268,-7.990810871124268,-7.990810871124268,-7.990810871124268,-7.990810871124268,-7.990810871124268,-7.990810871124268,-7.990810871124268,-7.990810871124268,-7.990810871124268,-7.990810871124268,-7.990810871124268,-7.990810871124268,-7.990810871124268,-7.990810871124268,-7.990810871124268,-7.990810871124268,-7.990810871124268,-7.990810871124268,-7.990810871124268,-7.990810871124268,-7.990810871124268,-7.990810871124268,-7.990810871124268,-7.990810871124268,-7.990810871124268,-7.990810871124268,-7.990810871124268,-7.990810871124268,-7.990810871124268,-7.990810871124268,-7.990810871124268,-7.990810871124268,-7.990810871124268,-7.990810871124268,-7.990810871124268,-7.990810871124268,-7.990810871124268,-7.990810871124268,-7.990810871124268,-0.035863764584064484,-0.035863764584064484],[-7.990810871124268,-7.990810871124268,-7.990810871124268,-7.990810871124268,-7.990810871124268,-7.990810871124268,-7.990810871124268,-7.990810871124268,-7.990810871124268,-7.990810871124268,-7.990810871124268,-7.990810871124268,-7.990810871124268,-7.990810871124268,-7.990810871124268,-7.990810871124268,-7.990810871124268,-7.990810871124268,-7.990810871124268,-7.990810871124268,-7.990810871124268,-7.990810871124268,-7.990810871124268,-7.990810871124268,-7.990810871124268,-7.990810871124268,-7.990810871124268,-7.990810871124268,-7.990810871124268,-7.990810871124268,-7.990810871124268,-7.990810871124268,-7.990810871124268,-7.990810871124268,-7.990810871124268,-7.990810871124268,-7.990810871124268,-7.990810871124268,-7.990810871124268,-7.990810871124268,-7.990810871124268,-7.990810871124268,-7.990810871124268,-7.990810871124268,-7.990810871124268,-7.990810871124268,-7.990810871124268,-7.990810871124268,-7.990810871124268,-7.990810871124268,-7.990810871124268,-7.990810871124268,-7.990810871124268,-7.990810871124268,-7.990810871124268,-7.990810871124268,-7.990810871124268,-7.990810871124268,-7.990810871124268,-7.990810871124268,-7.990810871124268,-7.990810871124268,-7.990810871124268,-7.990810871124268,-7.990810871124268,-7.990810871124268,-7.990810871124268,-7.990810871124268,-7.990810871124268,-7.990810871124268,-7.990810871124268,-7.990810871124268,-7.990810871124268,-7.990810871124268,-7.990810871124268,-7.990810871124268,-7.990810871124268,-7.990810871124268,-7.990810871124268,-7.990810871124268,-7.990810871124268,-7.990810871124268,-7.990810871124268,-7.990810871124268,-7.990810871124268,-7.990810871124268,-7.990810871124268,-7.990810871124268,-7.990810871124268,-7.990810871124268,-7.990810871124268,-7.990810871124268,-7.990810871124268,-7.990810871124268,-7.990810871124268,-7.990810871124268,-7.990810871124268,-7.990810871124268,-7.990810871124268,-7.990810871124268,-7.990810871124268,-7.990810871124268,-7.990810871124268,-7.990810871124268,-7.990810871124268,-7.990810871124268,-7.990810871124268,-7.990810871124268,-7.990810871124268,-7.990810871124268,-7.990810871124268,-7.990810871124268,-7.990810871124268,-7.990810871124268,-7.990810871124268,-7.990810871124268,-7.990810871124268,-7.990810871124268,-7.990810871124268,-7.990810871124268,-7.990810871124268,-7.990810871124268,-7.990810871124268,-7.990810871124268,-7.990810871124268,-7.990810871124268,-0.035863764584064484,-0.035863764584064484],[-7.990810871124268,-7.990810871124268,-7.990810871124268,-7.990810871124268,-7.990810871124268,-7.990810871124268,-7.990810871124268,-7.990810871124268,-7.990810871124268,-7.990810871124268,-7.990810871124268,-7.990810871124268,-7.990810871124268,-7.990810871124268,-7.990810871124268,-7.990810871124268,-7.990810871124268,-7.990810871124268,-7.990810871124268,-7.990810871124268,-7.990810871124268,-7.990810871124268,-7.990810871124268,-7.990810871124268,-7.990810871124268,-7.990810871124268,-7.990810871124268,-7.990810871124268,-7.990810871124268,-7.990810871124268,-7.990810871124268,-7.990810871124268,-7.990810871124268,-7.990810871124268,-7.990810871124268,-7.990810871124268,-7.990810871124268,-7.990810871124268,-7.990810871124268,-7.990810871124268,-7.990810871124268,-7.990810871124268,-7.990810871124268,-7.990810871124268,-7.990810871124268,-7.990810871124268,-7.990810871124268,-7.990810871124268,-7.990810871124268,-7.990810871124268,-7.990810871124268,-7.990810871124268,-7.990810871124268,-7.990810871124268,-7.990810871124268,-7.990810871124268,-7.990810871124268,-7.990810871124268,-7.990810871124268,-7.990810871124268,-7.990810871124268,-7.990810871124268,-7.990810871124268,-7.990810871124268,-7.990810871124268,-7.990810871124268,-7.990810871124268,-7.990810871124268,-7.990810871124268,-7.990810871124268,-7.990810871124268,-7.990810871124268,-7.990810871124268,-7.990810871124268,-7.990810871124268,-7.990810871124268,-7.990810871124268,-7.990810871124268,-7.990810871124268,-7.990810871124268,-7.990810871124268,-7.990810871124268,-7.990810871124268,-7.990810871124268,-7.990810871124268,-7.990810871124268,-7.990810871124268,-7.990810871124268,-7.990810871124268,-7.990810871124268,-7.990810871124268,-7.990810871124268,-7.990810871124268,-7.990810871124268,-7.990810871124268,-7.990810871124268,-7.990810871124268,-7.990810871124268,-7.990810871124268,-7.990810871124268,-7.990810871124268,-7.990810871124268,-7.990810871124268,-7.990810871124268,-7.990810871124268,-7.990810871124268,-7.990810871124268,-7.990810871124268,-7.990810871124268,-7.990810871124268,-7.990810871124268,-7.990810871124268,-7.990810871124268,-7.990810871124268,-7.990810871124268,-7.990810871124268,-7.990810871124268,-7.990810871124268,-7.990810871124268,-7.990810871124268,-7.990810871124268,-7.990810871124268,-7.990810871124268,-7.990810871124268,-7.990810871124268,-7.990810871124268,-0.035863764584064484,-0.035863764584064484],[-7.990810871124268,-7.990810871124268,-7.990810871124268,-7.990810871124268,-7.990810871124268,-7.990810871124268,-7.990810871124268,-7.990810871124268,-7.990810871124268,-7.990810871124268,-7.990810871124268,-7.990810871124268,-7.990810871124268,-7.990810871124268,-7.990810871124268,-7.990810871124268,-7.990810871124268,-7.990810871124268,-7.990810871124268,-7.990810871124268,-7.990810871124268,-7.990810871124268,-7.990810871124268,-7.990810871124268,