{"Layer1_weights":[[-1.220552921295166,-1.220552921295166,-1.220552921295166,-1.220552921295166,-1.220552921295166,-1.220552921295166,-1.220552921295166,-1.220552921295166,-1.220552921295166,-1.220552921295166,-1.220552921295166,-1.220552921295166,-1.220552921295166,-1.220552921295166,-1.220552921295166,-1.220552921295166,-1.220552921295166,-1.220552921295166,-1.220552921295166,-1.220552921295166,-1.220552921295166,-1.220552921295166,-1.220552921295166,-1.220552921295166,-1.220552921295166,-1.220552921295166,-1.220552921295166,-1.220552921295166,-1.220552921295166,-1.220552921295166,-1.220552921295166,-1.220552921295166,-1.220552921295166,-1.220552921295166,-1.220552921295166,-1.220552921295166,-1.220552921295166,-1.220552921295166,-1.220552921295166,-1.220552921295166,-1.220552921295166,-1.220552921295166,-1.220552921295166,-1.220552921295166,-1.220552921295166,-1.220552921295166,-1.220552921295166,-1.220552921295166,-1.220552921295166,-1.220552921295166,-1.220552921295166,-1.220552921295166,-1.220552921295166,-1.220552921295166,-1.220552921295166,-1.220552921295166,-1.220552921295166,-1.220552921295166,-1.220552921295166,-1.220552921295166,-1.220552921295166,-1.220552921295166,-1.220552921295166,-1.220552921295166],[0.022661485709249973,0.022661485709249973,0.022661485709249973,0.022661485709249973,0.022661485709249973,0.022661485709249973,0.022661485709249973,0.022661485709249973,0.022661485709249973,0.022661485709249973,0.022661485709249973,0.022661485709249973,0.022661485709249973,0.022661485709249973,0.022661485709249973,0.022661485709249973,0.022661485709249973,0.022661485709249973,0.022661485709249973,0.022661485709249973,0.022661485709249973,0.022661485709249973,0.022661485709249973,0.022661485709249973,0.022661485709249973,0.022661485709249973,0.022661485709249973,0.022661485709249973,0.022661485709249973,0.022661485709249973,0.022661485709249973,0.022661485709249973,0.022661485709249973,0.022661485709249973,0.022661485709249973,0.022661485709249973,0.022661485709249973,0.022661485709249973,0.022661485709249973,0.022661485709249973,0.022661485709249973,0.022661485709249973,0.022661485709249973,0.022661485709249973,0.022661485709249973,0.022661485709249973,0.022661485709249973,0.022661485709249973,0.022661485709249973,0.022661485709249973,0.022661485709249973,0.022661485709249973,0.022661485709249973,0.022661485709249973,0.022661485709249973,0.022661485709249973,0.022661485709249973,0.022661485709249973,0.022661485709249973,0.022661485709249973,0.022661485709249973,0.022661485709249973,0.022661485709249973,0.022661485709249973],[-0.08231456205248833,-0.08231456205248833,-0.08231456205248833,-0.08231456205248833,-0.08231456205248833,-0.08231456205248833,-0.08231456205248833,-0.08231456205248833,-0.08231456205248833,-0.08231456205248833,-0.08231456205248833,-0.08231456205248833,-0.08231456205248833,-0.08231456205248833,-0.08231456205248833,-0.08231456205248833,-0.08231456205248833,-0.08231456205248833,-0.08231456205248833,-0.08231456205248833,-0.08231456205248833,-0.08231456205248833,-0.08231456205248833,-0.08231456205248833,-0.08231456205248833,-0.08231456205248833,-0.08231456205248833,-0.08231456205248833,-0.08231456205248833,-0.08231456205248833,-0.08231456205248833,-0.08231456205248833,-0.08231456205248833,-0.08231456205248833,-0.08231456205248833,-0.08231456205248833,-0.08231456205248833,-0.08231456205248833,-0.08231456205248833,-0.08231456205248833,-0.08231456205248833,-0.08231456205248833,-0.08231456205248833,-0.08231456205248833,-0.08231456205248833,-0.08231456205248833,-0.08231456205248833,-0.08231456205248833,-0.08231456205248833,-0.08231456205248833,-0.08231456205248833,-0.08231456205248833,-0.08231456205248833,-0.08231456205248833,-0.08231456205248833,-0.08231456205248833,-0.08231456205248833,-0.08231456205248833,-0.08231456205248833,-0.08231456205248833,-0.08231456205248833,-0.08231456205248833,-0.08231456205248833,-0.08231456205248833],[0.08971679210662842,0.08971679210662842,0.08971679210662842,0.08971679210662842,0.08971679210662842,0.08971679210662842,0.08971679210662842,0.08971679210662842,0.08971679210662842,0.08971679210662842,0.08971679210662842,0.08971679210662842,0.08971679210662842,0.08971679210662842,0.08971679210662842,0.08971679210662842,0.08971679210662842,0.08971679210662842,0.08971679210662842,0.08971679210662842,0.08971679210662842,0.08971679210662842,0.08971679210662842,0.08971679210662842,0.08971679210662842,0.08971679210662842,0.08971679210662842,0.08971679210662842,0.08971679210662842,0.08971679210662842,0.08971679210662842,0.08971679210662842,0.08971679210662842,0.08971679210662842,0.08971679210662842,0.08971679210662842,0.08971679210662842,0.08971679210662842,0.08971679210662842,0.08971679210662842,0.08971679210662842,0.08971679210662842,0.08971679210662842,0.08971679210662842,0.08971679210662842,0.08971679210662842,0.08971679210662842,0.08971679210662842,0.08971679210662842,0.08971679210662842,0.08971679210662842,0.08971679210662842,0.08971679210662842,0.08971679210662842,0.08971679210662842,0.08971679210662842,0.08971679210662842,0.08971679210662842,0.08971679210662842,0.08971679210662842,0.08971679210662842,0.08971679210662842,0.08971679210662842,0.08971679210662842],[0.01003009406849742,0.01003009406849742,0.01003009406849742,0.01003009406849742,0.01003009406849742,0.01003009406849742,0.01003009406849742,0.01003009406849742,0.01003009406849742,0.01003009406849742,0.01003009406849742,0.01003009406849742,0.01003009406849742,0.01003009406849742,0.01003009406849742,0.01003009406849742,0.01003009406849742,0.01003009406849742,0.01003009406849742,0.01003009406849742,0.01003009406849742,0.01003009406849742,0.01003009406849742,0.01003009406849742,0.01003009406849742,0.01003009406849742,0.01003009406849742,0.01003009406849742,0.01003009406849742,0.01003009406849742,0.01003009406849742,0.01003009406849742,0.01003009406849742,0.01003009406849742,0.01003009406849742,0.01003009406849742,0.01003009406849742,0.01003009406849742,0.01003009406849742,0.01003009406849742,0.01003009406849742,0.01003009406849742,0.01003009406849742,0.01003009406849742,0.01003009406849742,0.01003009406849742,0.01003009406849742,0.01003009406849742,0.01003009406849742,0.01003009406849742,0.01003009406849742,0.01003009406849742,0.01003009406849742,0.01003009406849742,0.01003009406849742,0.01003009406849742,0.01003009406849742,0.01003009406849742,0.01003009406849742,0.01003009406849742,0.01003009406849742,0.01003009406849742,0.01003009406849742,0.01003009406849742],[0.005779994768090546,0.005779994768090546,0.005779994768090546,0.005779994768090546,0.005779994768090546,0.005779994768090546,0.005779994768090546,0.005779994768090546,0.005779994768090546,0.005779994768090546,0.005779994768090546,0.005779994768090546,0.005779994768090546,0.005779994768090546,0.005779994768090546,0.005779994768090546,0.005779994768090546,0.005779994768090546,0.005779994768090546,0.005779994768090546,0.005779994768090546,0.005779994768090546,0.005779994768090546,0.005779994768090546,0.005779994768090546,0.005779994768090546,0.005779994768090546,0.005779994768090546,0.005779994768090546,0.005779994768090546,0.005779994768090546,0.005779994768090546,0.005779994768090546,0.005779994768090546,0.005779994768090546,0.005779994768090546,0.005779994768090546,0.005779994768090546,0.005779994768090546,0.005779994768090546,0.005779994768090546,0.005779994768090546,0.005779994768090546,0.005779994768090546,0.005779994768090546,0.005779994768090546,0.005779994768090546,0.005779994768090546,0.005779994768090546,0.005779994768090546,0.005779994768090546,0.005779994768090546,0.005779994768090546,0.005779994768090546,0.005779994768090546,0.005779994768090546,0.005779994768090546,0.005779994768090546,0.005779994768090546,0.005779994768090546,0.005779994768090546,0.005779994768090546,0.005779994768090546,0.005779994768090546],[0.024934514425694942,0.024934514425694942,0.024934514425694942,0.024934514425694942,0.024934514425694942,0.024934514425694942,0.024934514425694942,0.024934514425694942,0.024934514425694942,0.024934514425694942,0.024934514425694942,0.024934514425694942,0.024934514425694942,0.024934514425694942,0.024934514425694942,0.024934514425694942,0.024934514425694942,0.024934514425694942,0.024934514425694942,0.024934514425694942,0.024934514425694942,0.024934514425694942,0.024934514425694942,0.024934514425694942,0.024934514425694942,0.024934514425694942,0.024934514425694942,0.024934514425694942,0.024934514425694942,0.024934514425694942,0.024934514425694942,0.024934514425694942,0.024934514425694942,0.024934514425694942,0.024934514425694942,0.024934514425694942,0.024934514425694942,0.024934514425694942,0.024934514425694942,0.024934514425694942,0.024934514425694942,0.024934514425694942,0.024934514425694942,0.024934514425694942,0.024934514425694942,0.024934514425694942,0.024934514425694942,0.024934514425694942,0.024934514425694942,0.024934514425694942,0.024934514425694942,0.024934514425694942,0.024934514425694942,0.024934514425694942,0.024934514425694942,0.024934514425694942,0.024934514425694942,0.024934514425694942,0.024934514425694942,0.024934514425694942,0.024934514425694942,0.024934514425694942,0.024934514425694942,0.024934514425694942],[-0.032026820816099644,-0.032026820816099644,-0.032026820816099644,-0.032026820816099644,-0.032026820816099644,-0.032026820816099644,-0.032026820816099644,-0.032026820816099644,-0.032026820816099644,-0.032026820816099644,-0.032026820816099644,-0.032026820816099644,-0.032026820816099644,-0.032026820816099644,-0.032026820816099644,-0.032026820816099644,-0.032026820816099644,-0.032026820816099644,-0.032026820816099644,-0.032026820816099644,-0.032026820816099644,-0.032026820816099644,-0.032026820816099644,-0.032026820816099644,-0.032026820816099644,-0.032026820816099644,-0.032026820816099644,-0.032026820816099644,-0.032026820816099644,-0.032026820816099644,-0.032026820816099644,-0.032026820816099644,-0.032026820816099644,-0.032026820816099644,-0.032026820816099644,-0.032026820816099644,-0.032026820816099644,-0.032026820816099644,-0.032026820816099644,-0.032026820816099644,-0.032026820816099644,-0.032026820816099644,-0.032026820816099644,-0.032026820816099644,-0.032026820816099644,-0.032026820816099644,-0.032026820816099644,-0.032026820816099644,-0.032026820816099644,-0.032026820816099644,-0.032026820816099644,-0.032026820816099644,-0.032026820816099644,-0.032026820816099644,-0.032026820816099644,-0.032026820816099644,-0.032026820816099644,-0.032026820816099644,-0.032026820816099644,-0.032026820816099644,-0.032026820816099644,-0.032026820816099644,-0.032026820816099644,-0.032026820816099644],[0.12945988774299622,0.12945988774299622,0.12945988774299622,0.12945988774299622,0.12945988774299622,0.12945988774299622,0.12945988774299622,0.12945988774299622,0.12945988774299622,0.12945988774299622,0.12945988774299622,0.12945988774299622,0.12945988774299622,0.12945988774299622,0.12945988774299622,0.12945988774299622,0.12945988774299622,0.12945988774299622,0.12945988774299622,0.12945988774299622,0.12945988774299622,0.12945988774299622,0.12945988774299622,0.12945988774299622,0.12945988774299622,0.12945988774299622,0.12945988774299622,0.12945988774299622,0.12945988774299622,0.12945988774299622,0.12945988774299622,0.12945988774299622,0.12945988774299622,0.12945988774299622,0.12945988774299622,0.12945988774299622,0.12945988774299622,0.12945988774299622,0.12945988774299622,0.12945988774299622,0.12945988774299622,0.12945988774299622,0.12945988774299622,0.12945988774299622,0.12945988774299622,0.12945988774299622,0.12945988774299622,0.12945988774299622,0.12945988774299622,0.12945988774299622,0.12945988774299622,0.12945988774299622,0.12945988774299622,0.12945988774299622,0.12945988774299622,0.12945988774299622,0.12945988774299622,0.12945988774299622,0.12945988774299622,0.12945988774299622,0.12945988774299622,0.12945988774299622,0.12945988774299622,0.12945988774299622],[0.08422133699059486,0.08422133699059486,0.08422133699059486,0.08422133699059486,0.08422133699059486,0.08422133699059486,0.08422133699059486,0.08422133699059486,0.08422133699059486,0.08422133699059486,0.08422133699059486,0.08422133699059486,0.08422133699059486,0.08422133699059486,0.08422133699059486,0.08422133699059486,0.08422133699059486,0.08422133699059486,0.08422133699059486,0.08422133699059486,0.08422133699059486,0.08422133699059486,0.08422133699059486,0.08422133699059486,0.08422133699059486,0.08422133699059486,0.08422133699059486,0.08422133699059486,0.08422133699059486,0.08422133699059486,0.08422133699059486,0.08422133699059486,0.08422133699059486,0.08422133699059486,0.08422133699059486,0.08422133699059486,0.08422133699059486,0.08422133699059486,0.08422133699059486,0.08422133699059486,0.08422133699059486,0.08422133699059486,0.08422133699059486,0.08422133699059486,0.08422133699059486,0.08422133699059486,0.08422133699059486,0.08422133699059486,0.08422133699059486,0.08422133699059486,0.08422133699059486,0.08422133699059486,0.08422133699059486,0.08422133699059486,0.08422133699059486,0.08422133699059486,0.08422133699059486,0.08422133699059486,0.08422133699059486,0.08422133699059486,0.08422133699059486,0.08422133699059486,0.08422133699059486,0.08422133699059486],[-0.028825152665376663,-0.028825152665376663,-0.028825152665376663,-0.028825152665376663,-0.028825152665376663,-0.028825152665376663,-0.028825152665376663,-0.028825152665376663,-0.028825152665376663,-0.028825152665376663,-0.028825152665376663,-0.028825152665376663,-0.028825152665376663,-0.028825152665376663,-0.028825152665376663,-0.028825152665376663,-0.028825152665376663,-0.028825152665376663,-0.028825152665376663,-0.028825152665376663,-0.028825152665376663,-0.028825152665376663,-0.028825152665376663,-0.028825152665376663,-0.028825152665376663,-0.028825152665376663,-0.028825152665376663,-0.028825152665376663,-0.028825152665376663,-0.028825152665376663,-0.028825152665376663,-0.028825152665376663,-0.028825152665376663,-0.028825152665376663,-0.028825152665376663,-0.028825152665376663,-0.028825152665376663,-0.028825152665376663,-0.028825152665376663,-0.028825152665376663,-0.028825152665376663,-0.028825152665376663,-0.028825152665376663,-0.028825152665376663,-0.028825152665376663,-0.028825152665376663,-0.028825152665376663,-0.028825152665376663,-0.028825152665376663,-0.028825152665376663,-0.028825152665376663,-0.028825152665376663,-0.028825152665376663,-0.028825152665376663,-0.028825152665376663,-0.028825152665376663,-0.028825152665376663,-0.028825152665376663,-0.028825152665376663,-0.028825152665376663,-0.028825152665376663,-0.028825152665376663,-0.028825152665376663,-0.028825152665376663],[-0.018609322607517242,-0.018609322607517242,-0.018609322607517242,-0.018609322607517242,-0.018609322607517242,-0.018609322607517242,-0.018609322607517242,-0.018609322607517242,-0.018609322607517242,-0.018609322607517242,-0.018609322607517242,-0.018609322607517242,-0.018609322607517242,-0.018609322607517242,-0.018609322607517242,-0.018609322607517242,-0.018609322607517242,-0.018609322607517242,-0.018609322607517242,-0.018609322607517242,-0.018609322607517242,-0.018609322607517242,-0.018609322607517242,-0.018609322607517242,-0.018609322607517242,-0.018609322607517242,-0.018609322607517242,-0.018609322607517242,-0.018609322607517242,-0.018609322607517242,-0.018609322607517242,-0.018609322607517242,-0.018609322607517242,-0.018609322607517242,-0.018609322607517242,-0.018609322607517242,-0.018609322607517242,-0.018609322607517242,-0.018609322607517242,-0.018609322607517242,-0.018609322607517242,-0.018609322607517242,-0.018609322607517242,-0.018609322607517242,-0.018609322607517242,-0.018609322607517242,-0.018609322607517242,-0.018609322607517242,-0.018609322607517242,-0.018609322607517242,-0.018609322607517242,-0.018609322607517242,-0.018609322607517242,-0.018609322607517242,-0.018609322607517242,-0.018609322607517242,-0.018609322607517242,-0.018609322607517242,-0.018609322607517242,-0.018609322607517242,-0.018609322607517242,-0.018609322607517242,-0.018609322607517242,-0.018609322607517242],[0.034121738746762276,0.034121738746762276,0.034121738746762276,0.034121738746762276,0.034121738746762276,0.034121738746762276,0.034121738746762276,0.034121738746762276,0.034121738746762276,0.034121738746762276,0.034121738746762276,0.034121738746762276,0.034121738746762276,0.034121738746762276,0.034121738746762276,0.034121738746762276,0.034121738746762276,0.034121738746762276,0.034121738746762276,0.034121738746762276,0.034121738746762276,0.034121738746762276,0.034121738746762276,0.034121738746762276,0.034121738746762276,0.034121738746762276,0.034121738746762276,0.034121738746762276,0.034121738746762276,0.034121738746762276,0.034121738746762276,0.034121738746762276,0.034121738746762276,0.034121738746762276,0.034121738746762276,0.034121738746762276,0.034121738746762276,0.034121738746762276,0.034121738746762276,0.034121738746762276,0.034121738746762276,0.034121738746762276,0.034121738746762276,0.034121738746762276,0.034121738746762276,0.034121738746762276,0.034121738746762276,0.034121738746762276,0.034121738746762276,0.034121738746762276,0.034121738746762276,0.034121738746762276,0.034121738746762276,0.034121738746762276,0.034121738746762276,0.034121738746762276,0.034121738746762276,0.034121738746762276,0.034121738746762276,0.034121738746762276,0.034121738746762276,0.034121738746762276,0.034121738746762276,0.034121738746762276],[-0.15002752840518951,-0.15002752840518951,-0.15002752840518951,-0.15002752840518951,-0.15002752840518951,-0.15002752840518951,-0.15002752840518951,-0.15002752840518951,-0.15002752840518951,-0.15002752840518951,-0.15002752840518951,-0.15002752840518951,-0.15002752840518951,-0.15002752840518951,-0.15002752840518951,-0.15002752840518951,-0.15002752840518951,-0.15002752840518951,-0.15002752840518951,-0.15002752840518951,-0.15002752840518951,-0.15002752840518951,-0.15002752840518951,-0.15002752840518951,-0.15002752840518951,-0.15002752840518951,-0.15002752840518951,-0.15002752840518951,-0.15002752840518951,-0.15002752840518951,-0.15002752840518951,-0.15002752840518951,-0.15002752840518951,-0.15002752840518951,-0.15002752840518951,-0.15002752840518951,-0.15002752840518951,-0.15002752840518951,-0.15002752840518951,-0.15002752840518951,-0.15002752840518951,-0.15002752840518951,-0.15002752840518951,-0.15002752840518951,-0.15002752840518951,-0.15002752840518951,-0.15002752840518951,-0.15002752840518951,-0.15002752840518951,-0.15002752840518951,-0.15002752840518951,-0.15002752840518951,-0.15002752840518951,-0.15002752840518951,-0.15002752840518951,-0.15002752840518951,-0.15002752840518951,-0.15002752840518951,-0.15002752840518951,-0.15002752840518951,-0.15002752840518951,-0.15002752840518951,-0.15002752840518951,-0.15002752840518951],[0.03605295903980732,0.03605295903980732,0.03605295903980732,0.03605295903980732,0.03605295903980732,0.03605295903980732,0.03605295903980732,0.03605295903980732,0.03605295903980732,0.03605295903980732,0.03605295903980732,0.03605295903980732,0.03605295903980732,0.03605295903980732,0.03605295903980732,0.03605295903980732,0.03605295903980732,0.03605295903980732,0.03605295903980732,0.03605295903980732,0.03605295903980732,0.03605295903980732,0.03605295903980732,0.03605295903980732,0.03605295903980732,0.03605295903980732,0.03605295903980732,0.03605295903980732,0.03605295903980732,0.03605295903980732,0.03605295903980732,0.03605295903980732,0.03605295903980732,0.03605295903980732,0.03605295903980732,0.03605295903980732,0.03605295903980732,0.03605295903980732,0.03605295903980732,0.03605295903980732,0.03605295903980732,0.03605295903980732,0.03605295903980732,0.03605295903980732,0.03605295903980732,0.03605295903980732,0.03605295903980732,0.03605295903980732,0.03605295903980732,0.03605295903980732,0.03605295903980732,0.03605295903980732,0.03605295903980732,0.03605295903980732,0.03605295903980732,0.03605295903980732,0.03605295903980732,0.03605295903980732,0.03605295903980732,0.03605295903980732,0.03605295903980732,0.03605295903980732,0.03605295903980732,0.03605295903980732],[0.004182251752354205,0.004182251752354205,0.004182251752354205,0.004182251752354205,0.004182251752354205,0.004182251752354205,0.004182251752354205,0.004182251752354205,0.004182251752354205,0.004182251752354205,0.004182251752354205,0.004182251752354205,0.004182251752354205,0.004182251752354205,0.004182251752354205,0.004182251752354205,0.004182251752354205,0.004182251752354205,0.004182251752354205,0.004182251752354205,0.004182251752354205,0.004182251752354205,0.004182251752354205,0.004182251752354205,0.004182251752354205,0.004182251752354205,0.004182251752354205,0.004182251752354205,0.004182251752354205,0.004182251752354205,0.004182251752354205,0.004182251752354205,0.004182251752354205,0.004182251752354205,0.004182251752354205,0.004182251752354205,0.004182251752354205,0.004182251752354205,0.004182251752354205,0.004182251752354205,0.004182251752354205,0.004182251752354205,0.004182251752354205,0.004182251752354205,0.004182251752354205,0.004182251752354205,0.004182251752354205,0.004182251752354205,0.004182251752354205,0.004182251752354205,0.004182251752354205,0.004182251752354205,0.004182251752354205,0.004182251752354205,0.004182251752354205,0.004182251752354205,0.004182251752354205,0.004182251752354205,0.004182251752354205,0.004182251752354205,0.004182251752354205,0.004182251752354205,0.004182251752354205,0.004182251752354205],[-0.06761068850755692,-0.06761068850755692,-0.06761068850755692,-0.06761068850755692,-0.06761068850755692,-0.06761068850755692,-0.06761068850755692,-0.06761068850755692,-0.06761068850755692,-0.06761068850755692,-0.06761068850755692,-0.06761068850755692,-0.06761068850755692,-0.06761068850755692,-0.06761068850755692,-0.06761068850755692,-0.06761068850755692,-0.06761068850755692,-0.06761068850755692,-0.06761068850755692,-0.06761068850755692,-0.06761068850755692,-0.06761068850755692,-0.06761068850755692,-0.06761068850755692,-0.06761068850755692,-0.06761068850755692,-0.06761068850755692,-0.06761068850755692,-0.06761068850755692,-0.06761068850755692,-0.06761068850755692,-0.06761068850755692,-0.06761068850755692,-0.06761068850755692,-0.06761068850755692,-0.06761068850755692,-0.06761068850755692,-0.06761068850755692,-0.06761068850755692,-0.06761068850755692,-0.06761068850755692,-0.06761068850755692,-0.06761068850755692,-0.06761068850755692,-0.06761068850755692,-0.06761068850755692,-0.06761068850755692,-0.06761068850755692,-0.06761068850755692,-0.06761068850755692,-0.06761068850755692,-0.06761068850755692,-0.06761068850755692,-0.06761068850755692,-0.06761068850755692,-0.06761068850755692,-0.06761068850755692,-0.06761068850755692,-0.06761068850755692,-0.06761068850755692,-0.06761068850755692,-0.06761068850755692,-0.06761068850755692],[-0.026407921686768532,-0.026407921686768532,-0.026407921686768532,-0.026407921686768532,-0.026407921686768532,-0.026407921686768532,-0.026407921686768532,-0.026407921686768532,-0.026407921686768532,-0.026407921686768532,-0.026407921686768532,-0.026407921686768532,-0.026407921686768532,-0.026407921686768532,-0.026407921686768532,-0.026407921686768532,-0.026407921686768532,-0.026407921686768532,-0.026407921686768532,-0.026407921686768532,-0.026407921686768532,-0.026407921686768532,-0.026407921686768532,-0.026407921686768532,-0.026407921686768532,-0.026407921686768532,-0.026407921686768532,-0.026407921686768532,-0.026407921686768532,-0.026407921686768532,-0.026407921686768532,-0.026407921686768532,-0.026407921686768532,-0.026407921686768532,-0.026407921686768532,-0.026407921686768532,-0.026407921686768532,-0.026407921686768532,-0.026407921686768532,-0.026407921686768532,-0.026407921686768532,-0.026407921686768532,-0.026407921686768532,-0.026407921686768532,-0.026407921686768532,-0.026407921686768532,-0.026407921686768532,-0.026407921686768532,-0.026407921686768532,-0.026407921686768532,-0.026407921686768532,-0.026407921686768532,-0.026407921686768532,-0.026407921686768532,-0.026407921686768532,-0.026407921686768532,-0.026407921686768532,-0.026407921686768532,-0.026407921686768532,-0.026407921686768532,-0.026407921686768532,-0.026407921686768532,-0.026407921686768532,-0.026407921686768532],[0.37974028289318085,0.37974028289318085,0.37974028289318085,0.37974028289318085,0.37974028289318085,0.37974028289318085,0.37974028289318085,0.37974028289318085,0.37974028289318085,0.37974028289318085,0.37974028289318085,0.37974028289318085,0.37974028289318085,0.37974028289318085,0.37974028289318085,0.37974028289318085,0.37974028289318085,0.37974028289318085,0.37974028289318085,0.37974028289318085,0.37974028289318085,0.37974028289318085,0.37974028289318085,0.37974028289318085,0.37974028289318085,0.37974028289318085,0.37974028289318085,0.37974028289318085,0.37974028289318085,0.37974028289318085,0.37974028289318085,0.37974028289318085,0.37974028289318085,0.37974028289318085,0.37974028289318085,0.37974028289318085,0.37974028289318085,0.37974028289318085,0.37974028289318085,0.37974028289318085,0.37974028289318085,0.37974028289318085,0.37974028289318085,0.37974028289318085,0.37974028289318085,0.37974028289318085,0.37974028289318085,0.37974028289318085,0.37974028289318085,0.37974028289318085,0.37974028289318085,0.37974028289318085,0.37974028289318085,0.37974028289318085,0.37974028289318085,0.37974028289318085,0.37974028289318085,0.37974028289318085,0.37974028289318085,0.37974028289318085,0.37974028289318085,0.37974028289318085,0.37974028289318085,0.37974028289318085],[-0.019367479719221592,-0.019367479719221592,-0.019367479719221592,-0.019367479719221592,-0.019367479719221592,-0.019367479719221592,-0.019367479719221592,-0.019367479719221592,-0.019367479719221592,-0.019367479719221592,-0.019367479719221592,-0.019367479719221592,-0.019367479719221592,-0.019367479719221592,-0.019367479719221592,-0.019367479719221592,-0.019367479719221592,-0.019367479719221592,-0.019367479719221592,-0.019367479719221592,-0.019367479719221592,-0.019367479719221592,-0.019367479719221592,-0.019367479719221592,-0.019367479719221592,-0.019367479719221592,-0.019367479719221592,-0.019367479719221592,-0.019367479719221592,-0.019367479719221592,-0.019367479719221592,-0.019367479719221592,-0.019367479719221592,-0.019367479719221592,-0.019367479719221592,-0.019367479719221592,-0.019367479719221592,-0.019367479719221592,-0.019367479719221592,-0.019367479719221592,-0.019367479719221592,-0.019367479719221592,-0.019367479719221592,-0.019367479719221592,-0.019367479719221592,-0.019367479719221592,-0.019367479719221592,-0.019367479719221592,-0.019367479719221592,-0.019367479719221592,-0.019367479719221592,-0.019367479719221592,-0.019367479719221592,-0.019367479719221592,-0.019367479719221592,-0.019367479719221592,-0.019367479719221592,-0.019367479719221592,-0.019367479719221592,-0.019367479719221592,-0.019367479719221592,-0.019367479719221592,-0.019367479719221592,-0.019367479719221592],[0.129422415047884,0.129422415047884,0.129422415047884,0.129422415047884,0.129422415047884,0.129422415047884,0.129422415047884,0.129422415047884,0.129422415047884,0.129422415047884,0.129422415047884,0.129422415047884,0.129422415047884,0.129422415047884,0.129422415047884,0.129422415047884,0.129422415047884,0.129422415047884,0.129422415047884,0.129422415047884,0.129422415047884,0.129422415047884,0.129422415047884,0.129422415047884,0.129422415047884,0.129422415047884,0.129422415047884,0.129422415047884,0.129422415047884,0.129422415047884,0.129422415047884,0.129422415047884,0.129422415047884,0.129422415047884,0.129422415047884,0.129422415047884,0.129422415047884,0.129422415047884,0.129422415047884,0.129422415047884,0.129422415047884,0.129422415047884,0.129422415047884,0.129422415047884,0.129422415047884,0.129422415047884,0.129422415047884,0.129422415047884,0.129422415047884,0.129422415047884,0.129422415047884,0.129422415047884,0.129422415047884,0.129422415047884,0.129422415047884,0.129422415047884,0.129422415047884,0.129422415047884,0.129422415047884,0.129422415047884,0.129422415047884,0.129422415047884,0.129422415047884,0.129422415047884],[-0.4847749173641205,-0.4847749173641205,-0.4847749173641205,-0.4847749173641205,-0.4847749173641205,-0.4847749173641205,-0.4847749173641205,-0.4847749173641205,-0.4847749173641205,-0.4847749173641205,-0.4847749173641205,-0.4847749173641205,-0.4847749173641205,-0.4847749173641205,-0.4847749173641205,-0.4847749173641205,-0.4847749173641205,-0.4847749173641205,-0.4847749173641205,-0.4847749173641205,-0.4847749173641205,-0.4847749173641205,-0.4847749173641205,-0.4847749173641205,-0.4847749173641205,-0.4847749173641205,-0.4847749173641205,-0.4847749173641205,-0.4847749173641205,-0.4847749173641205,-0.4847749173641205,-0.4847749173641205,-0.4847749173641205,-0.4847749173641205,-0.4847749173641205,-0.4847749173641205,-0.4847749173641205,-0.4847749173641205,-0.4847749173641205,-0.4847749173641205,-0.4847749173641205,-0.4847749173641205,-0.4847749173641205,-0.4847749173641205,-0.4847749173641205,-0.4847749173641205,-0.4847749173641205,-0.4847749173641205,-0.4847749173641205,-0.4847749173641205,-0.4847749173641205,-0.4847749173641205,-0.4847749173641205,-0.4847749173641205,-0.4847749173641205,-0.4847749173641205,-0.4847749173641205,-0.4847749173641205,-0.4847749173641205,-0.4847749173641205,-0.4847749173641205,-0.4847749173641205,-0.4847749173641205,-0.4847749173641205],[-0.09941736608743668,-0.09941736608743668,-0.09941736608743668,-0.09941736608743668,-0.09941736608743668,-0.09941736608743668,-0.09941736608743668,-0.09941736608743668,-0.09941736608743668,-0.09941736608743668,-0.09941736608743668,-0.09941736608743668,-0.09941736608743668,-0.09941736608743668,-0.09941736608743668,-0.09941736608743668,-0.09941736608743668,-0.09941736608743668,-0.09941736608743668,-0.09941736608743668,-0.09941736608743668,-0.09941736608743668,-0.09941736608743668,-0.09941736608743668,-0.09941736608743668,-0.09941736608743668,-0.09941736608743668,-0.09941736608743668,-0.09941736608743668,-0.09941736608743668,-0.09941736608743668,-0.09941736608743668,-0.09941736608743668,-0.09941736608743668,-0.09941736608743668,-0.09941736608743668,-0.09941736608743668,-0.09941736608743668,-0.09941736608743668,-0.09941736608743668,-0.09941736608743668,-0.09941736608743668,-0.09941736608743668,-0.09941736608743668,-0.09941736608743668,-0.09941736608743668,-0.09941736608743668,-0.09941736608743668,-0.09941736608743668,-0.09941736608743668,-0.09941736608743668,-0.09941736608743668,-0.09941736608743668,-0.09941736608743668,-0.09941736608743668,-0.09941736608743668,-0.09941736608743668,-0.09941736608743668,-0.09941736608743668,-0.09941736608743668,-0.09941736608743668,-0.09941736608743668,-0.09941736608743668,-0.09941736608743668],[-0.16481808573007584,-0.16481808573007584,-0.16481808573007584,-0.16481808573007584,-0.16481808573007584,-0.16481808573007584,-0.16481808573007584,-0.16481808573007584,-0.16481808573007584,-0.16481808573007584,-0.16481808573007584,-0.16481808573007584,-0.16481808573007584,-0.16481808573007584,-0.16481808573007584,-0.16481808573007584,-0.16481808573007584,-0.16481808573007584,-0.16481808573007584,-0.16481808573007584,-0.16481808573007584,-0.16481808573007584,-0.16481808573007584,-0.16481808573007584,-0.16481808573007584,-0.16481808573007584,-0.16481808573007584,-0.16481808573007584,-0.16481808573007584,-0.16481808573007584,-0.16481808573007584,-0.16481808573007584,-0.16481808573007584,-0.16481808573007584,-0.16481808573007584,-0.16481808573007584,-0.16481808573007584,-0.16481808573007584,-0.16481808573007584,-0.16481808573007584,-0.16481808573007584,-0.16481808573007584,-0.16481808573007584,-0.16481808573007584,-0.16481808573007584,-0.16481808573007584,-0.16481808573007584,-0.16481808573007584,-0.16481808573007584,-0.16481808573007584,-0.16481808573007584,-0.16481808573007584,-0.16481808573007584,-0.16481808573007584,-0.16481808573007584,-0.16481808573007584,-0.16481808573007584,-0.16481808573007584,-0.16481808573007584,-0.16481808573007584,-0.16481808573007584,-0.16481808573007584,-0.16481808573007584,-0.16481808573007584]],"Layer1_biases":[0,0,0,0,0,0,0,0,0,0,0,0,0,0,0,0,0,0,0,0,0,0,0,0,0,0,0,0,0,0,0,0,0,0,0,0,0,0,0,0,0,0,0,0,0,0,0,0,0,0,0,0,0,0,0,0,0,0,0,0,0,0,0,0],"Layer2_weights":[[-0.11828907951712608,-0.11828907951712608,-0.11828907951712608,-0.11828907951712608,-0.11828907951712608,-0.11828907951712608,-0.11828907951712608,-0.11828907951712608,-0.11828907951712608,-0.11828907951712608,-0.11828907951712608,-0.11828907951712608,-0.11828907951712608,-0.11828907951712608,-0.11828907951712608,-0.11828907951712608,-0.11828907951712608,-0.11828907951712608,-0.11828907951712608,-0.11828907951712608,-0.11828907951712608,-0.11828907951712608,-0.11828907951712608,-0.11828907951712608,-0.11828907951712608,-0.11828907951712608,-0.11828907951712608,-0.11828907951712608,-0.11828907951712608,-0.11828907951712608,-0.11828907951712608,-0.11828907951712608,-0.11828907951712608,-0.11828907951712608,-0.11828907951712608,-0.11828907951712608,-0.11828907951712608,-0.11828907951712608,-0.11828907951712608,-0.11828907951712608,-0.11828907951712608,-0.11828907951712608,-0.11828907951712608,-0.11828907951712608,-0.11828907951712608,-0.11828907951712608,-0.11828907951712608,-0.11828907951712608,-0.11828907951712608,-0.11828907951712608,-0.11828907951712608,-0.11828907951712608,-0.11828907951712608,-0.11828907951712608,-0.11828907951712608,-0.11828907951712608,-0.11828907951712608,-0.11828907951712608,-0.11828907951712608,-0.11828907951712608,-0.11828907951712608,-0.11828907951712608,-0.11828907951712608,-0.11828907951712608,-0.11828907951712608,-0.11828907951712608,-0.11828907951712608,-0.11828907951712608,-0.11828907951712608,-0.11828907951712608,-0.11828907951712608,-0.11828907951712608,-0.11828907951712608,-0.11828907951712608,-0.11828907951712608,-0.11828907951712608,-0.11828907951712608,-0.11828907951712608,-0.11828907951712608,-0.11828907951712608,-0.11828907951712608,-0.11828907951712608,-0.11828907951712608,-0.11828907951712608,-0.11828907951712608,-0.11828907951712608,-0.11828907951712608,-0.11828907951712608,-0.11828907951712608,-0.11828907951712608,-0.11828907951712608,-0.11828907951712608,-0.11828907951712608,-0.11828907951712608,-0.11828907951712608,-0.11828907951712608,-0.11828907951712608,-0.11828907951712608,-0.11828907951712608,-0.11828907951712608,-0.11828907951712608,-0.11828907951712608,-0.11828907951712608,-0.11828907951712608,-0.11828907951712608,-0.11828907951712608,-0.11828907951712608,-0.11828907951712608,-0.11828907951712608,-0.11828907951712608,-0.11828907951712608,-0.11828907951712608,-0.11828907951712608,-0.11828907951712608,-0.11828907951712608,-0.11828907951712608,-0.11828907951712608,-0.11828907951712608,-0.11828907951712608,-0.11828907951712608,-0.11828907951712608,-0.11828907951712608,-0.11828907951712608,-0.11828907951712608,-0.11828907951712608,-0.11828907951712608,-0.04821913316845894,-0.04821913316845894],[-0.11828907951712608,-0.11828907951712608,-0.11828907951712608,-0.11828907951712608,-0.11828907951712608,-0.11828907951712608,-0.11828907951712608,-0.11828907951712608,-0.11828907951712608,-0.11828907951712608,-0.11828907951712608,-0.11828907951712608,-0.11828907951712608,-0.11828907951712608,-0.11828907951712608,-0.11828907951712608,-0.11828907951712608,-0.11828907951712608,-0.11828907951712608,-0.11828907951712608,-0.11828907951712608,-0.11828907951712608,-0.11828907951712608,-0.11828907951712608,-0.11828907951712608,-0.11828907951712608,-0.11828907951712608,-0.11828907951712608,-0.11828907951712608,-0.11828907951712608,-0.11828907951712608,-0.11828907951712608,-0.11828907951712608,-0.11828907951712608,-0.11828907951712608,-0.11828907951712608,-0.11828907951712608,-0.11828907951712608,-0.11828907951712608,-0.11828907951712608,-0.11828907951712608,-0.11828907951712608,-0.11828907951712608,-0.11828907951712608,-0.11828907951712608,-0.11828907951712608,-0.11828907951712608,-0.11828907951712608,-0.11828907951712608,-0.11828907951712608,-0.11828907951712608,-0.11828907951712608,-0.11828907951712608,-0.11828907951712608,-0.11828907951712608,-0.11828907951712608,-0.11828907951712608,-0.11828907951712608,-0.11828907951712608,-0.11828907951712608,-0.11828907951712608,-0.11828907951712608,-0.11828907951712608,-0.11828907951712608,-0.11828907951712608,-0.11828907951712608,-0.11828907951712608,-0.11828907951712608,-0.11828907951712608,-0.11828907951712608,-0.11828907951712608,-0.11828907951712608,-0.11828907951712608,-0.11828907951712608,-0.11828907951712608,-0.11828907951712608,-0.11828907951712608,-0.11828907951712608,-0.11828907951712608,-0.11828907951712608,-0.11828907951712608,-0.11828907951712608,-0.11828907951712608,-0.11828907951712608,-0.11828907951712608,-0.11828907951712608,-0.11828907951712608,-0.11828907951712608,-0.11828907951712608,-0.11828907951712608,-0.11828907951712608,-0.11828907951712608,-0.11828907951712608,-0.11828907951712608,-0.11828907951712608,-0.11828907951712608,-0.11828907951712608,-0.11828907951712608,-0.11828907951712608,-0.11828907951712608,-0.11828907951712608,-0.11828907951712608,-0.11828907951712608,-0.11828907951712608,-0.11828907951712608,-0.11828907951712608,-0.11828907951712608,-0.11828907951712608,-0.11828907951712608,-0.11828907951712608,-0.11828907951712608,-0.11828907951712608,-0.11828907951712608,-0.11828907951712608,-0.11828907951712608,-0.11828907951712608,-0.11828907951712608,-0.11828907951712608,-0.11828907951712608,-0.11828907951712608,-0.11828907951712608,-0.11828907951712608,-0.11828907951712608,-0.11828907951712608,-0.11828907951712608,-0.11828907951712608,-0.04821913316845894,-0.04821913316845894],[-0.11828907951712608,-0.11828907951712608,-0.11828907951712608,-0.11828907951712608,-0.11828907951712608,-0.11828907951712608,-0.11828907951712608,-0.11828907951712608,-0.11828907951712608,-0.11828907951712608,-0.11828907951712608,-0.11828907951712608,-0.11828907951712608,-0.11828907951712608,-0.11828907951712608,-0.11828907951712608,-0.11828907951712608,-0.11828907951712608,-0.11828907951712608,-0.11828907951712608,-0.11828907951712608,-0.11828907951712608,-0.11828907951712608,-0.11828907951712608,-0.11828907951712608,-0.11828907951712608,-0.11828907951712608,-0.11828907951712608,-0.11828907951712608,-0.11828907951712608,-0.11828907951712608,-0.11828907951712608,-0.11828907951712608,-0.11828907951712608,-0.11828907951712608,-0.11828907951712608,-0.11828907951712608,-0.11828907951712608,-0.11828907951712608,-0.11828907951712608,-0.11828907951712608,-0.11828907951712608,-0.11828907951712608,-0.11828907951712608,-0.11828907951712608,-0.11828907951712608,-0.11828907951712608,-0.11828907951712608,-0.11828907951712608,-0.11828907951712608,-0.11828907951712608,-0.11828907951712608,-0.11828907951712608,-0.11828907951712608,-0.11828907951712608,-0.11828907951712608,-0.11828907951712608,-0.11828907951712608,-0.11828907951712608,-0.11828907951712608,-0.11828907951712608,-0.11828907951712608,-0.11828907951712608,-0.11828907951712608,-0.11828907951712608,-0.11828907951712608,-0.11828907951712608,-0.11828907951712608,-0.11828907951712608,-0.11828907951712608,-0.11828907951712608,-0.11828907951712608,-0.11828907951712608,-0.11828907951712608,-0.11828907951712608,-0.11828907951712608,-0.11828907951712608,-0.11828907951712608,-0.11828907951712608,-0.11828907951712608,-0.11828907951712608,-0.11828907951712608,-0.11828907951712608,-0.11828907951712608,-0.11828907951712608,-0.11828907951712608,-0.11828907951712608,-0.11828907951712608,-0.11828907951712608,-0.11828907951712608,-0.11828907951712608,-0.11828907951712608,-0.11828907951712608,-0.11828907951712608,-0.11828907951712608,-0.11828907951712608,-0.11828907951712608,-0.11828907951712608,-0.11828907951712608,-0.11828907951712608,-0.11828907951712608,-0.11828907951712608,-0.11828907951712608,-0.11828907951712608,-0.11828907951712608,-0.11828907951712608,-0.11828907951712608,-0.11828907951712608,-0.11828907951712608,-0.11828907951712608,-0.11828907951712608,-0.11828907951712608,-0.11828907951712608,-0.11828907951712608,-0.11828907951712608,-0.11828907951712608,-0.11828907951712608,-0.11828907951712608,-0.11828907951712608,-0.11828907951712608,-0.11828907951712608,-0.11828907951712608,-0.11828907951712608,-0.11828907951712608,-0.11828907951712608,-0.11828907951712608,-0.04821913316845894,-0.04821913316845894],[-0.11828907951712608,-0.11828907951712608,-0.11828907951712608,-0.11828907951712608,-0.11828907951712608,-0.11828907951712608,-0.11828907951712608,-0.11828907951712608,-0.11828907951712608,-0.11828907951712608,-0.11828907951712608,-0.11828907951712608,-0.11828907951712608,-0.11828907951712608,-0.11828907951712608,-0.11828907951712608,-0.11828907951712608,-0.11828907951712608,-0.11828907951712608,-0.11828907951712608,-0.11828907951712608,-0.11828907951712608,-0.11828907951712608,-0.11828907951712608,-0.11828907951712608,-0.11828907951712608,-0.11828907951712608,-0.11828907951712608,-0.11828907951712608,-0.11828907951712608,-0.11828907951712608,-0.11828907951712608,-0.11828907951712608,-0.11828907951712608,-0.11828907951712608,-0.11828907951712608,-0.11828907951712608,-0.11828907951712608,-0.11828907951712608,-0.11828907951712608,-0.11828907951712608,-0.11828907951712608,-0.11828907951712608,-0.11828907951712608,-0.11828907951712608,-0.11828907951712608,-0.11828907951712608,-0.11828907951712608,-0.11828907951712608,-0.11828907951712608,-0.11828907951712608,-0.11828907951712608,-0.11828907951712608,-0.11828907951712608,-0.11828907951712608,-0.11828907951712608,-0.11828907951712608,-0.11828907951712608,-0.11828907951712608,-0.11828907951712608,-0.11828907951712608,-0.11828907951712608,-0.11828907951712608,-0.11828907951712608,-0.11828907951712608,-0.11828907951712608,-0.11828907951712608,-0.11828907951712608,-0.11828907951712608,-0.11828907951712608,-0.11828907951712608,-0.11828907951712608,-0.11828907951712608,-0.11828907951712608,-0.11828907951712608,-0.11828907951712608,-0.11828907951712608,-0.11828907951712608,-0.11828907951712608,-0.11828907951712608,-0.11828907951712608,-0.11828907951712608,-0.11828907951712608,-0.11828907951712608,-0.11828907951712608,-0.11828907951712608,-0.11828907951712608,-0.11828907951712608,-0.11828907951712608,-0.11828907951712608,-0.11828907951712608,-0.11828907951712608,-0.11828907951712608,-0.11828907951712608,-0.11828907951712608,-0.11828907951712608,-0.11828907951712608,-0.11828907951712608,-0.11828907951712608,-0.11828907951712608,-0.11828907951712608,-0.11828907951712608,-0.11828907951712608,-0.11828907951712608,-0.11828907951712608,-0.11828907951712608,-0.11828907951712608,-0.11828907951712608,-0.11828907951712608,-0.11828907951712608,-0.11828907951712608,-0.11828907951712608,-0.11828907951712608,-0.11828907951712608,-0.11828907951712608,-0.11828907951712608,-0.11828907951712608,-0.11828907951712608,-0.11828907951712608,-0.11828907951712608,-0.11828907951712608,-0.11828907951712608,-0.11828907951712608,-0.11828907951712608,-0.11828907951712608,-0.11828907951712608,-0.04821913316845894,-0.04821913316845894],[-0.11828907951712608,-0.11828907951712608,-0.11828907951712608,-0.11828907951712608,-0.11828907951712608,-0.11828907951712608,-0.11828907951712608,-0.11828907951712608,-0.11828907951712608,-0.11828907951712608,-0.11828907951712608,-0.11828907951712608,-0.11828907951712608,-0.11828907951712608,-0.11828907951712608,-0.11828907951712608,-0.11828907951712608,-0.11828907951712608,-0.11828907951712608,-0.11828907951712608,-0.11828907951712608,-0.11828907951712608,-0.11828907951712608,-0.11828907951712608,-0.11828907951712608,-0.11828907951712608,-0.11828907951712608,-0.11828907951712608,-0.11828907951712608,-0.11828907951712608,-0.11828907951712608,-0.11828907951712608,-0.11828907951712608,-0.11828907951712608,-0.11828907951712608,-0.11828907951712608,-0.11828907951712608,-0.11828907951712608,-0.11828907951712608,-0.11828907951712608,-0.11828907951712608,-0.11828907951712608,-0.11828907951712608,-0.11828907951712608,-0.11828907951712608,-0.11828907951712608,-0.11828907951712608,-0.11828907951712608,-0.11828907951712608,-0.11828907951712608,-0.11828907951712608,-0.11828907951712608,-0.11828907951712608,-0.11828907951712608,-0.11828907951712608,-0.11828907951712608,-0.11828907951712608,-0.11828907951712608,-0.11828907951712608,-0.11828907951712608,-0.11828907951712608,-0.11828907951712608,-0.11828907951712608,-0.11828907951712608,-0.11828907951712608,-0.11828907951712608,-0.11828907951712608,-0.11828907951712608,-0.11828907951712608,-0.11828907951712608,-0.11828907951712608,-0.11828907951712608,-0.11828907951712608,-0.11828907951712608,-0.11828907951712608,-0.11828907951712608,-0.11828907951712608,-0.11828907951712608,-0.11828907951712608,-0.11828907951712608,-0.11828907951712608,-0.11828907951712608,-0.11828907951712608,-0.11828907951712608,-0.11828907951712608,-0.11828907951712608,-0.11828907951712608,-0.11828907951712608,-0.11828907951712608,-0.11828907951712608,-0.11828907951712608,-0.11828907951712608,-0.11828907951712608,-0.11828907951712608,-0.11828907951712608,-0.11828907951712608,-0.11828907951712608,-0.11828907951712608,-0.11828907951712608,-0.11828907951712608,-0.11828907951712608,-0.11828907951712608,-0.11828907951712608,-0.11828907951712608,-0.11828907951712608,-0.11828907951712608,-0.11828907951712608,-0.11828907951712608,-0.11828907951712608,-0.11828907951712608,-0.11828907951712608,-0.11828907951712608,-0.11828907951712608,-0.11828907951712608,-0.11828907951712608,-0.11828907951712608,-0.11828907951712608,-0.11828907951712608,-0.11828907951712608,-0.11828907951712608,-0.11828907951712608,-0.11828907951712608,-0.11828907951712608,-0.11828907951712608,-0.11828907951712608,-0.11828907951712608,-0.04821913316845894,-0.04821913316845894],[-0.11828907951712608,-0.11828907951712608,-0.11828907951712608,-0.11828907951712608,-0.11828907951712608,-0.11828907951712608,-0.11828907951712608,-0.11828907951712608,-0.11828907951712608,-0.11828907951712608,-0.11828907951712608,-0.11828907951712608,-0.11828907951712608,-0.11828907951712608,-0.11828907951712608,-0.11828907951712608,-0.11828907951712608,-0.11828907951712608,-0.11828907951712608,-0.11828907951712608,-0.11828907951712608,-0.11828907951712608,-0.11828907951712608,-0.11828907951712608,-0.11828907951712608,-0.11828907951712608,-0.11828907951712608,-0.11828907951712608,-0.11828907951712608,-0.11828907951712608,-0.11828907951712608,-0.11828907951712608,-0.11828907951712608,-0.11828907951712608,-0.11828907951712608,-0.11828907951712608,-0.11828907951712608,-0.11828907951712608,-0.11828907951712608,-0.11828907951712608,-0.11828907951712608,-0.11828907951712608,-0.11828907951712608,-0.11828907951712608,-0.11828907951712608,-0.11828907951712608,-0.11828907951712608,-0.11828907951712608,-0.11828907951712608,-0.11828907951712608,-0.11828907951712608,-0.11828907951712608,-0.11828907951712608,-0.11828907951712608,-0.11828907951712608,-0.11828907951712608,-0.11828907951712608,-0.11828907951712608,-0.11828907951712608,-0.11828907951712608,-0.11828907951712608,-0.11828907951712608,-0.11828907951712608,-0.11828907951712608,-0.11828907951712608,-0.11828907951712608,-0.11828907951712608,-0.11828907951712608,-0.11828907951712608,-0.11828907951712608,-0.11828907951712608,-0.11828907951712608,-0.11828907951712608,-0.11828907951712608,-0.11828907951712608,-0.11828907951712608,-0.11828907951712608,-0.11828907951712608,-0.11828907951712608,-0.11828907951712608,-0.11828907951712608,-0.11828907951712608,-0.11828907951712608,-0.11828907951712608,-0.11828907951712608,-0.11828907951712608,-0.11828907951712608,-0.11828907951712608,-0.11828907951712608,-0.11828907951712608,-0.11828907951712608,-0.11828907951712608,-0.11828907951712608,-0.11828907951712608,-0.11828907951712608,-0.11828907951712608,-0.11828907951712608,-0.11828907951712608,-0.11828907951712608,-0.11828907951712608,-0.11828907951712608,-0.11828907951712608,-0.11828907951712608,-0.11828907951712608,-0.11828907951712608,-0.11828907951712608,-0.11828907951712608,-0.11828907951712608,-0.11828907951712608,-0.11828907951712608,-0.11828907951712608,-0.11828907951712608,-0.11828907951712608,-0.11828907951712608,-0.11828907951712608,-0.11828907951712608,-0.11828907951712608,-0.11828907951712608,-0.11828907951712608,-0.11828907951712608,-0.11828907951712608,-0.11828907951712608,-0.11828907951712608,-0.11828907951712608,-0.11828907951712608,-0.11828907951712608,-0.04821913316845894,-0.04821913316845894],[-0.11828907951712608,-0.11828907951712608,-0.11828907951712608,-0.11828907951712608,-0.11828907951712608,-0.11828907951712608,-0.11828907951712608,-0.11828907951712608,-0.11828907951712608,-0.11828907951712608,-0.11828907951712608,-0.11828907951712608,-0.11828907951712608,-0.11828907951712608,-0.11828907951712608,-0.11828907951712608,-0.11828907951712608,-0.11828907951712608,-0.11828907951712608,-0.11828907951712608,-0.11828907951712608,-0.11828907951712608,-0.11828907951712608,-0.11828907951712608,-0.11828907951712608,-0.11828907951712608,-0.11828907951712608,-0.11828907951712608,-0.11828907951712608,-0.11828907951712608,-0.11828907951712608,-0.11828907951712608,-0.11828907951712608,-0.11828907951712608,-0.11828907951712608,-0.11828907951712608,-0.11828907951712608,-0.11828907951712608,-0.11828907951712608,-0.11828907951712608,-0.11828907951712608,-0.11828907951712608,-0.11828907951712608,-0.11828907951712608,-0.11828907951712608,-0.11828907951712608,-0.11828907951712608,-0.11828907951712608,-0.11828907951712608,-0.11828907951712608,-0.11828907951712608,-0.11828907951712608,-0.11828907951712608,-0.11828907951712608,-0.11828907951712608,-0.11828907951712608,-0.11828907951712608,-0.11828907951712608,-0.11828907951712608,-0.11828907951712608,-0.11828907951712608,-0.11828907951712608,-0.11828907951712608,-0.11828907951712608,-0.11828907951712608,-0.11828907951712608,-0.11828907951712608,-0.11828907951712608,-0.11828907951712608,-0.11828907951712608,-0.11828907951712608,-0.11828907951712608,-0.11828907951712608,-0.11828907951712608,-0.11828907951712608,-0.11828907951712608,-0.11828907951712608,-0.11828907951712608,-0.11828907951712608,-0.11828907951712608,-0.11828907951712608,-0.11828907951712608,-0.11828907951712608,-0.11828907951712608,-0.11828907951712608,-0.11828907951712608,-0.11828907951712608,-0.11828907951712608,-0.11828907951712608,-0.11828907951712608,-0.11828907951712608,-0.11828907951712608,-0.11828907951712608,-0.11828907951712608,-0.11828907951712608,-0.11828907951712608,-0.11828907951712608,-0.11828907951712608,-0.11828907951712608,-0.11828907951712608,-0.11828907951712608,-0.11828907951712608,-0.11828907951712608,-0.11828907951712608,-0.11828907951712608,-0.11828907951712608,-0.11828907951712608,-0.11828907951712608,-0.11828907951712608,-0.11828907951712608,-0.11828907951712608,-0.11828907951712608,-0.11828907951712608,-0.11828907951712608,-0.11828907951712608,-0.11828907951712608,-0.11828907951712608,-0.11828907951712608,-0.11828907951712608,-0.11828907951712608,-0.11828907951712608,-0.11828907951712608,-0.11828907951712608,-0.11828907951712608,-0.11828907951712608,-0.11828907951712608,-0.04821913316845894,-0.04821913316845894],[-0.11828907951712608,-0.11828907951712608,-0.11828907951712608,-0.11828907951712608,-0.11828907951712608,-0.11828907951712608,-0.11828907951712608,-0.11828907951712608,-0.11828907951712608,-0.11828907951712608,-0.11828907951712608,-0.11828907951712608,-0.11828907951712608,-0.11828907951712608,-0.11828907951712608,-0.11828907951712608,-0.11828907951712608,-0.11828907951712608,-0.11828907951712608,-0.11828907951712608,-0.11828907951712608,-0.11828907951712608,-0.11828907951712608,-0.11828907951712608,-0.11828907951712608,-0.11828907951712608,-0.11828907951712608,-0.11828907951712608,-0.11828907951712608,-0.11828907951712608,-0.11828907951712608,-0.11828907951712608,-0.11828907951712608,-0.11828907951712608,-0.11828907951712608,-0.11828907951712608,-0.11828907951712608,-0.11828907951712608,-0.11828907951712608,-0.11828907951712608,-0.11828907951712608,-0.11828907951712608,-0.11828907951712608,-0.11828907951712608,-0.11828907951712608,-0.11828907951712608,-0.11828907951712608,-0.11828907951712608,-0.11828907951712608,-0.11828907951712608,-0.11828907951712608,-0.11828907951712608,-0.11828907951712608,-0.11828907951712608,-0.11828907951712608,-0.11828907951712608,-0.11828907951712608,-0.11828907951712608,-0.11828907951712608,-0.11828907951712608,-0.11828907951712608,-0.11828907951712608,-0.11828907951712608,-0.11828907951712608,-0.11828907951712608,-0.11828907951712608,-0.11828907951712608,-0.11828907951712608,-0.11828907951712608,-0.11828907951712608,-0.11828907951712608,-0.11828907951712608,-0.11828907951712608,-0.11828907951712608,-0.11828907951712608,-0.11828907951712608,-0.11828907951712608,-0.11828907951712608,-0.11828907951712608,-0.11828907951712608,-0.11828907951712608,-0.11828907951712608,-0.11828907951712608,-0.11828907951712608,-0.11828907951712608,-0.11828907951712608,-0.11828907951712608,-0.11828907951712608,-0.11828907951712608,-0.11828907951712608,-0.11828907951712608,-0.11828907951712608,-0.11828907951712608,-0.11828907951712608,-0.11828907951712608,-0.11828907951712608,-0.11828907951712608,-0.11828907951712608,-0.11828907951712608,-0.11828907951712608,-0.11828907951712608,-0.11828907951712608,-0.11828907951712608,-0.11828907951712608,-0.11828907951712608,-0.11828907951712608,-0.11828907951712608,-0.11828907951712608,-0.11828907951712608,-0.11828907951712608,-0.11828907951712608,-0.11828907951712608,-0.11828907951712608,-0.11828907951712608,-0.11828907951712608,-0.11828907951712608,-0.11828907951712608,-0.11828907951712608,-0.11828907951712608,-0.11828907951712608,-0.11828907951712608,-0.11828907951712608,-0.11828907951712608,-0.11828907951712608,-0.11828907951712608,-0.11828907951712608,-0.04821913316845894,-0.04821913316845894],[-0.11828907951712608,-0.11828907951712608,-0.11828907951712608,-0.11828907951712608,-0.11828907951712608,-0.11828907951712608,-0.11828907951712608,-0.11828907951712608,-0.11828907951712608,-0.11828907951712608,-0.11828907951712608,-0.11828907951712608,-0.11828907951712608,-0.11828907951712608,-0.11828907951712608,-0.11828907951712608,-0.11828907951712608,-0.11828907951712608,-0.11828907951712608,-0.11828907951712608,-0.11828907951712608,-0.11828907951712608,-0.11828907951712608,-0.11828907951712608,-0.11828907951712608,-0.11828907951712608,-0.11828907951712608,-0.11828907951712608,-0.11828907951712608,-0.11828907951712608,-0.11828907951712608,-0.11828907951712608,-0.11828907951712608,-0.11828907951712608,-0.11828907951712608,-0.11828907951712608,-0.11828907951712608,-0.11828907951712608,-0.11828907951712608,-0.11828907951712608,-0.11828907951712608,-0.11828907951712608,-0.11828907951712608,-0.11828907951712608,-0.11828907951712608,-0.11828907951712608,-0.11828907951712608,-0.11828907951712608,-0.11828907951712608,-0.11828907951712608,-0.11828907951712608,-0.11828907951712608,-0.11828907951712608,-0.11828907951712608,-0.11828907951712608,-0.11828907951712608,-0.11828907951712608,-0.11828907951712608,-0.11828907951712608,-0.11828907951712608,-0.11828907951712608,-0.11828907951712608,-0.11828907951712608,-0.11828907951712608,-0.11828907951712608,-0.11828907951712608,-0.11828907951712608,-0.11828907951712608,-0.11828907951712608,-0.11828907951712608,-0.11828907951712608,-0.11828907951712608,-0.11828907951712608,-0.11828907951712608,-0.11828907951712608,-0.11828907951712608,-0.11828907951712608,-0.11828907951712608,-0.11828907951712608,-0.11828907951712608,-0.11828907951712608,-0.11828907951712608,-0.11828907951712608,-0.11828907951712608,-0.11828907951712608,-0.11828907951712608,-0.11828907951712608,-0.11828907951712608,-0.11828907951712608,-0.11828907951712608,-0.11828907951712608,-0.11828907951712608,-0.11828907951712608,-0.11828907951712608,-0.11828907951712608,-0.11828907951712608,-0.11828907951712608,-0.11828907951712608,-0.11828907951712608,-0.11828907951712608,-0.11828907951712608,-0.11828907951712608,-0.11828907951712608,-0.11828907951712608,-0.11828907951712608,-0.11828907951712608,-0.11828907951712608,-0.11828907951712608,-0.11828907951712608,-0.11828907951712608,-0.11828907951712608,-0.11828907951712608,-0.11828907951712608,-0.11828907951712608,-0.11828907951712608,-0.11828907951712608,-0.11828907951712608,-0.11828907951712608,-0.11828907951712608,-0.11828907951712608,-0.11828907951712608,-0.11828907951712608,-0.11828907951712608,-0.11828907951712608,-0.11828907951712608,-0.11828907951712608,-0.04821913316845894,-0.04821913316845894],[-0.11828907951712608,-0.11828907951712608,-0.11828907951712608,-0.11828907951712608,-0.11828907951712608,-0.11828907951712608,-0.11828907951712608,-0.11828907951712608,-0.11828907951712608,-0.11828907951712608,-0.11828907951712608,-0.11828907951712608,-0.11828907951712608,-0.11828907951712608,-0.11828907951712608,-0.11828907951712608,-0.11828907951712608,-0.11828907951712608,-0.11828907951712608,-0.11828907951712608,-0.11828907951712608,-0.11828907951712608,-0.11828907951712608,-0.11828907951712608,-0.11828907951712608,-0.11828907951712608,-0.11828907951712608,-0.11828907951712608,-0.11828907951712608,-0.11828907951712608,-0.11828907951712608,-0.11828907951712608,-0.11828907951712608,-0.11828907951712608,-0.11828907951712608,-0.11828907951712608,-0.11828907951712608,-0.11828907951712608,-0.11828907951712608,-0.11828907951712608,-0.11828907951712608,-0.11828907951712608,-0.11828907951712608,-0.11828907951712608,-0.11828907951712608,-0.11828907951712608,-0.11828907951712608,-0.11828907951712608,-0.11828907951712608,-0.11828907951712608,-0.11828907951712608,-0.11828907951712608,-0.11828907951712608,-0.11828907951712608,-0.11828907951712608,-0.11828907951712608,-0.11828907951712608,-0.11828907951712608,-0.11828907951712608,-0.11828907951712608,-0.11828907951712608,-0.11828907951712608,-0.11828907951712608,-0.11828907951712608,-0.11828907951712608,-0.11828907951712608,-0.11828907951712608,-0.11828907951712608,-0.11828907951712608,-0.11828907951712608,-0.11828907951712608,-0.11828907951712608,-0.11828907951712608,-0.11828907951712608,-0.11828907951712608,-0.11828907951712608,-0.11828907951712608,-0.11828907951712608,-0.11828907951712608,-0.11828907951712608,-0.11828907951712608,-0.11828907951712608,-0.11828907951712608,-0.11828907951712608,-0.11828907951712608,-0.11828907951712608,-0.11828907951712608,-0.11828907951712608,-0.11828907951712608,-0.11828907951712608,-0.11828907951712608,-0.11828907951712608,-0.11828907951712608,-0.11828907951712608,-0.11828907951712608,-0.11828907951712608,-0.11828907951712608,-0.11828907951712608,-0.11828907951712608,-0.11828907951712608,-0.11828907951712608,-0.11828907951712608,-0.11828907951712608,-0.11828907951712608,-0.11828907951712608,-0.11828907951712608,-0.11828907951712608,-0.11828907951712608,-0.11828907951712608,-0.11828907951712608,-0.11828907951712608,-0.11828907951712608,-0.11828907951712608,-0.11828907951712608,-0.11828907951712608,-0.11828907951712608,-0.11828907951712608,-0.11828907951712608,-0.11828907951712608,-0.11828907951712608,-0.11828907951712608,-0.11828907951712608,-0.11828907951712608,-0.11828907951712608,-0.11828907951712608,-0.11828907951712608,-0.04821913316845894,-0.04821913316845894],[-0.11828907951712608,-0.11828907951712608,-0.11828907951712608,-0.11828907951712608,-0.11828907951712608,-0.11828907951712608,-0.11828907951712608,-0.11828907951712608,-0.11828907951712608,-0.11828907951712608,-0.11828907951712608,-0.11828907951712608,-0.11828907951712608,-0.11828907951712608,-0.11828907951712608,-0.11828907951712608,-0.11828907951712608,-0.11828907951712608,-0.11828907951712608,-0.11828907951712608,-0.11828907951712608,-0.11828907951712608,-0.11828907951712608,-0.11828907951712608,-0.11828907951712608,-0.11828907951712608,-0.11828907951712608,-0.11828907951712608,-0.11828907951712608,-0.11828907951712608,-0.11828907951712608,-0.11828907951712608,-0.11828907951712608,-0.11828907951712608,-0.11828907951712608,-0.11828907951712608,-0.11828907951712608,-0.11828907951712608,-0.11828907951712608,-0.11828907951712608,-0.11828907951712608,-0.11828907951712608,-0.11828907951712608,-0.11828907951712608,-0.11828907951712608,-0.11828907951712608,-0.11828907951712608,-0.11828907951712608,-0.11828907951712608,-0.11828907951712608,-0.11828907951712608,-0.11828907951712608,-0.11828907951712608,-0.11828907951712608,-0.11828907951712608,-0.11828907951712608,-0.11828907951712608,-0.11828907951712608,-0.11828907951712608,-0.11828907951712608,-0.11828907951712608,-0.11828907951712608,-0.11828907951712608,-0.11828907951712608,-0.11828907951712608,-0.11828907951712608,-0.11828907951712608,-0.11828907951712608,-0.11828907951712608,-0.11828907951712608,-0.11828907951712608,-0.11828907951712608,-0.11828907951712608,-0.11828907951712608,-0.11828907951712608,-0.11828907951712608,-0.11828907951712608,-0.11828907951712608,-0.11828907951712608,-0.11828907951712608,-0.11828907951712608,-0.11828907951712608,-0.11828907951712608,-0.11828907951712608,-0.11828907951712608,-0.11828907951712608,-0.11828907951712608,-0.11828907951712608,-0.11828907951712608,-0.11828907951712608,-0.11828907951712608,-0.11828907951712608,-0.11828907951712608,-0.11828907951712608,-0.11828907951712608,-0.11828907951712608,-0.11828907951712608,-0.11828907951712608,-0.11828907951712608,-0.11828907951712608,-0.11828907951712608,-0.11828907951712608,-0.11828907951712608,-0.11828907951712608,-0.11828907951712608,-0.11828907951712608,-0.11828907951712608,-0.11828907951712608,-0.11828907951712608,-0.11828907951712608,-0.11828907951712608,-0.11828907951712608,-0.11828907951712608,-0.11828907951712608,-0.11828907951712608,-0.11828907951712608,-0.11828907951712608,-0.11828907951712608,-0.11828907951712608,-0.11828907951712608,-0.11828907951712608,-0.11828907951712608,-0.11828907951712608,-0.11828907951712608,-0.11828907951712608,-0.11828907951712608,-0.04821913316845894,-0.04821913316845894],[-0.11828907951712608,-0.11828907951712608,-0.11828907951712608,-0.11828907951712608,-0.11828907951712608,-0.11828907951712608,-0.11828907951712608,-0.11828907951712608,-0.11828907951712608,-0.11828907951712608,-0.11828907951712608,-0.11828907951712608,-0.11828907951712608,-0.11828907951712608,-0.11828907951712608,-0.11828907951712608,-0.11828907951712608,-0.11828907951712608,-0.11828907951712608,-0.11828907951712608,-0.11828907951712608,-0.11828907951712608,-0.11828907951712608,-0.11828907951712608,-0.11828907951712608,-0.11828907951712608,-0.11828907951712608,-0.11828907951712608,-0.11828907951712608,-0.11828907951712608,-0.11828907951712608,-0.11828907951712608,-0.11828907951712608,-0.11828907951712608,-0.11828907951712608,-0.11828907951712608,-0.11828907951712608,-0.11828907951712608,-0.11828907951712608,-0.11828907951712608,-0.11828907951712608,-0.11828907951712608,-0.11828907951712608,-0.11828907951712608,-0.11828907951712608,-0.11828907951712608,-0.11828907951712608,-0.11828907951712608,-0.11828907951712608,-0.11828907951712608,-0.11828907951712608,-0.11828907951712608,-0.11828907951712608,-0.11828907951712608,-0.11828907951712608,-0.11828907951712608,-0.11828907951712608,-0.11828907951712608,-0.11828907951712608,-0.11828907951712608,-0.11828907951712608,-0.11828907951712608,-0.11828907951712608,-0.11828907951712608,-0.11828907951712608,-0.11828907951712608,-0.11828907951712608,-0.11828907951712608,-0.11828907951712608,-0.11828907951712608,-0.11828907951712608,-0.11828907951712608,-0.11828907951712608,-0.11828907951712608,-0.11828907951712608,-0.11828907951712608,-0.11828907951712608,-0.11828907951712608,-0.11828907951712608,-0.11828907951712608,-0.11828907951712608,-0.11828907951712608,-0.11828907951712608,-0.11828907951712608,-0.11828907951712608,-0.11828907951712608,-0.11828907951712608,-0.11828907951712608,-0.11828907951712608,-0.11828907951712608,-0.11828907951712608,-0.11828907951712608,-0.11828907951712608,-0.11828907951712608,-0.11828907951712608,-0.11828907951712608,-0.11828907951712608,-0.11828907951712608,-0.11828907951712608,-0.11828907951712608,-0.11828907951712608,-0.11828907951712608,-0.11828907951712608,-0.11828907951712608,-0.11828907951712608,-0.11828907951712608,-0.11828907951712608,-0.11828907951712608,-0.11828907951712608,-0.11828907951712608,-0.11828907951712608,-0.11828907951712608,-0.11828907951712608,-0.11828907951712608,-0.11828907951712608,-0.11828907951712608,-0.11828907951712608,-0.11828907951712608,-0.11828907951712608,-0.11828907951712608,-0.11828907951712608,-0.11828907951712608,-0.11828907951712608,-0.11828907951712608,-0.11828907951712608,-0.11828907951712608,-0.04821913316845894,-0.04821913316845894],[-0.11828907951712608,-0.11828907951712608,-0.11828907951712608,-0.11828907951712608,-0.11828907951712608,-0.11828907951712608,-0.11828907951712608,-0.11828907951712608,-0.11828907951712608,-0.11828907951712608,-0.11828907951712608,-0.11828907951712608,-0.11828907951712608,-0.11828907951712608,-0.11828907951712608,-0.11828907951712608,-0.11828907951712608,-0.11828907951712608,-0.11828907951712608,-0.11828907951712608,-0.11828907951712608,-0.11828907951712608,-0.11828907951712608,-0.11828907951712608,-0.11828907951712608,-0.11828907951712608,-0.11828907951712608,-0.11828907951712608,-0.11828907951712608,-0.11828907951712608,-0.11828907951712608,-0.11828907951712608,-0.11828907951712608,-0.11828907951712608,-0.11828907951712608,-0.11828907951712608,-0.11828907951712608,-0.11828907951712608,-0.11828907951712608,-0.11828907951712608,-0.11828907951712608,-0.11828907951712608,-0.11828907951712608,-0.11828907951712608,-0.11828907951712608,-0.11828907951712608,-0.11828907951712608,-0.11828907951712608,-0.11828907951712608,-0.11828907951712608,-0.11828907951712608,-0.11828907951712608,-0.11828907951712608,-0.11828907951712608,-0.11828907951712608,-0.11828907951712608,-0.11828907951712608,-0.11828907951712608,-0.11828907951712608,-0.11828907951712608,-0.11828907951712608,-0.11828907951712608,-0.11828907951712608,-0.11828907951712608,-0.11828907951712608,-0.11828907951712608,-0.11828907951712608,-0.11828907951712608,-0.11828907951712608,-0.11828907951712608,-0.11828907951712608,-0.11828907951712608,-0.11828907951712608,-0.11828907951712608,-0.11828907951712608,-0.11828907951712608,-0.11828907951712608,-0.11828907951712608,-0.11828907951712608,-0.11828907951712608,-0.11828907951712608,-0.11828907951712608,-0.11828907951712608,-0.11828907951712608,-0.11828907951712608,-0.11828907951712608,-0.11828907951712608,-0.11828907951712608,-0.11828907951712608,-0.11828907951712608,-0.11828907951712608,-0.11828907951712608,-0.11828907951712608,-0.11828907951712608,-0.11828907951712608,-0.11828907951712608,-0.11828907951712608,-0.11828907951712608,-0.11828907951712608,-0.11828907951712608,-0.11828907951712608,-0.11828907951712608,-0.11828907951712608,-0.11828907951712608,-0.11828907951712608,-0.11828907951712608,-0.11828907951712608,-0.11828907951712608,-0.11828907951712608,-0.11828907951712608,-0.11828907951712608,-0.11828907951712608,-0.11828907951712608,-0.11828907951712608,-0.11828907951712608,-0.11828907951712608,-0.11828907951712608,-0.11828907951712608,-0.11828907951712608,-0.11828907951712608,-0.11828907951712608,-0.11828907951712608,-0.11828907951712608,-0.11828907951712608,-0.11828907951712608,-0.11828907951712608,-0.04821913316845894,-0.04821913316845894],[-0.11828907951712608,-0.11828907951712608,-0.11828907951712608,-0.11828907951712608,-0.11828907951712608,-0.11828907951712608,-0.11828907951712608,-0.11828907951712608,-0.11828907951712608,-0.11828907951712608,-0.11828907951712608,-0.11828907951712608,-0.11828907951712608,-0.11828907951712608,-0.11828907951712608,-0.11828907951712608,-0.11828907951712608,-0.11828907951712608,-0.11828907951712608,-0.11828907951712608,-0.11828907951712608,-0.11828907951712608,-0.11828907951712608,-0.11828907951712608,-0.11828907951712608,-0.11828907951712608,-0.11828907951712608,-0.11828907951712608,-0.11828907951712608,-0.11828907951712608,-0.11828907951712608,-0.11828907951712608,-0.11828907951712608,-0.11828907951712608,-0.11828907951712608,-0.11828907951712608,-0.11828907951712608,-0.11828907951712608,-0.11828907951712608,-0.11828907951712608,-0.11828907951712608,-0.11828907951712608,-0.11828907951712608,-0.11828907951712608,-0.11828907951712608,-0.11828907951712608,-0.11828907951712608,-0.11828907951712608,-0.11828907951712608,-0.11828907951712608,-0.11828907951712608,-0.11828907951712608,-0.11828907951712608,-0.11828907951712608,-0.11828907951712608,-0.11828907951712608,-0.11828907951712608,-0.11828907951712608,-0.11828907951712608,-0.11828907951712608,-0.11828907951712608,-0.11828907951712608,-0.11828907951712608,-0.11828907951712608,-0.11828907951712608,-0.11828907951712608,-0.11828907951712608,-0.11828907951712608,-0.11828907951712608,-0.11828907951712608,-0.11828907951712608,-0.11828907951712608,-0.11828907951712608,-0.11828907951712608,-0.11828907951712608,-0.11828907951712608,-0.11828907951712608,-0.11828907951712608,-0.11828907951712608,-0.11828907951712608,-0.11828907951712608,-0.11828907951712608,-0.11828907951712608,-0.11828907951712608,-0.11828907951712608,-0.11828907951712608,-0.11828907951712608,-0.11828907951712608,-0.11828907951712608,-0.11828907951712608,-0.11828907951712608,-0.11828907951712608,-0.11828907951712608,-0.11828907951712608,-0.11828907951712608,-0.11828907951712608,-0.11828907951712608,-0.11828907951712608,-0.11828907951712608,-0.11828907951712608,-0.11828907951712608,-0.11828907951712608,-0.11828907951712608,-0.11828907951712608,-0.11828907951712608,-0.11828907951712608,-0.11828907951712608,-0.11828907951712608,-0.11828907951712608,-0.11828907951712608,-0.11828907951712608,-0.11828907951712608,-0.11828907951712608,-0.11828907951712608,-0.11828907951712608,-0.11828907951712608,-0.11828907951712608,-0.11828907951712608,-0.11828907951712608,-0.11828907951712608,-0.11828907951712608,-0.11828907951712608,-0.11828907951712608,-0.11828907951712608,-0.11828907951712608,-0.11828907951712608,-0.04821913316845894,-0.04821913316845894],[-0.11828907951712608,-0.11828907951712608,-0.11828907951712608,-0.11828907951712608,-0.11828907951712608,-0.11828907951712608,-0.11828907951712608,-0.11828907951712608,-0.11828907951712608,-0.11828907951712608,-0.11828907951712608,-0.11828907951712608,-0.11828907951712608,-0.11828907951712608,-0.11828907951712608,-0.11828907951712608,-0.11828907951712608,-0.11828907951712608,-0.11828907951712608,-0.11828907951712608,-0.11828907951712608,-0.11828907951712608,-0.11828907951712608,-0.11828907951712608,-0.11828907951712608,-0.11828907951712608,-0.11828907951712608,-0.11828907951712608,-0.11828907951712608,-0.11828907951712608,-0.11828907951712608,-0.11828907951712608,-0.11828907951712608,-0.11828907951712608,-0.11828907951712608,-0.11828907951712608,-0.11828907951712608,-0.11828907951712608,-0.11828907951712608,-0.11828907951712608,-0.11828907951712608,-0.11828907951712608,-0.11828907951712608,-0.11828907951712608,-0.11828907951712608,-0.11828907951712608,-0.11828907951712608,-0.11828907951712608,-0.11828907951712608,-0.11828907951712608,-0.11828907951712608,-0.11828907951712608,-0.11828907951712608,-0.11828907951712608,-0.11828907951712608,-0.11828907951712608,-0.11828907951712608,-0.11828907951712608,-0.11828907951712608,-0.11828907951712608,-0.11828907951712608,-0.11828907951712608,-0.11828907951712608,-0.11828907951712608,-0.11828907951712608,-0.11828907951712608,-0.11828907951712608,-0.11828907951712608,-0.11828907951712608,-0.11828907951712608,-0.11828907951712608,-0.11828907951712608,-0.11828907951712608,-0.11828907951712608,-0.11828907951712608,-0.11828907951712608,-0.11828907951712608,-0.11828907951712608,-0.11828907951712608,-0.11828907951712608,-0.11828907951712608,-0.11828907951712608,-0.11828907951712608,-0.11828907951712608,-0.11828907951712608,-0.11828907951712608,-0.11828907951712608,-0.11828907951712608,-0.11828907951712608,-0.11828907951712608,-0.11828907951712608,-0.11828907951712608,-0.11828907951712608,-0.11828907951712608,-0.11828907951712608,-0.11828907951712608,-0.11828907951712608,-0.11828907951712608,-0.11828907951712608,-0.11828907951712608,-0.11828907951712608,-0.11828907951712608,-0.11828907951712608,-0.11828907951712608,-0.11828907951712608,-0.11828907951712608,-0.11828907951712608,-0.11828907951712608,-0.11828907951712608,-0.11828907951712608,-0.11828907951712608,-0.11828907951712608,-0.11828907951712608,-0.11828907951712608,-0.11828907951712608,-0.11828907951712608,-0.11828907951712608,-0.11828907951712608,-0.11828907951712608,-0.11828907951712608,-0.11828907951712608,-0.11828907951712608,-0.11828907951712608,-0.11828907951712608,-0.11828907951712608,-0.11828907951712608,-0.04821913316845894,-0.04821913316845894],[-0.11828907951712608,-0.11828907951712608,-0.11828907951712608,-0.11828907951712608,-0.11828907951712608,-0.11828907951712608,-0.11828907951712608,-0.11828907951712608,-0.11828907951712608,-0.11828907951712608,-0.11828907951712608,-0.11828907951712608,-0.11828907951712608,-0.11828907951712608,-0.11828907951712608,-0.11828907951712608,-0.11828907951712608,-0.11828907951712608,-0.11828907951712608,-0.11828907951712608,-0.11828907951712608,-0.11828907951712608,-0.11828907951712608,-0.11828907951712608,-0.11828907951712608,-0.11828907951712608,-0.11828907951712608,-0.11828907951712608,-0.11828907951712608,-0.11828907951712608,-0.11828907951712608,-0.11828907951712608,-0.11828907951712608,-0.11828907951712608,-0.11828907951712608,-0.11828907951712608,-0.11828907951712608,-0.11828907951712608,-0.11828907951712608,-0.11828907951712608,-0.11828907951712608,-0.11828907951712608,-0.11828907951712608,-0.11828907951712608,-0.11828907951712608,-0.11828907951712608,-0.11828907951712608,-0.11828907951712608,-0.11828907951712608,-0.11828907951712608,-0.11828907951712608,-0.11828907951712608,-0.11828907951712608,-0.11828907951712608,-0.11828907951712608,-0.11828907951712608,-0.11828907951712608,-0.11828907951712608,-0.11828907951712608,-0.11828907951712608,-0.11828907951712608,-0.11828907951712608,-0.11828907951712608,-0.11828907951712608,-0.11828907951712608,-0.11828907951712608,-0.11828907951712608,-0.11828907951712608,-0.11828907951712608,-0.11828907951712608,-0.11828907951712608,-0.11828907951712608,-0.11828907951712608,-0.11828907951712608,-0.11828907951712608,-0.11828907951712608,-0.11828907951712608,-0.11828907951712608,-0.11828907951712608,-0.11828907951712608,-0.11828907951712608,-0.11828907951712608,-0.11828907951712608,-0.11828907951712608,-0.11828907951712608,-0.11828907951712608,-0.11828907951712608,-0.11828907951712608,-0.11828907951712608,-0.11828907951712608,-0.11828907951712608,-0.11828907951712608,-0.11828907951712608,-0.11828907951712608,-0.11828907951712608,-0.11828907951712608,-0.11828907951712608,-0.11828907951712608,-0.11828907951712608,-0.11828907951712608,-0.11828907951712608,-0.11828907951712608,-0.11828907951712608,-0.11828907951712608,-0.11828907951712608,-0.11828907951712608,-0.11828907951712608,-0.11828907951712608,-0.11828907951712608,-0.11828907951712608,-0.11828907951712608,-0.11828907951712608,-0.11828907951712608,-0.11828907951712608,-0.11828907951712608,-0.11828907951712608,-0.11828907951712608,-0.11828907951712608,-0.11828907951712608,-0.11828907951712608,-0.11828907951712608,-0.11828907951712608,-0.11828907951712608,-0.11828907951712608,-0.11828907951712608,-0.11828907951712608,-0.04821913316845894,-0.04821913316845894],[-0.11828907951712608,-0.11828907951712608,-0.11828907951712608,-0.11828907951712608,-0.11828907951712608,-0.11828907951712608,-0.11828907951712608,-0.11828907951712608,-0.11828907951712608,-0.11828907951712608,-0.11828907951712608,-0.11828907951712608,-0.11828907951712608,-0.11828907951712608,-0.11828907951712608,-0.11828907951712608,-0.11828907951712608,-0.11828907951712608,-0.11828907951712608,-0.11828907951712608,-0.11828907951712608,-0.11828907951712608,-0.11828907951712608,-0.11828907951712608,-0.11828907951712608,-0.11828907951712608,-0.11828907951712608,-0.11828907951712608,-0.11828907951712608,-0.11828907951712608,-0.11828907951712608,-0.11828907951712608,-0.11828907951712608,-0.11828907951712608,-0.11828907951712608,-0.11828907951712608,-0.11828907951712608,-0.11828907951712608,-0.11828907951712608,-0.11828907951712608,-0.11828907951712608,-0.11828907951712608,-0.11828907951712608,-0.11828907951712608,-0.11828907951712608,-0.11828907951712608,-0.11828907951712608,-0.11828907951712608,-0.11828907951712608,-0.11828907951712608,-0.11828907951712608,-0.11828907951712608,-0.11828907951712608,-0.11828907951712608,-0.11828907951712608,-0.11828907951712608,-0.11828907951712608,-0.11828907951712608,-0.11828907951712608,-0.11828907951712608,-0.11828907951712608,-0.11828907951712608,-0.11828907951712608,-0.11828907951712608,-0.11828907951712608,-0.11828907951712608,-0.11828907951712608,-0.11828907951712608,-0.11828907951712608,-0.11828907951712608,-0.11828907951712608,-0.11828907951712608,-0.11828907951712608,-0.11828907951712608,-0.11828907951712608,-0.11828907951712608,-0.11828907951712608,-0.11828907951712608,-0.11828907951712608,-0.11828907951712608,-0.11828907951712608,-0.11828907951712608,-0.11828907951712608,-0.11828907951712608,-0.11828907951712608,-0.11828907951712608,-0.11828907951712608,-0.11828907951712608,-0.11828907951712608,-0.11828907951712608,-0.11828907951712608,-0.11828907951712608,-0.11828907951712608,-0.11828907951712608,-0.11828907951712608,-0.11828907951712608,-0.11828907951712608,-0.11828907951712608,-0.11828907951712608,-0.11828907951712608,-0.11828907951712608,-0.11828907951712608,-0.11828907951712608,-0.11828907951712608,-0.11828907951712608,-0.11828907951712608,-0.11828907951712608,-0.11828907951712608,-0.11828907951712608,-0.11828907951712608,-0.11828907951712608,-0.11828907951712608,-0.11828907951712608,-0.11828907951712608,-0.11828907951712608,-0.11828907951712608,-0.11828907951712608,-0.11828907951712608,-0.11828907951712608,-0.11828907951712608,-0.11828907951712608,-0.11828907951712608,-0.11828907951712608,-0.11828907951712608,-0.11828907951712608,-0.11828907951712608,-0.04821913316845894,-0.04821913316845894],[-0.11828907951712608,-0.11828907951712608,-0.11828907951712608,-0.11828907951712608,-0.11828907951712608,-0.11828907951712608,-0.11828907951712608,-0.11828907951712608,-0.11828907951712608,-0.11828907951712608,-0.11828907951712608,-0.11828907951712608,-0.11828907951712608,-0.11828907951712608,-0.11828907951712608,-0.11828907951712608,-0.11828907951712608,-0.11828907951712608,-0.11828907951712608,-0.11828907951712608,-0.11828907951712608,-0.11828907951712608,-0.11828907951712608,-0.11828907951712608,-0.11828907951712608,-0.11828907951712608,-0.11828907951712608,-0.11828907951712608,-0.11828907951712608,-0.11828907951712608,-0.11828907951712608,-0.11828907951712608,-0.11828907951712608,-0.11828907951712608,-0.11828907951712608,-0.11828907951712608,-0.11828907951712608,-0.11828907951712608,-0.11828907951712608,-0.11828907951712608,-0.11828907951712608,-0.11828907951712608,-0.11828907951712608,-0.11828907951712608,-0.11828907951712608,-0.11828907951712608,-0.11828907951712608,-0.11828907951712608,-0.11828907951712608,-0.11828907951712608,-0.11828907951712608,-0.11828907951712608,-0.11828907951712608,-0.11828907951712608,-0.11828907951712608,-0.11828907951712608,-0.11828907951712608,-0.11828907951712608,-0.11828907951712608,-0.11828907951712608,-0.11828907951712608,-0.11828907951712608,-0.11828907951712608,-0.11828907951712608,-0.11828907951712608,-0.11828907951712608,-0.11828907951712608,-0.11828907951712608,-0.11828907951712608,-0.11828907951712608,-0.11828907951712608,-0.11828907951712608,-0.11828907951712608,-0.11828907951712608,-0.11828907951712608,-0.11828907951712608,-0.11828907951712608,-0.11828907951712608,-0.11828907951712608,-0.11828907951712608,-0.11828907951712608,-0.11828907951712608,-0.11828907951712608,-0.11828907951712608,-0.11828907951712608,-0.11828907951712608,-0.11828907951712608,-0.11828907951712608,-0.11828907951712608,-0.11828907951712608,-0.11828907951712608,-0.11828907951712608,-0.11828907951712608,-0.11828907951712608,-0.11828907951712608,-0.11828907951712608,-0.11828907951712608,-0.11828907951712608,-0.11828907951712608,-0.11828907951712608,-0.11828907951712608,-0.11828907951712608,-0.11828907951712608,-0.11828907951712608,-0.11828907951712608,-0.11828907951712608,-0.11828907951712608,-0.11828907951712608,-0.11828907951712608,-0.11828907951712608,-0.11828907951712608,-0.11828907951712608,-0.11828907951712608,-0.11828907951712608,-0.11828907951712608,-0.11828907951712608,-0.11828907951712608,-0.11828907951712608,-0.11828907951712608,-0.11828907951712608,-0.11828907951712608,-0.11828907951712608,-0.11828907951712608,-0.11828907951712608,-0.11828907951712608,-0.11828907951712608,-0.04821913316845894,-0.04821913316845894],[-0.11828907951712608,-0.11828907951712608,-0.11828907951712608,-0.11828907951712608,-0.11828907951712608,-0.11828907951712608,-0.11828907951712608,-0.11828907951712608,-0.11828907951712608,-0.11828907951712608,-0.11828907951712608,-0.11828907951712608,-0.11828907951712608,-0.11828907951712608,-0.11828907951712608,-0.11828907951712608,-0.11828907951712608,-0.11828907951712608,-0.11828907951712608,-0.11828907951712608,-0.11828907951712608,-0.11828907951712608,-0.11828907951712608,-0.11828907951712608,-0.11828907951712608,-0.11828907951712608,-0.11828907951712608,-0.11828907951712608,-0.11828907951712608,-0.11828907951712608,-0.11828907951712608,-0.11828907951712608,-0.11828907951712608,-0.11828907951712608,-0.11828907951712608,-0.11828907951712608,-0.11828907951712608,-0.11828907951712608,-0.11828907951712608,-0.11828907951712608,-0.11828907951712608,-0.11828907951712608,-0.11828907951712608,-0.11828907951712608,-0.11828907951712608,-0.11828907951712608,-0.11828907951712608,-0.11828907951712608,-0.11828907951712608,-0.11828907951712608,-0.11828907951712608,-0.11828907951712608,-0.11828907951712608,-0.11828907951712608,-0.11828907951712608,-0.11828907951712608,-0.11828907951712608,-0.11828907951712608,-0.11828907951712608,-0.11828907951712608,-0.11828907951712608,-0.11828907951712608,-0.11828907951712608,-0.11828907951712608,-0.11828907951712608,-0.11828907951712608,-0.11828907951712608,-0.11828907951712608,-0.11828907951712608,-0.11828907951712608,-0.11828907951712608,-0.11828907951712608,-0.11828907951712608,-0.11828907951712608,-0.11828907951712608,-0.11828907951712608,-0.11828907951712608,-0.11828907951712608,-0.11828907951712608,-0.11828907951712608,-0.11828907951712608,-0.11828907951712608,-0.11828907951712608,-0.11828907951712608,-0.11828907951712608,-0.11828907951712608,-0.11828907951712608,-0.11828907951712608,-0.11828907951712608,-0.11828907951712608,-0.11828907951712608,-0.11828907951712608,-0.11828907951712608,-0.11828907951712608,-0.11828907951712608,-0.11828907951712608,-0.11828907951712608,-0.11828907951712608,-0.11828907951712608,-0.11828907951712608,-0.11828907951712608,-0.11828907951712608,-0.11828907951712608,-0.11828907951712608,-0.11828907951712608,-0.11828907951712608,-0.11828907951712608,-0.11828907951712608,-0.11828907951712608,-0.11828907951712608,-0.11828907951712608,-0.11828907951712608,-0.11828907951712608,-0.11828907951712608,-0.11828907951712608,-0.11828907951712608,-0.11828907951712608,-0.11828907951712608,-0.11828907951712608,-0.11828907951712608,-0.11828907951712608,-0.11828907951712608,-0.11828907951712608,-0.11828907951712608,-0.11828907951712608,-0.11828907951712608,-0.04821913316845894,-0.04821913316845894],[-0.11828907951712608,-0.11828907951712608,-0.11828907951712608,-0.11828907951712608,-0.11828907951712608,-0.11828907951712608,-0.11828907951712608,-0.11828907951712608,-0.11828907951712608,-0.11828907951712608,-0.11828907951712608,-0.11828907951712608,-0.11828907951712608,-0.11828907951712608,-0.11828907951712608,-0.11828907951712608,-0.11828907951712608,-0.11828907951712608,-0.11828907951712608,-0.11828907951712608,-0.11828907951712608,-0.11828907951712608,-0.11828907951712608,-0.11828907951712608,-0.11828907951712608,-0.11828907951712608,-0.11828907951712608,-0.11828907951712608,-0.11828907951712608,-0.11828907951712608,-0.11828907951712608,-0.11828907951712608,-0.11828907951712608,-0.11828907951712608,-0.11828907951712608,-0.11828907951712608,-0.11828907951712608,-0.11828907951712608,-0.11828907951712608,-0.11828907951712608,-0.11828907951712608,-0.11828907951712608,-0.11828907951712608,-0.11828907951712608,-0.11828907951712608,-0.11828907951712608,-0.11828907951712608,-0.11828907951712608,-0.11828907951712608,-0.11828907951712608,-0.11828907951712608,-0.11828907951712608,-0.11828907951712608,-0.11828907951712608,-0.11828907951712608,-0.11828907951712608,-0.11828907951712608,-0.11828907951712608,-0.11828907951712608,-0.11828907951712608,-0.11828907951712608,-0.11828907951712608,-0.11828907951712608,-0.11828907951712608,-0.11828907951712608,-0.11828907951712608,-0.11828907951712608,-0.11828907951712608,-0.11828907951712608,-0.11828907951712608,-0.11828907951712608,-0.11828907951712608,-0.11828907951712608,-0.11828907951712608,-0.11828907951712608,-0.11828907951712608,-0.11828907951712608,-0.11828907951712608,-0.11828907951712608,-0.11828907951712608,-0.11828907951712608,-0.11828907951712608,-0.11828907951712608,-0.11828907951712608,-0.11828907951712608,-0.11828907951712608,-0.11828907951712608,-0.11828907951712608,-0.11828907951712608,-0.11828907951712608,-0.11828907951712608,-0.11828907951712608,-0.11828907951712608,-0.11828907951712608,-0.11828907951712608,-0.11828907951712608,-0.11828907951712608,-0.11828907951712608,-0.11828907951712608,-0.11828907951712608,-0.11828907951712608,-0.11828907951712608,-0.11828907951712608,-0.11828907951712608,-0.11828907951712608,-0.11828907951712608,-0.11828907951712608,-0.11828907951712608,-0.11828907951712608,-0.11828907951712608,-0.11828907951712608,-0.11828907951712608,-0.11828907951712608,-0.11828907951712608,-0.11828907951712608,-0.11828907951712608,-0.11828907951712608,-0.11828907951712608,-0.11828907951712608,-0.11828907951712608,-0.11828907951712608,-0.11828907951712608,-0.11828907951712608,-0.11828907951712608,-0.11828907951712608,-0.11828907951712608,-0.04821913316845894,-0.04821913316845894],[-0.11828907951712608,-0.11828907951712608,-0.11828907951712608,-0.11828907951712608,-0.11828907951712608,-0.11828907951712608,-0.11828907951712608,-0.11828907951712608,-0.11828907951712608,-0.11828907951712608,-0.11828907951712608,-0.11828907951712608,-0.11828907951712608,-0.11828907951712608,-0.11828907951712608,-0.11828907951712608,-0.11828907951712608,-0.11828907951712608,-0.11828907951712608,-0.11828907951712608,-0.11828907951712608,-0.11828907951712608,-0.11828907951712608,-0.11828907951712608,-0.11828907951712608,-0.11828907951712608,-0.11828907951712608,-0.11828907951712608,-0.11828907951712608,-0.11828907951712608,-0.11828907951712608,-0.11828907951712608,-0.11828907951712608,-0.11828907951712608,-0.11828907951712608,-0.11828907951712608,-0.11828907951712608,-0.11828907951712608,-0.11828907951712608,-0.11828907951712608,-0.11828907951712608,-0.11828907951712608,-0.11828907951712608,-0.11828907951712608,-0.11828907951712608,-0.11828907951712608,-0.11828907951712608,-0.11828907951712608,-0.11828907951712608,-0.11828907951712608,-0.11828907951712608,-0.11828907951712608,-0.11828907951712608,-0.11828907951712608,-0.11828907951712608,-0.11828907951712608,-0.11828907951712608,-0.11828907951712608,-0.11828907951712608,-0.11828907951712608,-0.11828907951712608,-0.11828907951712608,-0.11828907951712608,-0.11828907951712608,-0.11828907951712608,-0.11828907951712608,-0.11828907951712608,-0.11828907951712608,-0.11828907951712608,-0.11828907951712608,-0.11828907951712608,-0.11828907951712608,-0.11828907951712608,-0.11828907951712608,-0.11828907951712608,-0.11828907951712608,-0.11828907951712608,-0.11828907951712608,-0.11828907951712608,-0.11828907951712608,-0.11828907951712608,-0.11828907951712608,-0.11828907951712608,-0.11828907951712608,-0.11828907951712608,-0.11828907951712608,-0.11828907951712608,-0.11828907951712608,-0.11828907951712608,-0.11828907951712608,-0.11828907951712608,-0.11828907951712608,-0.11828907951712608,-0.11828907951712608,-0.11828907951712608,-0.11828907951712608,-0.11828907951712608,-0.11828907951712608,-0.11828907951712608,-0.11828907951712608,-0.11828907951712608,-0.11828907951712608,-0.11828907951712608,-0.11828907951712608,-0.11828907951712608,-0.11828907951712608,-0.11828907951712608,-0.11828907951712608,-0.11828907951712608,-0.11828907951712608,-0.11828907951712608,-0.11828907951712608,-0.11828907951712608,-0.11828907951712608,-0.11828907951712608,-0.11828907951712608,-0.11828907951712608,-0.11828907951712608,-0.11828907951712608,-0.11828907951712608,-0.11828907951712608,-0.11828907951712608,-0.11828907951712608,-0.11828907951712608,-0.11828907951712608,-0.11828907951712608,-0.04821913316845894,-0.04821913316845894],[-0.11828907951712608,-0.11828907951712608,-0.11828907951712608,-0.11828907951712608,-0.11828907951712608,-0.11828907951712608,-0.11828907951712608,-0.11828907951712608,-0.11828907951712608,-0.11828907951712608,-0.11828907951712608,-0.11828907951712608,-0.11828907951712608,-0.11828907951712608,-0.11828907951712608,-0.11828907951712608,-0.11828907951712608,-0.11828907951712608,-0.11828907951712608,-0.11828907951712608,-0.11828907951712608,-0.11828907951712608,-0.11828907951712608,-0.11828907951712608,-0.11828907951712608,-0.11828907951712608,-0.11828907951712608,-0.11828907951712608,-0.11828907951712608,-0.11828907951712608,-0.11828907951712608,-0.11828907951712608,-0.11828907951712608,-0.11828907951712608,-0.11828907951712608,-0.11828907951712608,-0.11828907951712608,-0.11828907951712608,-0.11828907951712608,-0.11828907951712608,-0.11828907951712608,-0.11828907951712608,-0.11828907951712608,-0.11828907951712608,-0.11828907951712608,-0.11828907951712608,-0.11828907951712608,-0.11828907951712608,-0.11828907951712608,-0.11828907951712608,-0.11828907951712608,-0.11828907951712608,-0.11828907951712608,-0.11828907951712608,-0.11828907951712608,-0.11828907951712608,-0.11828907951712608,-0.11828907951712608,-0.11828907951712608,-0.11828907951712608,-0.11828907951712608,-0.11828907951712608,-0.11828907951712608,-0.11828907951712608,-0.11828907951712608,-0.11828907951712608,-0.11828907951712608,-0.11828907951712608,-0.11828907951712608,-0.11828907951712608,-0.11828907951712608,-0.11828907951712608,-0.11828907951712608,-0.11828907951712608,-0.11828907951712608,-0.11828907951712608,-0.11828907951712608,-0.11828907951712608,-0.11828907951712608,-0.11828907951712608,-0.11828907951712608,-0.11828907951712608,-0.11828907951712608,-0.11828907951712608,-0.11828907951712608,-0.11828907951712608,-0.11828907951712608,-0.11828907951712608,-0.11828907951712608,-0.11828907951712608,-0.11828907951712608,-0.11828907951712608,-0.11828907951712608,-0.11828907951712608,-0.11828907951712608,-0.11828907951712608,-0.11828907951712608,-0.11828907951712608,-0.11828907951712608,-0.11828907951712608,-0.11828907951712608,-0.11828907951712608,-0.11828907951712608,-0.11828907951712608,-0.11828907951712608,-0.11828907951712608,-0.11828907951712608,-0.11828907951712608,-0.11828907951712608,-0.11828907951712608,-0.11828907951712608,-0.11828907951712608,-0.11828907951712608,-0.11828907951712608,-0.11828907951712608,-0.11828907951712608,-0.11828907951712608,-0.11828907951712608,-0.11828907951712608,-0.11828907951712608,-0.11828907951712608,-0.11828907951712608,-0.11828907951712608,-0.11828907951712608,-0.11828907951712608,-0.11828907951712608,-0.04821913316845894,-0.04821913316845894],[-0.11828907951712608,-0.11828907951712608,-0.11828907951712608,-0.11828907951712608,-0.11828907951712608,-0.11828907951712608,-0.11828907951712608,-0.11828907951712608,-0.11828907951712608,-0.11828907951712608,-0.11828907951712608,-0.11828907951712608,-0.11828907951712608,-0.11828907951712608,-0.11828907951712608,-0.11828907951712608,-0.11828907951712608,-0.11828907951712608,-0.11828907951712608,-0.11828907951712608,-0.11828907951712608,-0.11828907951712608,-0.11828907951712608,-0.11828907951712608,-0.11828907951712608,-0.11828907951712608,-0.11828907951712608,-0.11828907951712608,-0.11828907951712608,-0.11828907951712608,-0.11828907951712608,-0.11828907951712608,-0.11828907951712608,-0.11828907951712608,-0.11828907951712608,-0.11828907951712608,-0.11828907951712608,-0.11828907951712608,-0.11828907951712608,-0.11828907951712608,-0.11828907951712608,-0.11828907951712608,-0.11828907951712608,-0.11828907951712608,-0.11828907951712608,-0.11828907951712608,-0.11828907951712608,-0.11828907951712608,-0.11828907951712608,-0.11828907951712608,-0.11828907951712608,-0.11828907951712608,-0.11828907951712608,-0.11828907951712608,-0.11828907951712608,-0.11828907951712608,-0.11828907951712608,-0.11828907951712608,-0.11828907951712608,-0.11828907951712608,-0.11828907951712608,-0.11828907951712608,-0.11828907951712608,-0.11828907951712608,-0.11828907951712608,-0.11828907951712608,-0.11828907951712608,-0.11828907951712608,-0.11828907951712608,-0.11828907951712608,-0.11828907951712608,-0.11828907951712608,-0.11828907951712608,-0.11828907951712608,-0.11828907951712608,-0.11828907951712608,-0.11828907951712608,-0.11828907951712608,-0.11828907951712608,-0.11828907951712608,-0.11828907951712608,-0.11828907951712608,-0.11828907951712608,-0.11828907951712608,-0.11828907951712608,-0.11828907951712608,-0.11828907951712608,-0.11828907951712608,-0.11828907951712608,-0.11828907951712608,-0.11828907951712608,-0.11828907951712608,-0.11828907951712608,-0.11828907951712608,-0.11828907951712608,-0.11828907951712608,-0.11828907951712608,-0.11828907951712608,-0.11828907951712608,-0.11828907951712608,-0.11828907951712608,-0.11828907951712608,-0.11828907951712608,-0.11828907951712608,-0.11828907951712608,-0.11828907951712608,-0.11828907951712608,-0.11828907951712608,-0.11828907951712608,-0.11828907951712608,-0.11828907951712608,-0.11828907951712608,-0.11828907951712608,-0.11828907951712608,-0.11828907951712608,-0.11828907951712608,-0.11828907951712608,-0.11828907951712608,-0.11828907951712608,-0.11828907951712608,-0.11828907951712608,-0.11828907951712608,-0.11828907951712608,-0.11828907951712608,-0.11828907951712608,-0.11828907951712608,-0.04821913316845894,-0.04821913316845894],[-0.11828907951712608,-0.11828907951712608,-0.11828907951712608,-0.11828907951712608,-0.11828907951712608,-0.11828907951712608,-0.11828907951712608,-0.11828907951712608,-0.11828907951712608,-0.11828907951712608,-0.11828907951712608,-0.11828907951712608,-0.11828907951712608,-0.11828907951712608,-0.11828907951712608,-0.11828907951712608,-0.11828907951712608,-0.11828907951712608,-0.11828907951712608,-0.11828907951712608,-0.11828907951712608,-0.11828907951712608,-0.11828907951712608,-0.11828907951712608,-0.11828907951712608,-0.11828907951712608,-0.11828907951712608,-0.11828907951712608,-0.11828907951712608,-0.11828907951712608,-0.11828907951712608,-0.11828907951712608,-0.11828907951712608,-0.11828907951712608,-0.11828907951712608,-0.11828907951712608,-0.11828907951712608,-0.11828907951712608,-0.11828907951712608,-0.11828907951712608,-0.11828907951712608,-0.11828907951712608,-0.11828907951712608,-0.11828907951712608,-0.11828907951712608,-0.11828907951712608,-0.11828907951712608,-0.11828907951712608,-0.11828907951712608,-0.11828907951712608,-0.11828907951712608,-0.11828907951712608,-0.11828907951712608,-0.11828907951712608,-0.11828907951712608,-0.11828907951712608,-0.11828907951712608,-0.11828907951712608,-0.11828907951712608,-0.11828907951712608,-0.11828907951712608,-0.11828907951712608,-0.11828907951712608,-0.11828907951712608,-0.11828907951712608,-0.11828907951712608,-0.11828907951712608,-0.11828907951712608,-0.11828907951712608,-0.11828907951712608,-0.11828907951712608,-0.11828907951712608,-0.11828907951712608,-0.11828907951712608,-0.11828907951712608,-0.11828907951712608,-0.11828907951712608,-0.11828907951712608,-0.11828907951712608,-0.11828907951712608,-0.11828907951712608,-0.11828907951712608,-0.11828907951712608,-0.11828907951712608,-0.11828907951712608,-0.11828907951712608,-0.11828907951712608,-0.11828907951712608,-0.11828907951712608,-0.11828907951712608,-0.11828907951712608,-0.11828907951712608,-0.11828907951712608,-0.11828907951712608,-0.11828907951712608,-0.11828907951712608,-0.11828907951712608,-0.11828907951712608,-0.11828907951712608,-0.11828907951712608,-0.11828907951712608,-0.11828907951712608,-0.11828907951712608,-0.11828907951712608,-0.11828907951712608,-0.11828907951712608,-0.11828907951712608,-0.11828907951712608,-0.11828907951712608,-0.11828907951712608,-0.11828907951712608,-0.11828907951712608,-0.11828907951712608,-0.11828907951712608,-0.11828907951712608,-0.11828907951712608,-0.11828907951712608,-0.11828907951712608,-0.11828907951712608,-0.11828907951712608,-0.11828907951712608,-0.11828907951712608,-0.11828907951712608,-0.11828907951712608,-0.11828907951712608,-0.11828907951712608,-0.04821913316845894,-0.04821913316845894],[-0.11828907951712608,-0.11828907951712608,-0.11828907951712608,-0.11828907951712608,-0.11828907951712608,-0.11828907951712608,-0.11828907951712608,-0.11828907951712608,-0.11828907951712608,-0.11828907951712608,-0.11828907951712608,-0.11828907951712608,-0.11828907951712608,-0.11828907951712608,-0.11828907951712608,-0.11828907951712608,-0.11828907951712608,-0.11828907951712608,-0.11828907951712608,-0.11828907951712608,-0.11828907951712608,-0.11828907951712608,-0.11828907951712608,-0.11828907951712608,-0.11828907951712608,-0.11828907951712608,-0.11828907951712608,-0.11828907951712608,-0.11828907951712608,-0.11828907951712608,-0.11828907951712608,-0.11828907951712608,-0.11828907951712608,-0.11828907951712608,-0.11828907951712608,-0.11828907951712608,-0.11828907951712608,-0.11828907951712608,-0.11828907951712608,-0.11828907951712608,-0.11828907951712608,-0.11828907951712608,-0.11828907951712608,-0.11828907951712608,-0.11828907951712608,-0.11828907951712608,-0.11828907951712608,-0.11828907951712608,-0.11828907951712608,-0.11828907951712608,-0.11828907951712608,-0.11828907951712608,-0.11828907951712608,-0.11828907951712608,-0.11828907951712608,-0.11828907951712608,-0.11828907951712608,-0.11828907951712608,-0.11828907951712608,-0.11828907951712608,-0.11828907951712608,-0.11828907951712608,-0.11828907951712608,-0.11828907951712608,-0.11828907951712608,-0.11828907951712608,-0.11828907951712608,-0.11828907951712608,-0.11828907951712608,-0.11828907951712608,-0.11828907951712608,-0.11828907951712608,-0.11828907951712608,-0.11828907951712608,-0.11828907951712608,-0.11828907951712608,-0.11828907951712608,-0.11828907951712608,-0.11828907951712608,-0.11828907951712608,-0.11828907951712608,-0.11828907951712608,-0.11828907951712608,-0.11828907951712608,-0.11828907951712608,-0.11828907951712608,-0.11828907951712608,-0.11828907951712608,-0.11828907951712608,-0.11828907951712608,-0.11828907951712608,-0.11828907951712608,-0.11828907951712608,-0.11828907951712608,-0.11828907951712608,-0.11828907951712608,-0.11828907951712608,-0.11828907951712608,-0.11828907951712608,-0.11828907951712608,-0.11828907951712608,-0.11828907951712608,-0.11828907951712608,-0.11828907951712608,-0.11828907951712608,-0.11828907951712608,-0.11828907951712608,-0.11828907951712608,-0.11828907951712608,-0.11828907951712608,-0.11828907951712608,-0.11828907951712608,-0.11828907951712608,-0.11828907951712608,-0.11828907951712608,-0.11828907951712608,-0.11828907951712608,-0.11828907951712608,-0.11828907951712608,-0.11828907951712608,-0.11828907951712608,-0.11828907951712608,-0.11828907951712608,-0.11828907951712608,-0.11828907951712608,-0.11828907951712608,-0.04821913316845894,-0.04821913316845894],[-0.11828907951712608,-0.11828907951712608,-0.11828907951712608,-0.11828907951712608,-0.11828907951712608,-0.11828907951712608,-0.11828907951712608,-0.11828907951712608,-0.11828907951712608,-0.11828907951712608,-0.11828907951712608,-0.11828907951712608,-0.11828907951712608,-0.11828907951712608,-0.11828907951712608,-0.11828907951712608,-0.11828907951712608,-0.11828907951712608,-0.11828907951712608,-0.11828907951712608,-0.11828907951712608,-0.11828907951712608,-0.11828907951712608,-0.11828907951712608,-0.11828907951712608,-0.11828907951712608,-0.11828907951712608,-0.11828907951712608,-0.11828907951712608,-0.11828907951712608,-0.11828907951712608,-0.11828907951712608,-0.11828907951712608,